%YAML:1.0
mex_id_type_d: !!opencv-object-detector-hog
   winSize: [ 128, 80 ]
   blockSize: [ 16, 16 ]
   blockStride: [ 8, 8 ]
   cellSize: [ 8, 8 ]
   nbins: 9
   derivAperture: 1
   winSigma: 4.
   histogramNormType: 0
   L2HysThreshold: 2.0000000000000001e-01
   gammaCorrection: 1
   nlevels: 64
   signedGradient: 0
   SVMDetector: [ -5.94939571e-03, -1.27829118e-02, 1.87713734e-03,
       1.49082365e-02, 4.47148047e-02, -2.70754634e-03, -8.94319173e-03,
       -3.20622907e-03, 8.15658271e-03, 6.36503100e-03, 4.06519603e-03,
       2.37484779e-02, 8.32147524e-03, 2.57663298e-02, -1.74690615e-02,
       1.38948690e-02, 2.36698464e-02, 5.04312105e-03, -2.07063705e-02,
       -8.77252780e-03, 1.53627163e-02, 1.34994974e-02, 9.64809675e-03,
       -5.10197319e-03, -5.24593168e-04, -1.05751129e-02,
       -6.30894490e-03, 7.01422151e-03, 2.97445301e-02, 5.16345650e-02,
       6.56451192e-03, 3.71741578e-02, 5.55545511e-03, 9.51957423e-03,
       1.03386166e-02, 6.91148126e-03, 3.53206927e-03, -1.65175851e-02,
       -1.75307330e-03, 1.24393832e-02, 2.73859291e-03, -1.90703887e-02,
       1.21852169e-02, 1.25923008e-02, 5.05983457e-03, 2.53306534e-02,
       3.06924097e-02, 2.03985665e-02, -6.68683508e-03, -8.63459986e-03,
       -2.68353485e-02, 4.39638272e-03, 2.99571920e-02, 2.77877674e-02,
       1.07934186e-02, -1.26537317e-02, 5.85384620e-03, 1.07223056e-02,
       -4.62468335e-04, 1.75549220e-02, -2.88001145e-03, -6.27516583e-03,
       -1.11951083e-02, 2.95008980e-02, -2.75310292e-03, -1.73237734e-02,
       -5.45293966e-04, 1.38407368e-02, 3.08679207e-03, 1.28578041e-02,
       3.68590951e-02, 2.84288358e-02, 5.05691729e-02, 2.47254819e-02,
       1.27578750e-02, -2.34360192e-02, -3.46074812e-02, -2.98415162e-02,
       -1.08972862e-02, 1.62162874e-02, 6.30282983e-02, 4.36876044e-02,
       4.48157452e-02, -1.63006887e-03, -1.30256563e-02, -5.75082144e-03,
       -3.39743495e-02, -8.76217429e-03, 2.27104053e-02, 5.38519248e-02,
       8.01064540e-03, 1.48688750e-02, -1.04927756e-02, -4.92260009e-02,
       -2.33101603e-02, -8.36856384e-03, 2.26780139e-02, 2.39808150e-02,
       1.51432138e-02, -2.95888493e-03, 9.41105280e-03, -1.09355757e-02,
       -9.14451480e-03, 1.77266635e-02, -1.39273424e-02, -1.88782904e-02,
       -9.64017957e-03, -2.23804135e-02, 1.29847722e-02, 2.76020868e-03,
       -5.71935554e-04, 4.66240896e-03, 3.64121678e-03, -1.91110093e-02,
       -3.17099434e-03, 1.31246233e-02, 2.06611399e-02, 3.36294025e-02,
       7.95778539e-03, -7.66779622e-03, -1.50919156e-02, -2.82795988e-02,
       -8.99709947e-03, -7.52715301e-03, 1.54835992e-02, 2.33600326e-02,
       -9.69804544e-03, -4.68997663e-04, -9.72518791e-03, 1.30118988e-02,
       -8.34428705e-03, -2.92153307e-03, -5.87488816e-04,
       -2.41382793e-03, -3.00765429e-02, 2.54186373e-02, 1.26306508e-02,
       3.46396328e-03, 8.51458218e-03, 3.23473918e-03, 2.99536297e-03,
       1.30652087e-02, 7.79399555e-03, 2.27638651e-02, 4.79447022e-02,
       -1.82607479e-03, -1.20463045e-02, -2.26364359e-02,
       -1.87395830e-02, 3.81348003e-03, -1.10093725e-03, 8.76194518e-03,
       2.94599794e-02, 8.18214938e-03, 1.51574584e-02, -1.55064389e-02,
       -8.37006792e-03, -5.78101957e-04, 2.28279430e-04, -2.49652993e-02,
       2.31163134e-03, -2.16239900e-03, 4.13881354e-02, 1.89382192e-02,
       1.16535313e-02, -1.62590761e-02, -2.05268282e-02, 6.63001277e-03,
       4.61556436e-03, -3.11858137e-03, 1.45559972e-02, 1.35706719e-02,
       3.14897820e-02, 1.15269944e-02, -7.82424957e-03, -5.47870807e-03,
       1.32109011e-02, 1.76452461e-03, -4.98916721e-03, 1.35640672e-03,
       2.47567389e-02, 7.38034677e-03, -1.36990808e-02, -7.55830063e-03,
       1.66026894e-02, -5.77178970e-03, -2.63265520e-02, 9.78884287e-03,
       8.68310593e-03, -7.82272406e-03, 2.26526316e-02, -8.61220155e-03,
       5.94559591e-03, 9.25541669e-03, -3.65765626e-03, -4.02338477e-03,
       2.34733671e-02, 1.98095143e-02, 3.28636658e-03, 1.05039333e-03,
       1.46525297e-02, -7.78296683e-03, -3.31265270e-03, 1.35742174e-02,
       4.07485757e-03, 3.47993663e-03, -6.39133505e-04, 1.05492426e-02,
       5.68049029e-03, 3.57571431e-03, 1.25623886e-02, 1.29860193e-02,
       -2.30864109e-03, 3.62446212e-04, 2.07178611e-02, 2.03716420e-02,
       1.00996140e-02, 1.22490190e-02, -1.17052896e-02, 1.16148358e-02,
       -1.43130133e-02, -7.19288038e-03, -1.49468686e-02,
       -4.37962078e-03, 1.69484839e-02, 3.81074427e-03, 1.94253866e-02,
       -6.95641479e-03, 5.40234568e-03, -2.19061077e-02, 2.10215151e-03,
       -2.58069602e-03, -5.51360426e-03, 8.27721786e-03, 1.24696922e-02,
       -2.95343460e-03, 2.99508846e-03, 2.52164323e-02, -9.99781117e-03,
       7.03470362e-03, -1.25247659e-02, 5.81224263e-03, 1.74103901e-02,
       2.22564396e-02, 1.27452100e-02, 1.23117417e-02, -1.82930436e-02,
       -1.59081090e-02, 2.00279802e-03, -1.71248727e-02, -1.31482184e-02,
       7.48743815e-03, 1.73352342e-02, -7.30828429e-03, -1.44255357e-02,
       -2.16024066e-03, 5.94426366e-03, -1.48868188e-03, 3.89523292e-03,
       2.08404269e-02, 3.54168974e-02, 7.37477560e-03, 3.91941378e-03,
       -8.61126650e-03, -1.87341776e-02, -9.49494634e-03,
       -9.92148183e-03, 4.48657200e-03, 2.04452276e-02, 2.12451238e-02,
       2.84465142e-02, 2.91600800e-03, 1.88711919e-02, 7.07399915e-04,
       2.41684504e-02, 1.36746671e-02, 1.62291769e-02, 8.41660332e-03,
       2.95713637e-02, -2.78125461e-02, 9.31124855e-03, 7.71734305e-03,
       -3.09446384e-03, 9.63759050e-03, -3.27726975e-02, -8.63862038e-03,
       4.81163571e-03, 7.58669153e-03, 3.71849909e-02, 2.23161280e-02,
       -1.73916444e-02, -4.36895713e-03, -2.24945676e-02, 8.55425838e-03,
       -1.05031468e-02, 1.58412789e-03, 4.69626971e-02, 4.00668457e-02,
       7.08327303e-03, 4.47195343e-04, 3.47867906e-02, -6.89107343e-04,
       1.01436395e-02, -4.82834019e-02, -2.52787420e-03, 5.10913134e-02,
       -2.40771342e-02, 1.67514617e-03, -1.57246403e-02, -6.73584524e-04,
       1.77215207e-02, -2.22202633e-02, -3.11540370e-03, -5.61092701e-03,
       -3.36285890e-03, 7.37840170e-03, -1.70125533e-02, -2.73989863e-03,
       1.39954407e-02, -1.67125445e-02, -1.94664542e-02, -2.03974564e-02,
       -3.56766977e-03, 1.31820338e-02, 2.12068856e-03, -1.16476528e-02,
       1.23408623e-02, 9.95087670e-04, 4.04348742e-04, 4.86485939e-03,
       -1.12079848e-02, -2.25921348e-02, -3.42683808e-04,
       -9.63608827e-03, 1.12382667e-02, 2.77312342e-02, -1.82333365e-02,
       -2.54453104e-02, 1.66938175e-04, 2.20675543e-02, 1.32350875e-02,
       -9.58981644e-03, -1.31906960e-02, -2.87252432e-03, 1.91398486e-02,
       -8.59423453e-05, -8.02344736e-03, 4.19997424e-02, 1.03358105e-02,
       1.19690131e-02, -1.43938754e-02, -1.54404035e-02, -5.79542154e-03,
       3.03527564e-02, -5.02220634e-03, -1.44713502e-02, -9.18726437e-03,
       2.08721776e-02, 4.13398817e-02, -1.71435717e-03, -1.88149512e-02,
       -1.20900692e-02, 1.18683570e-03, -1.06310798e-03, 1.00908391e-02,
       2.82101054e-02, 6.29201755e-02, 3.51364799e-02, -6.26229867e-03,
       -6.46320824e-03, -2.66351691e-03, -7.23590376e-03,
       -5.78719832e-04, -4.68837470e-03, 5.61393658e-03, 4.11288664e-02,
       1.10929888e-02, -1.74386834e-03, -2.68066023e-02, -4.18182259e-04,
       4.04598191e-02, 1.30370380e-02, -1.98426265e-02, 2.39476040e-02,
       2.76151225e-02, 4.62317578e-02, 8.55942257e-03, -2.58666128e-02,
       1.39012709e-02, 6.34014234e-03, 4.16962057e-03, -3.37216351e-03,
       2.72195973e-02, 3.01981135e-03, 1.03970505e-02, -5.58065344e-03,
       -2.17492133e-02, -4.37634764e-03, -7.78393820e-04,
       -3.04353647e-02, 2.29398012e-02, 8.17090366e-03, 2.26920061e-02,
       1.35621391e-02, -2.92507261e-02, 4.31390246e-03, -7.85974413e-03,
       -9.63099301e-03, -4.93992213e-03, 3.04675419e-02, 1.53935859e-02,
       -4.17864276e-03, -2.23892275e-02, -4.97834524e-03,
       -4.65057902e-02, -6.27324078e-03, 3.21673299e-03, 4.66036750e-03,
       2.86526550e-02, -7.00970506e-03, -1.45689100e-02, -4.64059925e-03,
       -3.73612456e-02, -2.11804360e-02, -2.90485355e-03, 5.29422052e-03,
       1.81015711e-02, 2.18949486e-02, 3.32210809e-02, 8.61728657e-03,
       2.27321591e-03, -3.34093638e-04, -1.85888205e-02, -2.50707343e-02,
       -2.00381782e-02, -6.72151567e-03, -9.98187903e-03,
       -3.79123795e-03, 4.63879062e-03, -1.74328759e-02, -1.20719075e-02,
       4.63810144e-03, -1.97129939e-02, -1.14398100e-03, 9.67771281e-03,
       8.53365473e-03, -8.89244396e-03, -1.04115671e-02, -1.04315123e-02,
       7.27921771e-03, -1.97059801e-03, -1.32902814e-02, -1.78862475e-02,
       -1.09648183e-02, -1.21338535e-02, 4.88942768e-03, -1.94118377e-02,
       -1.03382906e-02, -7.86694523e-04, 1.29476294e-03, -5.04416786e-03,
       -5.08842850e-03, -3.48414906e-04, 4.83819982e-03, 5.07899839e-03,
       -6.97878702e-03, 5.09290397e-03, 2.84021534e-03, 1.03340829e-02,
       2.59611639e-03, 6.14968082e-03, 5.22274477e-03, -2.82326397e-02,
       -1.64374169e-02, -1.52973775e-02, -2.40951497e-02, 6.07024226e-03,
       2.19712537e-02, -8.17326177e-03, 1.44554209e-02, -7.61073967e-03,
       1.49014057e-03, 1.30102541e-02, -6.05772389e-03, -1.81406364e-02,
       4.89145005e-03, -1.52663188e-02, 5.32272644e-03, 7.85548147e-03,
       2.60321703e-03, -1.35865621e-02, -1.88284889e-02, 1.13353161e-02,
       -2.11452204e-03, -1.33516472e-02, 1.21961311e-02, 1.82907637e-02,
       1.66953113e-02, 4.00737114e-03, 9.44328960e-03, 1.44967260e-02,
       -4.67271777e-03, -1.77510374e-04, -2.84898430e-02, 7.96788000e-03,
       4.69426345e-03, 1.04193455e-02, -5.50376391e-03, -7.34382402e-03,
       5.77522488e-03, 1.17287971e-02, -2.82485783e-03, 1.33308219e-02,
       -1.16404667e-02, -1.05960444e-02, -5.26175555e-03, 5.24220895e-03,
       -1.67689361e-02, -6.71155751e-03, 1.51853263e-02, 7.44086970e-03,
       8.38239957e-03, 9.03546717e-03, 2.76610963e-02, 2.54185684e-02,
       9.54071525e-03, -6.85941381e-03, 5.65467868e-03, 1.21921315e-04,
       2.38271132e-02, 6.30237674e-03, -8.18245299e-03, -2.34957831e-03,
       5.90313412e-03, 1.33534456e-02, -1.01946285e-02, 9.99729056e-03,
       9.87175386e-04, 9.94000770e-03, 9.20345914e-03, -1.57782808e-02,
       -1.21014500e-02, 2.30282452e-03, 3.54508264e-03, -1.75418649e-02,
       3.43675655e-03, 1.49459662e-02, 1.20406216e-02, 2.44746567e-03,
       1.14149945e-02, 2.49707093e-03, 1.70229971e-02, -1.53083261e-02,
       -1.82359829e-03, 1.24753378e-02, 6.44504046e-03, 1.32205067e-02,
       1.58004891e-02, -2.32344680e-02, -2.42722202e-02, -4.38714586e-03,
       -4.93604923e-04, -1.63521990e-02, 5.66704897e-03, -3.18292179e-03,
       -3.42150824e-03, 4.81428578e-04, -4.47000097e-03, -7.78607791e-03,
       7.61638256e-03, -6.05716696e-03, -1.06568225e-02, 2.66980147e-03,
       1.04763703e-02, 1.89613216e-02, 1.19187944e-02, 9.78270080e-03,
       2.99805100e-03, 2.08309777e-02, -8.55675433e-03, -1.00678019e-02,
       -2.34866616e-06, 1.51095344e-02, 7.85779394e-03, 3.75327608e-03,
       -2.81375274e-02, -1.62434205e-02, -7.56299170e-03,
       -1.88183356e-02, 9.11942217e-03, -2.64830086e-02, -1.69527289e-02,
       -6.90989569e-03, -3.91774764e-03, 1.37922466e-02, 1.43592115e-02,
       1.99111621e-03, 1.86408439e-03, -3.20213512e-02, -1.03449272e-02,
       1.49303470e-02, 3.08991894e-02, 1.67462986e-03, -1.74954049e-02,
       1.55929686e-03, 1.09847998e-02, 2.69017741e-03, -1.35652088e-02,
       7.68911233e-03, -9.19745304e-03, -7.24759465e-03, -2.81536952e-02,
       5.87871298e-03, 4.75415541e-03, -1.30787315e-02, 1.37152709e-03,
       2.58496795e-02, 1.42831309e-02, -1.01572936e-02, -1.52852642e-03,
       1.07859047e-02, -1.92368892e-03, -2.89638713e-03, 6.38017664e-04,
       -1.66671909e-02, 2.56689098e-02, 2.08679661e-02, 2.30772533e-02,
       -8.69159307e-03, 3.53288790e-03, -1.48269180e-02, 1.01617509e-02,
       9.71983001e-03, 5.50182210e-03, -6.29201205e-03, 2.14529596e-02,
       -9.22519621e-03, 1.10541647e-02, -1.02478694e-02, -7.96896406e-03,
       4.79449751e-03, 2.70048669e-03, -9.74300667e-04, 1.46039529e-02,
       1.45240305e-02, -1.13398824e-02, -1.31658167e-02, -2.89781708e-02,
       3.12650902e-03, -5.32250619e-03, 8.97996128e-03, -8.19913018e-03,
       -1.55072836e-02, 1.78368278e-02, 1.21346172e-02, -2.05869810e-03,
       -9.36128851e-03, 1.80358905e-02, 7.02596735e-03, 1.09179793e-02,
       -2.18959078e-02, -3.49571779e-02, -8.22658185e-03, 8.00227467e-03,
       1.84271839e-02, 2.17015147e-02, 6.36876561e-03, -1.42648304e-02,
       -1.92835443e-02, -2.31613126e-02, -5.57360286e-03,
       -1.55034121e-02, 5.95957134e-03, 1.62912311e-03, 2.18485831e-03,
       1.09252743e-02, 3.86290252e-03, -3.18796630e-03, 1.76525093e-03,
       2.08801497e-02, -4.03606854e-02, -1.45386830e-02, 8.52811988e-03,
       1.76425986e-02, 2.27819439e-02, 3.57073359e-02, 5.31847626e-02,
       2.85629854e-02, -2.94809565e-02, -2.85090716e-03, 2.10681017e-02,
       2.59856097e-02, 2.73467433e-02, -1.13953827e-02, 2.98615787e-02,
       1.72762834e-02, 2.50298325e-02, 3.01611115e-04, 9.15129762e-03,
       -4.86171152e-03, 3.46499984e-03, 8.99119303e-03, 1.65407881e-02,
       2.27444787e-02, 1.90052520e-02, 9.84630547e-03, -1.81165505e-02,
       -1.50873568e-02, 1.39363930e-02, 1.11744823e-02, 1.55991483e-02,
       -7.23247929e-03, 1.92719623e-02, -1.48942461e-02, 1.02185272e-02,
       1.17376978e-02, 1.54855335e-02, 1.54692763e-02, 1.25206001e-02,
       8.23713280e-03, -2.65960246e-02, 1.26652035e-03, 4.05155681e-03,
       -1.99602470e-02, 1.15138600e-02, -2.91208774e-02, -3.50908004e-02,
       -3.77291478e-02, -2.84631047e-02, -4.06040903e-03,
       -7.89465569e-03, -5.51953539e-03, 1.27172302e-02, 2.90477499e-02,
       -8.93577561e-03, -1.87291428e-02, -1.10708864e-03,
       -1.94829032e-02, -1.54124331e-02, 2.50862865e-03, 3.84338130e-03,
       -3.05517297e-02, 1.96717195e-02, -2.34880894e-02, -4.09239624e-03,
       -3.39414203e-03, -1.80588942e-02, 1.97345447e-02, 2.59239663e-04,
       -1.00514609e-02, 2.26066969e-02, 1.16588213e-02, 1.28278947e-02,
       1.82451010e-02, 1.57239102e-02, 2.69102026e-03, 1.48229738e-04,
       8.29084683e-03, -6.34783600e-03, -1.95393246e-02, 1.04419813e-02,
       -2.80268155e-02, -2.72353068e-02, -1.26414672e-02,
       -1.76803507e-02, -7.51514686e-03, 1.42916897e-02, -1.66292314e-03,
       -9.02349129e-03, -1.13194790e-02, -6.58568041e-03,
       -1.54971415e-02, -3.07930149e-02, -3.60086523e-02, 1.68906748e-02,
       5.85351279e-03, -2.26675514e-02, -1.03632370e-02, 1.17516303e-02,
       -1.24546066e-02, -1.98246515e-03, -5.41802170e-03,
       -4.67707682e-03, 4.47299192e-03, 2.88631115e-03, 3.95274197e-04,
       1.89379640e-02, -1.46225411e-02, 2.04562931e-03, -2.88916845e-03,
       -5.75492159e-04, -1.17148347e-02, -1.47705460e-02, 5.25259087e-03,
       4.89317859e-03, 1.62048005e-02, -2.68918723e-02, -1.62959669e-03,
       2.57368702e-02, -1.72690267e-03, -1.71683542e-02, -1.33755887e-02,
       6.84019178e-03, -2.72719134e-02, -6.24562381e-03, -6.77165668e-03,
       1.07576130e-02, -7.65061332e-03, 1.24542101e-03, -8.77450686e-03,
       -8.27592704e-03, -8.79472867e-03, 1.12800754e-03, 1.85574330e-02,
       -4.14568409e-02, 1.00877946e-02, -2.81620887e-03, 4.75054048e-03,
       -9.38678160e-03, -2.27153189e-02, -1.81608871e-02,
       -1.82524174e-02, -6.84192870e-03, 5.76187344e-03, 3.11795436e-03,
       -1.24290731e-04, -8.36418569e-03, -6.69832341e-03,
       -1.72378414e-03, 2.37763971e-02, 1.94508452e-02, 2.35078968e-02,
       3.60793318e-04, 2.17256565e-02, -7.17379432e-03, 1.34470602e-02,
       1.30690886e-02, -2.69666256e-04, 2.58785347e-03, 1.46680127e-03,
       1.89115796e-02, -2.18486208e-02, 1.46037517e-02, 9.38856788e-03,
       -1.10929777e-05, 4.29036748e-03, -1.43241519e-02, -7.01739104e-04,
       4.45777597e-03, 3.03022983e-03, 1.79301691e-03, 7.83194043e-03,
       -8.73002317e-03, -1.55431509e-03, -2.12421231e-02, 7.21792830e-03,
       1.51997637e-02, 1.42734628e-02, 8.79791379e-03, -9.35003813e-03,
       4.02851310e-03, -9.95489396e-03, 4.09491314e-03, -7.93005899e-03,
       -5.55703696e-03, -3.92966112e-03, 1.03595247e-02, 3.05117872e-02,
       -1.39081469e-02, 5.33500314e-03, -5.16298926e-03, -7.48028234e-03,
       -4.74547182e-04, -5.72338142e-03, 9.43998620e-03, 1.91816948e-02,
       1.69664994e-02, 9.52612550e-04, -3.45616392e-03, 4.58953017e-03,
       2.47952677e-02, 1.58547312e-02, 6.32798066e-03, -3.47239955e-04,
       -4.98263631e-03, 5.47305448e-03, -1.23226447e-02, -1.64451473e-03,
       2.46942285e-02, 1.64800733e-02, 2.27915030e-03, 8.85341316e-03,
       5.69400319e-04, 5.49609261e-03, -1.10119758e-02, -1.31351175e-02,
       -2.87033501e-04, 1.21189971e-02, 1.19243376e-02, 9.28554218e-03,
       1.86609663e-02, 3.28528043e-03, -1.73742995e-02, 1.72175572e-03,
       -2.58014095e-03, -1.39099443e-02, 5.50163118e-03, 4.76815505e-03,
       7.02207210e-04, -1.80880483e-02, 2.44960567e-04, -1.76763162e-02,
       3.50286398e-04, -3.72810778e-03, -1.68109313e-02, -9.44929942e-03,
       -1.25085851e-02, -3.43125463e-02, -5.99516509e-03, 9.13577061e-03,
       -1.15180702e-03, -1.10647017e-02, 4.44761524e-03, 1.19193019e-02,
       1.53595256e-02, 5.18441666e-03, 7.94943830e-04, -9.54362378e-03,
       6.54932286e-04, -3.38061061e-03, -2.46313866e-03, 9.17973276e-03,
       -8.80651642e-03, 3.79608665e-03, -8.17685761e-03, -2.08687764e-02,
       -3.53056076e-03, -2.13299040e-03, -9.32298042e-03, 3.59833636e-03,
       -9.09522641e-03, -3.69112450e-03, -1.29631292e-02,
       -2.64595426e-03, 7.33017456e-03, -1.01368120e-02, -9.23398510e-03,
       -2.06208806e-02, -4.43730154e-04, 1.69865154e-02, -1.48745272e-02,
       -5.42008039e-03, -8.10802449e-03, -9.81847476e-03,
       -1.34992339e-02, -7.43583264e-03, 7.95204844e-03, 1.53206652e-02,
       2.46789423e-04, 1.61753537e-03, -3.95037327e-03, 4.89612203e-03,
       -1.03110969e-02, -6.46074861e-03, -2.33090692e-03,
       -8.19130975e-04, -2.68312031e-03, 2.65179630e-02, 2.28302879e-03,
       -8.50894116e-03, 4.14814055e-03, -6.90629380e-03, -2.24825852e-02,
       -8.95133894e-03, -1.77066457e-02, -1.54585373e-02, 1.93047654e-02,
       -1.79369096e-02, 1.71593130e-02, 2.45616287e-02, 6.24358945e-04,
       -1.73062310e-02, 8.62242002e-03, -2.69396207e-03, 2.07778402e-02,
       -1.98718696e-03, -3.30615304e-02, -1.17845032e-02, 1.17481491e-02,
       -7.43437326e-03, -2.38542892e-02, 4.33927495e-03, 7.02660205e-03,
       1.38934678e-03, 3.82576250e-02, -9.19493265e-04, 7.60350190e-03,
       1.50035648e-02, -9.70579777e-03, -1.78645588e-02, 5.41817024e-03,
       6.87502674e-04, 1.34605514e-02, 1.62093863e-02, -4.19756724e-03,
       -1.48472814e-02, 1.03507489e-02, -1.49843367e-02, 1.15072238e-03,
       2.67307423e-02, 3.90744582e-02, 3.99549715e-02, 1.75581146e-02,
       1.50016723e-02, 1.89843494e-02, 2.58015282e-02, 1.17104128e-02,
       -2.51563564e-02, 9.72128846e-03, -5.77225629e-03, -2.67995259e-04,
       2.60940287e-02, 9.88666900e-03, 6.23172382e-03, 3.90774244e-03,
       -2.46258508e-02, -6.72863238e-03, 1.31357368e-02, 1.25181386e-02,
       7.90328532e-03, 1.69976894e-02, 4.80048507e-02, 2.34922115e-02,
       2.22062096e-02, -7.52355112e-03, -3.25027369e-02, 5.83343161e-03,
       -6.82335766e-03, -2.36556754e-02, 1.47951366e-02, 4.57891859e-02,
       1.82377528e-02, -2.22756062e-02, -4.93313782e-02, -1.91045962e-02,
       2.98814848e-03, 6.44349202e-04, -3.88903879e-02, 2.53057368e-02,
       -3.19564901e-02, -1.10435151e-02, -3.69224697e-03,
       -3.74808386e-02, -1.28617766e-03, 6.08692225e-03, -1.55525878e-02,
       4.46691830e-03, 2.59928498e-03, -1.26997828e-02, -1.52029023e-02,
       -7.85485096e-03, -1.41585674e-02, -2.12352350e-02,
       -1.27489604e-02, 4.01963189e-04, -3.66973951e-02, 4.88678478e-02,
       -6.31832099e-03, -3.53408512e-03, -1.53479539e-02,
       -3.02974172e-02, 2.30971947e-02, 4.16777655e-03, 1.52605809e-02,
       4.12447788e-02, 1.97776817e-02, 3.90259475e-02, 3.72386095e-03,
       3.09647177e-03, 3.67309637e-02, -9.47551150e-03, 3.26656667e-03,
       -2.07173098e-02, -1.69867463e-02, -7.42043892e-04,
       -1.98755953e-02, 1.57380884e-03, -1.57533307e-02, -1.48775410e-02,
       -4.30487003e-03, 1.13102316e-03, -1.38840247e-02, 9.94850183e-04,
       1.36925362e-03, -1.27497790e-02, 8.61480250e-04, -1.14509920e-02,
       -6.85588876e-03, 2.80295359e-03, -8.82944651e-03, -2.06798427e-02,
       -1.84428506e-02, 2.56811199e-03, -8.39630229e-05, 1.36637855e-02,
       -1.60437636e-02, 8.68087541e-03, 4.64570057e-03, 3.88977863e-03,
       -1.42076090e-02, -7.32681295e-03, -3.67672346e-03, 5.04051661e-03,
       1.68316681e-02, 7.60318828e-04, -1.26428553e-03, -1.13223111e-02,
       2.47078738e-03, -2.16443278e-03, 2.33659334e-02, -2.62259264e-02,
       2.20961589e-02, 1.39658963e-02, 4.42807470e-03, -2.70426529e-03,
       -2.37179510e-02, -1.14281848e-02, -5.32544637e-03,
       -1.38055580e-02, -8.37914832e-03, 6.64162682e-04, 9.41389240e-03,
       1.62275378e-02, -6.28998782e-03, 1.09470822e-02, 1.47007476e-03,
       7.28482381e-03, -5.64226601e-03, -2.08347403e-02, 1.59137249e-02,
       -1.43871419e-02, 5.96138474e-04, 1.52226770e-02, -3.76724871e-03,
       -6.29723584e-03, 1.29465917e-02, -2.45826375e-02, -1.50918113e-02,
       -1.74093060e-02, -4.85340785e-03, 1.47655597e-02, 2.13091709e-02,
       1.98411313e-03, 1.93097536e-02, 1.35920299e-02, 4.98131802e-03,
       -1.89172924e-02, 5.58269257e-03, 1.25578232e-02, 6.85611274e-03,
       -1.01454193e-02, 2.47524399e-02, 1.22157214e-02, 1.18453158e-02,
       1.33531792e-02, -1.63234901e-02, 1.47345513e-02, -4.31977399e-03,
       -2.46593468e-02, -6.18642254e-04, 6.26996951e-03, -4.27590543e-03,
       1.47641515e-02, -1.41744048e-03, -1.59717817e-02, -8.94932728e-03,
       7.55432528e-03, 6.82927156e-03, 2.16355398e-02, 3.28341685e-02,
       -7.05717178e-03, 1.67096164e-02, -1.91804476e-03, -1.02657964e-02,
       2.18133139e-03, 1.83284506e-02, -6.42703101e-03, 8.41456000e-03,
       3.94817488e-03, 1.23986654e-04, -1.24594271e-02, 2.14788150e-02,
       -2.76294462e-02, 1.90509297e-02, 1.31310578e-02, -2.84280442e-02,
       -1.67610589e-02, 5.05724922e-03, 5.08398842e-03, 1.45135000e-02,
       1.41764088e-02, -2.48065758e-02, 2.31661778e-02, 3.68197709e-02,
       1.65084712e-02, -1.21413136e-03, 1.48688676e-02, -1.39505093e-04,
       -1.49733725e-03, -3.73282703e-03, -4.21282202e-02,
       -1.97852477e-02, -9.62260179e-03, -1.92209780e-02, 1.17404759e-02,
       2.92299502e-03, 1.90195423e-02, 1.93858314e-02, -2.96925631e-04,
       -1.55594246e-02, -3.30612413e-03, 2.72518536e-03, 9.08068614e-04,
       -1.71946790e-02, -3.86079052e-03, 5.14944608e-04, 1.51541876e-02,
       -2.07926352e-02, -2.48323032e-03, 7.44649302e-03, 2.02205796e-02,
       -8.33041687e-03, 1.82747771e-03, -5.97553095e-03, -5.63447690e-03,
       4.52796323e-03, -2.81158872e-02, -2.34176335e-03, -2.49793660e-03,
       1.93993226e-02, 1.27292071e-02, 7.80759007e-03, 1.18095111e-02,
       5.01667382e-03, 3.15774567e-02, -2.18163542e-02, 2.66814814e-03,
       -9.73835867e-03, 1.28247088e-03, -1.40943751e-02, 2.33716069e-04,
       9.69607849e-03, 1.09156594e-02, -1.30164986e-02, -1.35594886e-02,
       2.26057656e-02, -3.51875536e-02, -7.76755670e-03, -1.32639788e-03,
       1.47820693e-02, -1.19654108e-02, -7.35737989e-03, 3.40535794e-03,
       2.43861806e-02, 8.40447005e-03, 7.85848033e-03, 7.83455931e-03,
       1.35654882e-02, 1.07027106e-02, -7.65502965e-03, -1.46183430e-03,
       -1.75179157e-03, 2.20645708e-03, 1.92440003e-02, -1.11982669e-03,
       2.89482041e-03, -2.54064333e-03, -5.34871547e-03, 1.65599044e-02,
       1.92768108e-02, 6.86999597e-03, 9.79176164e-03, 2.70814244e-02,
       -1.52244540e-02, -1.36170220e-02, 1.54978537e-03, 3.34661617e-03,
       -5.99355204e-03, 8.58481601e-03, -2.73546414e-03, -6.39635045e-03,
       2.56783478e-02, -1.35984886e-02, -6.83110626e-03, 1.96890003e-04,
       -1.53354499e-02, -3.04336455e-02, -7.36116059e-03,
       -7.73894554e-03, -2.05928329e-02, 1.85419954e-02, -1.51609471e-02,
       7.08303507e-03, 6.44323975e-03, -1.89668126e-02, -3.40753142e-03,
       -3.76107101e-03, -1.20485481e-02, -3.17975273e-03, 2.33882703e-02,
       -3.11530903e-02, -4.03328054e-02, -4.03311756e-03,
       -2.91830413e-02, 3.12887169e-02, 6.03961898e-03, 8.93354602e-03,
       -3.32311937e-03, 2.96101980e-02, 1.07806474e-02, 1.80040821e-02,
       1.58862248e-02, 3.71809304e-02, 1.79667063e-02, 1.47624854e-02,
       -1.31219896e-02, 6.43577834e-04, 2.86250524e-02, -3.46923992e-02,
       -7.42200017e-03, -8.92434549e-03, 2.64024306e-02, 1.93159061e-03,
       1.49766775e-02, 6.75153872e-03, -1.16587197e-02, -7.84534682e-03,
       8.63232184e-03, 1.99797400e-03, 1.33934421e-02, -5.20860124e-03,
       -2.06178166e-02, 1.44664897e-02, 9.85055976e-03, -2.01034751e-02,
       -3.54536856e-03, 7.63225276e-03, -3.73745151e-03, -2.36262269e-02,
       -1.83048695e-02, 2.30765231e-02, -4.44632955e-03, 1.09771825e-02,
       -4.21764934e-03, 3.14568244e-02, -3.07182386e-03, -1.31161767e-04,
       -2.26213112e-02, 2.36235987e-02, -3.62960994e-03, -1.33126825e-02,
       2.44011842e-02, 2.62369495e-02, -1.69115271e-02, 3.48149538e-02,
       2.93487385e-02, -8.40596695e-05, 2.45229956e-02, -1.76901079e-03,
       2.63730064e-03, -1.75330732e-02, -5.52214123e-02, -2.32305448e-03,
       -3.83615121e-02, -7.15160137e-03, -4.60490584e-03,
       -1.69245352e-03, 8.55987053e-03, -1.12823499e-02, -4.13463451e-03,
       1.52062327e-02, 4.67780530e-02, -8.90061818e-03, -1.90794989e-02,
       -1.05730202e-02, 8.00258387e-03, -1.67852063e-02, -2.23032068e-02,
       -3.85061614e-02, -1.85196046e-02, 1.29697444e-02, 5.48061565e-04,
       1.41625851e-02, -1.25174399e-03, -1.24554243e-03, 2.86059212e-02,
       -7.24249007e-03, -1.34062034e-03, 4.26950641e-02, -1.25280200e-02,
       4.59878705e-02, 2.07044743e-02, 1.03163803e-02, 3.99591550e-02,
       2.15535262e-03, 6.38701068e-03, 1.08328117e-02, -1.89934745e-02,
       2.23676115e-03, -1.77622419e-02, 1.81008298e-02, -8.01896583e-03,
       1.31427089e-03, -4.01389785e-03, -9.44148400e-04, 2.36664317e-03,
       -1.81905441e-02, -2.08294950e-02, -8.30532331e-03, 6.36887178e-03,
       -1.41952583e-03, 1.51197668e-02, 1.95612386e-02, 1.50549570e-02,
       -9.44131403e-04, -1.59259909e-03, 2.80951913e-02, 8.05199234e-05,
       -4.54231398e-03, -3.02625238e-03, 6.87653851e-03, 3.62526160e-03,
       -6.55536260e-03, -7.44378241e-03, 2.40840367e-03, -2.75029093e-02,
       1.10484129e-02, 5.93484333e-03, 2.53202021e-03, -9.33235232e-03,
       9.61866882e-03, 4.82800230e-03, 1.11665186e-02, -5.48249669e-03,
       -5.28498739e-03, -4.89935279e-03, -1.94708928e-02,
       -1.89910841e-03, 3.67393419e-02, 1.73617285e-02, 1.57679226e-02,
       2.03890800e-02, -2.92106085e-02, -5.58023760e-03, -1.80472080e-02,
       -1.40078804e-02, 1.78431277e-03, 2.64710225e-02, 3.29004135e-03,
       -3.43045313e-03, 1.07566249e-02, 1.78517606e-02, -4.83918842e-03,
       2.61198245e-02, -1.61886128e-04, 2.77200900e-02, 1.09838434e-02,
       -5.73360547e-03, 5.86560648e-03, 1.06696319e-02, -8.80772714e-03,
       1.05620176e-03, 2.68678903e-03, -5.33486158e-03, 1.73258428e-02,
       9.00644157e-03, 2.19701938e-02, 1.36882234e-02, 5.67034632e-03,
       -1.78156029e-02, -1.62806306e-02, -5.26072318e-03, 1.19860144e-03,
       -8.04616977e-03, 7.38316262e-03, 3.62316296e-02, 1.10019895e-03,
       7.22483080e-03, -3.55920964e-03, -3.46905226e-03, -1.25352610e-02,
       8.37875158e-03, 5.15503902e-03, 1.97000373e-02, 5.61302062e-03,
       1.07960543e-02, 3.79379420e-03, 4.99170819e-05, 5.70347859e-03,
       9.81151313e-03, 7.69788574e-04, -3.66172194e-03, 1.64063144e-02,
       5.74810803e-03, 2.80809272e-02, 1.65651720e-02, 2.23033596e-02,
       -6.27762498e-03, 8.32982827e-03, 1.81088001e-02, 1.45589579e-02,
       9.52553004e-03, 1.33400355e-02, -1.38561483e-02, -1.03644654e-02,
       -8.65534786e-03, -1.18953297e-02, -6.64846599e-03, 1.27746779e-02,
       2.58676289e-03, 1.87932774e-02, 1.31971501e-02, -4.03101277e-03,
       2.90174168e-02, -1.52479652e-02, -5.08194789e-03, 1.31770521e-02,
       1.55108254e-02, 3.33514763e-03, 1.79895964e-02, 5.67907281e-03,
       6.74289977e-03, -8.05612467e-03, 6.78821933e-03, -1.22990145e-03,
       1.85780728e-03, -3.14144813e-03, -1.22081693e-02, -7.05351820e-03,
       4.32080822e-03, 1.84070710e-02, 1.87584886e-03, -6.24625385e-03,
       -5.43655129e-03, 2.93405284e-03, 1.07527198e-02, -5.84585033e-03,
       -6.86145620e-03, 1.54804559e-02, 4.19972604e-03, 7.55521003e-03,
       -3.89354583e-03, 7.34186824e-03, 1.46133918e-03, 8.80466960e-03,
       1.41403880e-02, 1.42683750e-02, 5.57818078e-03, -5.04330359e-03,
       -1.77531969e-02, -1.50647173e-02, 1.64184533e-02, -6.73098164e-03,
       4.11608396e-03, -4.96218447e-04, -1.10299243e-02, -5.53535414e-04,
       1.22447452e-02, 1.54069951e-03, -4.52864449e-03, -1.32312598e-02,
       -6.55261520e-03, -6.68830611e-03, 4.33749799e-03, 1.17908092e-02,
       -7.24753924e-03, 8.03479645e-03, -7.47787859e-03, 1.95958582e-03,
       -1.45968851e-02, 1.24211945e-02, -2.80286768e-03, 6.11725217e-03,
       -5.92467433e-04, 1.92872286e-02, 1.72642861e-02, -1.17730089e-02,
       -9.32474900e-03, 1.73876043e-02, -6.49252441e-03, -1.67107135e-02,
       -1.15377707e-02, -4.91964724e-03, -3.07208131e-04, 1.43810371e-02,
       -1.66569594e-02, -2.82492507e-02, 3.48628983e-02, -2.24237125e-02,
       -1.43752526e-02, 4.37412271e-03, -4.13907459e-03, -3.05018038e-03,
       1.33789619e-02, -5.70149766e-03, 1.68865398e-02, 2.42538704e-03,
       3.12452018e-02, -7.84807000e-03, -7.50213675e-03, -2.30272748e-02,
       9.19407513e-03, 2.82724146e-02, -4.66884114e-03, -1.57325044e-02,
       1.39138103e-02, -4.18310548e-04, -2.06367597e-02, 1.41791729e-02,
       1.57576881e-03, 8.74009263e-03, -2.10090447e-03, -5.37817925e-03,
       -3.30773667e-02, -3.22122069e-04, -2.03033863e-03,
       -1.57672897e-04, -2.35508615e-03, -6.77072676e-03, 1.63446739e-02,
       1.68137401e-02, -4.53414395e-03, -1.72970816e-02, 4.19403455e-04,
       -2.31032800e-02, 3.68067389e-03, -6.03600824e-03, 2.18369570e-02,
       1.66713279e-02, -1.16509302e-02, -2.09547374e-02, -2.64817029e-02,
       6.89020706e-03, 2.44294610e-02, 9.65140935e-04, 9.75591189e-04,
       1.81522816e-02, 3.70579623e-02, 3.47311283e-03, 1.55310333e-02,
       -3.27239698e-03, -9.36474837e-03, -1.64670423e-02, 9.80871636e-03,
       7.04218308e-03, 4.97296751e-02, 7.93792773e-03, -7.01493025e-03,
       2.59075081e-03, -4.77107204e-02, 1.63029395e-02, -3.39019895e-02,
       -8.70988239e-03, -1.10739460e-02, 2.57879607e-02, -2.22495161e-02,
       -1.59117002e-02, 7.06768222e-03, 1.78651419e-02, 8.60213954e-03,
       1.17520662e-02, -2.33230107e-02, -1.43850511e-02, 1.63375903e-02,
       2.16595903e-02, 1.46653061e-03, 1.85413565e-02, -1.95983537e-02,
       2.07901783e-02, -1.62946340e-02, -8.02881178e-03, -5.63529925e-03,
       3.89145501e-02, 6.32998860e-03, -1.39475195e-02, 2.34987475e-02,
       4.62005325e-02, 1.38983235e-03, 4.75691892e-02, -2.18349462e-03,
       -3.72264488e-03, 4.01074775e-02, -3.84143461e-03, -6.46250322e-03,
       -1.62405055e-02, -1.44721370e-03, 1.25115821e-02, 1.05013675e-03,
       -1.03774164e-02, 1.06152967e-02, 1.52297886e-02, 1.51226362e-02,
       1.64285026e-04, 1.33526111e-02, 4.02635150e-02, -1.59041919e-02,
       3.95965390e-02, 9.88938380e-03, 3.88281140e-03, 3.26585323e-02,
       -8.54651909e-03, 1.33364741e-03, -1.23803625e-02, -1.86171643e-02,
       2.26072893e-02, -1.81316882e-02, -4.02703658e-02, -9.64565389e-03,
       1.63884759e-02, 1.20060169e-03, -3.78593663e-03, -1.21753430e-02,
       9.94355790e-03, -3.28776613e-02, 1.87772303e-03, -1.15199722e-02,
       -8.33172817e-03, 1.98932886e-02, 1.41138036e-03, 2.73367623e-03,
       -9.83046251e-04, 1.88953467e-02, 2.47821044e-02, 9.41320788e-03,
       -8.71504284e-03, 4.56153508e-03, 1.12198461e-02, -3.78085906e-03,
       -8.63367412e-03, -4.31184238e-03, 2.12446731e-02, 3.81548121e-03,
       1.44803524e-02, -1.70919357e-03, 3.92527226e-03, -1.10543305e-02,
       -1.25756050e-02, -1.15291367e-03, 1.04434639e-02, 7.36912852e-03,
       6.25004293e-03, -1.50006684e-03, -9.20569524e-03, -5.26439282e-04,
       -4.35137562e-03, -1.83362048e-02, -2.39524688e-03, 1.24114584e-02,
       8.69684853e-03, -4.40200372e-03, -3.81324696e-03, -5.72846271e-03,
       -4.46901278e-04, -3.31346784e-03, -5.19061042e-03,
       -9.38036479e-03, 1.36129996e-02, 3.39424014e-02, 5.79941571e-02,
       1.33861816e-02, -7.29265530e-03, -5.27393585e-03, -7.41949910e-03,
       -6.30061654e-03, -2.08629966e-02, -2.55641481e-03, 2.60736886e-03,
       2.27733739e-02, 9.41325445e-03, -2.41752081e-02, -3.80642689e-03,
       6.42770948e-03, -3.02134119e-02, -1.28075145e-02, -2.78295670e-03,
       1.70672871e-02, 3.32404636e-02, 2.57722680e-02, -2.26832308e-05,
       -7.54690636e-03, -1.40229575e-02, -2.10001748e-02, 1.44515466e-03,
       -1.14449132e-02, 1.56704010e-03, 1.35388691e-03, 8.82005226e-03,
       -2.92938272e-03, 1.11812167e-02, -1.45098176e-02, -1.12282615e-02,
       -1.36092762e-02, 2.16637552e-03, 3.92302684e-03, 4.13665660e-02,
       7.89414532e-03, -9.50144511e-03, 1.60074071e-03, 2.48233415e-02,
       -4.25281283e-03, -1.33403251e-02, -9.95923951e-03,
       -1.54258739e-02, 7.74493255e-03, -6.72460767e-03, 1.17202550e-02,
       2.77001620e-03, 2.84242611e-02, -1.01110684e-02, 9.11212061e-03,
       8.76546279e-03, 2.21284777e-02, 1.49060031e-02, 1.56098465e-02,
       -6.98070694e-03, 3.09347874e-03, -3.70308571e-03, 2.73702852e-03,
       1.09514194e-02, -9.25439526e-05, -1.59748411e-03, -1.27714248e-02,
       1.57503951e-02, 6.51201187e-03, -4.79406398e-03, 3.93073820e-03,
       1.24432351e-02, -5.01893321e-03, -8.51111766e-03, 4.58135875e-03,
       4.58467491e-02, 2.89467792e-03, -3.14660138e-03, -1.69386417e-02,
       1.02031417e-02, -7.89693557e-03, -1.51856977e-03, -1.44525208e-02,
       -1.04832277e-03, 3.61592658e-02, -6.02660421e-03, 8.41418747e-03,
       -6.08448917e-03, -1.74747240e-02, 9.71809961e-03, 8.13838188e-03,
       1.91220490e-03, 6.42254949e-04, 1.30894538e-02, 1.78431813e-02,
       -1.89577322e-02, -1.38382949e-02, -6.35074126e-03,
       -1.29271997e-02, -1.19718332e-02, 1.07059442e-03, -1.16676791e-03,
       8.73364788e-03, -8.77319090e-03, -1.39007885e-02, -1.05507523e-02,
       -1.19784093e-02, 1.32843880e-02, -5.27307857e-04, 3.56475543e-03,
       7.58618955e-03, 3.47592756e-02, 7.81125156e-03, 4.28123260e-03,
       -1.65603694e-03, 1.82603206e-02, -7.56336097e-03, 1.10906940e-02,
       1.68082435e-02, 3.33423987e-02, 1.14875650e-02, 2.52272338e-02,
       7.67052872e-03, 2.40188558e-03, 1.03373150e-03, 7.96808768e-03,
       -1.06501374e-02, -1.33742979e-02, 5.70034282e-03, 1.06358603e-02,
       -2.03518271e-02, -4.04460263e-03, -5.27201220e-03, 5.89714665e-03,
       -5.24273654e-03, -2.41281744e-02, -1.75616406e-02,
       -5.93650853e-03, -1.56742856e-02, 4.47117072e-03, -7.24503817e-03,
       -2.81548556e-02, -1.91542935e-02, -1.34193879e-02, 9.88335069e-03,
       1.74320897e-03, 3.37675735e-02, 3.07822153e-02, 1.67835280e-02,
       -9.81952995e-04, -1.71887856e-02, -1.88820381e-02,
       -1.52915148e-02, 1.19259814e-02, 5.93129173e-03, -1.45080471e-02,
       1.94894278e-03, -4.85792058e-03, -9.91701672e-05, 2.20077136e-03,
       -1.70795545e-02, -1.56619474e-02, -6.36159908e-03, 1.11377696e-02,
       4.95250197e-03, 2.04426032e-02, 2.36106869e-02, -3.95888044e-03,
       -2.47206222e-02, -2.10478473e-02, -1.86371319e-02, 1.41202323e-02,
       -8.33576638e-03, -6.73849974e-03, 8.18964653e-03, -9.04507120e-04,
       7.54739484e-03, 6.45653065e-03, -1.57193281e-02, -1.89162232e-02,
       -1.41738253e-02, -1.50311291e-02, -1.70719307e-02, 1.76758785e-02,
       1.47549650e-02, 5.92641474e-04, 2.75909645e-03, -8.17360915e-03,
       6.60460442e-03, -1.85152888e-03, 1.13880970e-02, 5.30246086e-03,
       -6.87751861e-04, -1.87316947e-02, 5.75435953e-03, 2.43880972e-02,
       2.03923695e-02, -2.34339926e-02, -7.06963986e-03, 8.69208714e-04,
       8.99026357e-03, 1.36550413e-02, 2.25354638e-02, -1.34144174e-02,
       -6.61984552e-03, -2.56945360e-02, -1.15906522e-02, 1.34131871e-02,
       8.92273057e-03, 4.99696285e-03, -7.91890547e-03, 4.92749549e-03,
       6.51711365e-03, 2.14361008e-02, -2.59882528e-02, 7.53545901e-03,
       1.36460215e-02, 1.64749753e-02, -7.29290582e-03, 1.08149862e-02,
       -7.38427415e-03, 1.80554502e-02, 8.83676484e-03, 8.42345133e-03,
       7.52271735e-04, 6.71058940e-03, 9.21011530e-03, 5.94685227e-03,
       1.49129359e-02, 1.94125790e-02, -2.45684516e-02, -1.04890689e-02,
       4.95445030e-03, -4.11568303e-03, 5.32017425e-02, 2.58820951e-02,
       2.22428739e-02, -6.50698552e-03, 1.96762774e-02, 2.33805608e-02,
       1.99405737e-02, -2.97795050e-02, -2.23776661e-02, 1.08678369e-02,
       -2.85159796e-03, -1.75182964e-03, 1.58268213e-02, 1.55332945e-02,
       -1.41753694e-02, 3.44695873e-03, -8.93202424e-03, -1.57810859e-02,
       4.12673783e-03, -1.30975582e-02, 2.15836558e-02, 2.23384704e-02,
       2.27895565e-02, -9.96144768e-03, 6.20173849e-03, -8.73257220e-03,
       2.91572325e-03, 8.40538926e-03, -7.39851827e-03, 1.45888776e-02,
       -1.48699656e-02, 2.39836071e-02, 3.88772599e-03, 7.02201948e-03,
       1.87913775e-02, -8.05164780e-03, 1.15296999e-02, -3.44678946e-02,
       -2.16116793e-02, -2.02385262e-02, -1.57833509e-02,
       -3.72298546e-02, 3.46916425e-03, -7.15766614e-03, 2.13642437e-02,
       4.65934305e-03, -1.82088539e-02, -7.59718660e-03, 2.05071755e-02,
       -1.95642170e-02, -2.70614084e-02, -1.11089535e-02,
       -4.69852192e-03, -2.92830542e-03, 5.44506265e-03, 1.17270751e-02,
       1.65354665e-02, -1.13372868e-02, 1.84521433e-02, 3.28339972e-02,
       2.67485809e-02, 6.65747048e-03, 1.95479095e-02, 8.39101896e-03,
       2.70374771e-02, 3.45777236e-02, -3.70767713e-02, 1.90727618e-02,
       3.67833227e-02, 4.57883850e-02, 2.39990335e-02, 2.70224386e-03,
       6.95314165e-03, -2.56073065e-02, -1.79051384e-02, -4.17404212e-02,
       -2.59196796e-02, -1.44579923e-02, 2.39036395e-03, -1.29785175e-02,
       -1.37560119e-05, -2.57297978e-03, -1.30265169e-02,
       -2.12524328e-02, -2.63539515e-02, -2.42126007e-02,
       -9.77345835e-03, 6.69668335e-03, 1.48666021e-03, -8.69452860e-03,
       -5.00293635e-03, -3.97639058e-04, 1.48984641e-02, -2.77687982e-03,
       1.29642049e-02, -5.36910165e-03, -2.39380286e-03, 2.03903485e-03,
       8.76047276e-03, 2.42701899e-02, 1.94829218e-02, 3.04015633e-02,
       -1.80012304e-02, 2.86155939e-02, 7.16737099e-03, 2.09411066e-02,
       7.56243803e-03, 1.24968169e-03, -6.79753534e-03, -2.22580833e-03,
       -2.23798770e-02, -1.75091419e-02, -7.16899522e-03,
       -1.04892412e-02, -7.13840593e-03, -5.21218544e-03, 2.41291206e-02,
       2.97050085e-02, 1.00369211e-02, 5.37750637e-03, -2.08387449e-02,
       1.03444438e-02, 5.68265212e-04, 1.23285374e-03, 1.57215539e-02,
       -4.31185216e-03, 1.33443726e-02, 1.09785395e-02, 3.48142385e-02,
       2.88799591e-02, 1.90181173e-02, 5.90173109e-03, 7.43381400e-03,
       -1.34487059e-02, -9.65038873e-03, 1.54383145e-02, -6.39059488e-03,
       1.63940080e-02, -2.55803224e-02, 1.17139472e-02, 1.48590915e-02,
       9.91175324e-03, -2.95381695e-02, 2.74621509e-03, 1.18486378e-02,
       1.34203946e-02, 1.98814906e-02, 6.19473821e-03, 2.77899690e-02,
       5.17929846e-04, -4.02851263e-03, 3.69378435e-03, -1.43036842e-02,
       -3.37405992e-03, 5.33412211e-03, 7.84101244e-03, -3.04523390e-02,
       -6.83009566e-04, 1.35369496e-02, -7.58255646e-03, -1.37410769e-02,
       -2.53757392e-03, -5.19367540e-03, -5.97405061e-03, 3.03702913e-02,
       1.07307807e-02, 1.74839161e-02, -7.15518324e-03, -7.63156405e-03,
       -2.10847408e-02, -1.29698627e-02, -8.69770162e-03,
       -7.67161930e-03, -8.98898486e-03, 2.29316652e-02, 6.06614118e-03,
       -2.16445401e-02, 2.13596411e-03, -1.15164593e-02, 1.12749878e-02,
       7.60811288e-03, 8.51295423e-04, 3.03668436e-02, 5.25961630e-04,
       1.80808026e-02, 1.18533825e-03, 7.82772340e-03, -3.79973860e-03,
       -3.17075998e-02, -6.62847480e-04, 5.66915609e-03, 6.96930429e-03,
       2.58350484e-02, 1.07584000e-02, -1.61905028e-02, 8.45710654e-03,
       -1.81998983e-02, 2.78785545e-02, 1.55336829e-02, -1.46493521e-02,
       1.44950747e-02, 1.06926039e-02, 1.06949070e-02, 1.57686807e-02,
       9.08627920e-03, 1.90921985e-02, 1.86124761e-02, 2.12673825e-04,
       8.14332976e-04, -8.80387612e-04, -1.29538784e-02, 1.38493525e-02,
       2.65813395e-02, 2.11640447e-03, 1.60095524e-02, 1.31112328e-02,
       5.44502074e-03, -9.56023432e-05, -5.70390280e-03, -8.29043332e-03,
       7.37907086e-03, 1.73318048e-03, -7.18626485e-04, 1.34851132e-02,
       4.26710807e-02, -5.41129056e-03, 2.28556991e-03, -3.55064049e-02,
       -1.32719232e-02, -2.27524042e-02, 1.75348893e-02, 1.08038457e-02,
       2.97488701e-02, -4.79326816e-03, -1.57683864e-02, 2.41938736e-02,
       6.97662588e-03, 3.21068079e-03, 2.43863631e-02, 9.63527244e-03,
       3.35184694e-03, 2.96367303e-04, -3.38875526e-03, 2.23384821e-03,
       -5.84994163e-03, -1.00644827e-02, 1.19061871e-02, -3.57207638e-04,
       -5.48677333e-03, 7.61556579e-03, 8.53419118e-03, 1.81498080e-02,
       -7.10466737e-03, 4.34774905e-03, -3.55794877e-02, -3.54463700e-03,
       -2.29490977e-02, -4.64624120e-03, 1.37112243e-02, 2.21982822e-02,
       -2.54560588e-03, -3.26606655e-03, -1.95473079e-02,
       -1.69389229e-02, 3.80843389e-03, -3.21140625e-02, -1.44566912e-02,
       6.44260831e-03, 1.54232548e-03, 3.95391928e-03, -3.47857224e-03,
       7.16513023e-03, -1.53894480e-02, 5.66210486e-02, 1.56569406e-02,
       -2.01565102e-02, -9.74967610e-03, -7.10968627e-03, 2.10173875e-02,
       1.61162261e-02, 1.10892933e-02, -4.64945426e-03, 5.93063235e-03,
       -6.92573097e-03, -2.56237434e-03, 7.58786919e-03, 1.31823635e-02,
       -1.18287373e-02, -2.54063285e-03, -3.91180115e-03,
       -8.84485524e-03, 3.80715840e-02, 1.14193968e-02, -1.46268820e-02,
       -1.51523631e-02, -7.33968010e-03, 2.21170094e-02, 2.34810309e-03,
       -7.47274840e-03, -4.07664478e-03, -1.52909628e-03, 1.02991303e-02,
       1.29199894e-02, 6.26937393e-03, 1.98155027e-02, 9.08377673e-03,
       3.92473936e-02, 1.33042866e-02, 3.00290203e-03, 7.03616126e-04,
       1.60583761e-02, 6.65763067e-03, 4.29655937e-03, 1.26733351e-02,
       -1.41973328e-02, 2.10527685e-02, -1.36029534e-02, -2.29041725e-02,
       3.30319963e-02, 2.44552270e-03, -2.16925852e-02, -3.12264217e-03,
       -6.47749892e-03, 2.75755376e-02, 1.18287625e-02, 1.32390251e-02,
       1.11061642e-02, 1.46300299e-03, 3.93365994e-02, 1.91537440e-02,
       1.12197339e-03, 2.15307865e-02, 4.42155683e-03, 2.12795357e-03,
       -6.20259345e-03, -1.05375117e-02, -3.18819599e-04,
       -2.15143478e-03, -1.81279182e-02, 3.52686574e-03, -8.98496062e-03,
       -2.64499579e-02, 7.35792471e-03, -2.98709199e-02, 1.02825342e-02,
       9.67997871e-03, 1.77079700e-02, -5.89000108e-03, -3.34996847e-03,
       -1.33082010e-02, 5.44588640e-03, 4.96878522e-03, -2.98686605e-03,
       4.02406529e-02, 4.48238775e-02, 4.11933614e-03, -1.74622126e-02,
       -1.12845171e-02, 5.34590753e-03, -2.54370477e-02, 2.33895965e-02,
       5.97335026e-03, 2.40924750e-02, -6.01761369e-03, 1.71477196e-03,
       1.32165314e-03, 4.46793996e-03, -1.94932949e-02, -3.10889482e-02,
       1.15958555e-02, -1.05210943e-02, -8.51931144e-03, 1.91603117e-02,
       1.63428616e-04, -5.63987065e-03, -1.04153398e-02, -1.99614130e-02,
       -4.32785787e-03, 1.59839857e-02, -1.60469208e-03, 1.54985189e-02,
       -1.65187437e-02, 1.74189033e-03, -2.95315729e-03, 2.06762701e-02,
       -2.67108250e-03, 5.84541773e-03, 5.95624885e-03, 1.34257469e-02,
       1.00309029e-02, 2.71362886e-02, 2.91875638e-02, 2.31883815e-03,
       3.85696813e-02, 2.45078411e-02, -1.22994836e-02, 8.65868572e-03,
       -2.87632830e-02, -3.32319327e-02, -4.84213717e-02,
       -2.91401315e-02, 1.33711183e-02, 2.42425706e-02, -1.61486492e-02,
       -1.47965300e-04, -5.48127713e-03, 4.63244179e-03, -1.76650900e-02,
       -8.28420185e-03, -1.73540693e-02, -3.14653944e-03, 3.74243688e-03,
       4.62468993e-03, -1.92369707e-02, -1.24130612e-02, 8.65101535e-03,
       -9.57848970e-03, -1.15000270e-02, -1.31835081e-02,
       -5.76552178e-04, 6.12982549e-03, -4.78146970e-03, 7.61434855e-03,
       1.54246679e-02, 1.98035277e-02, 3.02020926e-02, -4.02941788e-03,
       3.78048010e-02, 2.10632216e-02, 1.00879762e-02, 4.92664147e-03,
       -9.86281969e-03, -1.02231530e-02, 1.23461820e-02, -2.78600007e-02,
       -1.19231055e-02, -1.27075398e-02, -1.69349145e-02,
       -2.13927682e-03, -3.65092559e-03, 1.26550887e-02, -7.73156621e-03,
       6.69773493e-04, 8.39022081e-03, 1.18115600e-02, -1.44755905e-02,
       -7.98796583e-03, 9.40451678e-03, 1.52572058e-02, 1.18749193e-03,
       1.13466699e-02, 3.23214591e-03, 1.38086677e-02, 4.20741178e-03,
       2.40124594e-02, 8.86988454e-03, 1.52707915e-03, 5.24184294e-03,
       -6.11736160e-03, 4.26460116e-04, 2.87192734e-03, 1.11072352e-02,
       -1.97066274e-02, 1.22265508e-02, 8.19583144e-03, 8.92055873e-03,
       1.62677914e-02, 7.70039018e-03, -6.18861616e-03, 7.75984908e-03,
       1.49779934e-02, 1.12354932e-02, 1.37649989e-02, -1.13029638e-02,
       1.05019184e-02, 9.86777805e-03, 7.44630815e-03, 1.75767988e-02,
       1.06117222e-02, 3.53290848e-02, -1.64578073e-02, 4.95276088e-03,
       -1.68773234e-02, 1.16664218e-02, 2.09756102e-02, -5.49687026e-03,
       6.73780544e-03, -9.38641094e-03, 2.44646911e-02, 6.38874387e-03,
       2.05809847e-02, 4.91460366e-03, 1.37737812e-02, -5.50638745e-03,
       -4.59000990e-02, -1.12329489e-02, -6.85638748e-03,
       -1.95307620e-02, 1.57956909e-02, 5.17488690e-03, 9.64957010e-03,
       9.10888147e-03, -3.43124829e-02, -1.16363214e-02, 1.10792089e-02,
       -1.02602988e-02, 3.47523876e-02, -1.08365100e-02, 2.30311472e-02,
       -9.14240256e-04, 1.10613648e-02, 4.35647788e-03, -1.05850901e-02,
       8.64195824e-03, 1.24012597e-03, 1.26657113e-02, -4.19381395e-04,
       4.07750160e-03, 1.11225042e-02, 1.52771482e-02, -6.36352273e-03,
       3.96637595e-04, -4.10042331e-03, 9.47986543e-03, -7.58298859e-03,
       -1.06028626e-02, 8.06070771e-03, 1.30902911e-02, -4.48363833e-03,
       1.41890571e-02, 2.84506176e-02, -1.60083007e-02, -2.84100883e-03,
       -3.26987207e-02, -1.53251551e-02, -2.08133571e-02, 1.26365796e-02,
       5.11194300e-03, 3.84810790e-02, 1.68715250e-02, 1.00307418e-02,
       -7.16869428e-04, 2.89052427e-02, -1.39514767e-02, 1.54244034e-02,
       1.39936816e-03, 1.88390224e-03, 1.00573171e-02, -9.64176317e-04,
       -2.30213464e-03, -1.48608116e-02, 8.11052567e-04, -1.95846111e-02,
       1.80891827e-02, -6.23676507e-03, -1.42515721e-02, -1.09745683e-02,
       9.42185149e-03, -9.50614922e-03, -3.57271009e-03, -3.61930691e-02,
       5.46674337e-03, -7.60504697e-03, 2.58853054e-03, 7.25038303e-03,
       2.24093571e-02, 5.01999690e-04, -9.34576243e-03, -1.59319062e-02,
       -2.83774007e-02, 2.18736008e-02, -1.77701842e-02, 9.16356128e-03,
       7.88024813e-03, 4.98746755e-03, -2.58819130e-03, 8.17514863e-03,
       7.80437700e-03, 2.29868926e-02, -1.69044826e-03, 2.07251776e-02,
       -1.42256897e-02, -6.11270778e-03, -1.65872555e-02, 2.61454814e-04,
       1.02295056e-02, 9.33708274e-04, -1.53154898e-02, 2.21236777e-02,
       7.89546315e-03, 8.04609340e-03, -8.12646281e-03, 1.63473394e-02,
       -1.54484538e-02, 1.73285268e-02, -4.28901473e-03, -1.75259949e-03,
       4.78695668e-02, -1.41368303e-02, -2.13055182e-02, -2.54705758e-03,
       -6.77188952e-03, 1.41118327e-02, 1.50787747e-02, 8.40339810e-03,
       -2.31080893e-02, 7.87417963e-03, 7.29767978e-03, -9.69268568e-03,
       7.97962304e-03, 1.31546147e-02, -3.68569908e-03, 1.24197835e-02,
       -1.55519536e-02, -6.70761010e-03, 1.92987155e-02, 1.47464937e-02,
       3.33695184e-03, 3.19551327e-03, 5.73590258e-03, 1.82260070e-02,
       2.03393903e-02, 2.23362260e-02, 5.76491351e-04, -1.58630461e-02,
       1.45006888e-02, 1.80361175e-03, 1.97090823e-02, 2.23690271e-02,
       2.48188116e-02, 4.15007211e-03, 2.15417854e-02, -7.42988288e-03,
       1.06774755e-02, 4.08350825e-02, 5.37698017e-03, 2.29985733e-03,
       1.21220285e-02, -3.90837016e-03, -1.58916339e-02, -1.48450052e-02,
       -3.16237509e-02, 5.51559031e-03, 6.16008695e-03, -2.73140986e-02,
       -2.14345008e-03, 5.32471063e-03, 4.64871852e-03, 2.11010855e-02,
       3.09412517e-02, 1.72682032e-02, -1.65747441e-02, 4.91795875e-02,
       8.75272788e-03, 9.88081936e-03, 9.41537041e-03, -1.16337761e-02,
       -8.69517773e-03, 5.84478583e-03, -9.77845956e-03, 1.80843621e-02,
       7.65433256e-03, -4.21036743e-02, -1.29072471e-02, 2.09825113e-03,
       -9.65820346e-03, 7.60009326e-03, 9.62698180e-03, 1.81649979e-02,
       2.18127798e-02, 4.98234406e-02, 1.03173526e-02, 1.36341397e-02,
       2.64059822e-03, -2.02565640e-02, 5.74567961e-03, 3.18333949e-03,
       -6.07726071e-03, -6.06982037e-03, 3.35748703e-03, -2.29740888e-03,
       1.13699562e-03, -1.12168388e-02, -2.60237278e-03, -8.85436591e-03,
       2.64266762e-03, -8.27558339e-03, 1.94495227e-02, 2.07307059e-02,
       -5.56779327e-03, -4.99189366e-03, 2.55909143e-03, -1.43274032e-02,
       -1.59510076e-02, -1.31930318e-03, -5.01620909e-03, 1.51154948e-02,
       -4.93556410e-02, -3.15415636e-02, 9.33464151e-03, -8.54589324e-03,
       7.45223416e-03, 2.08475236e-02, 1.13880141e-02, -1.31384153e-02,
       -5.01806997e-02, 4.51852893e-03, 1.25372736e-02, 2.20007058e-02,
       1.13428896e-02, 4.47155815e-03, -6.07701903e-03, 2.48970855e-02,
       -1.12024043e-02, 2.28017904e-02, 6.40489673e-03, 2.99974717e-02,
       2.61861738e-02, 6.83716917e-03, -1.70286093e-02, 1.07333269e-02,
       2.94351056e-02, -8.76002014e-03, -1.54818818e-02, -8.75407550e-03,
       -6.16701553e-03, -1.47377327e-02, -5.77328959e-03,
       -7.76197482e-03, 1.62846893e-02, 2.95920875e-02, -1.62563920e-02,
       -7.76138902e-03, 7.58802984e-03, 1.80908125e-02, 6.15048502e-03,
       -1.66863948e-02, 9.03305947e-04, -2.70701367e-02, -9.00737662e-03,
       -3.26520763e-02, 4.22382401e-03, -1.30566927e-02, -7.16977287e-03,
       -1.49316574e-02, -6.00494957e-03, 6.11489825e-03, -3.71802738e-03,
       2.42800545e-02, 4.86377021e-03, 1.24328155e-02, 1.18823508e-02,
       8.19890201e-03, -4.96539520e-03, 4.49226424e-03, 3.23813152e-03,
       -5.36492886e-03, -1.80499423e-02, -3.78730670e-02,
       -4.76702536e-03, -1.17549421e-02, 1.50991073e-02, -4.07268555e-04,
       -2.15220684e-03, 2.58840015e-03, 1.16665438e-02, 1.99118983e-02,
       3.21531808e-03, 4.28004569e-04, -2.34779975e-04, 6.87091332e-03,
       -1.21102603e-02, 6.91819150e-05, -2.00862363e-02, -1.26042794e-02,
       -6.35767030e-03, -9.02747456e-03, 1.83383245e-02, 2.01814473e-02,
       -5.00117615e-03, 7.47147435e-03, -3.37006059e-03, 1.24362260e-02,
       8.44248571e-03, 1.05819842e-02, 1.51056871e-02, -3.54760047e-03,
       1.77125931e-02, -3.71867418e-03, 1.05526391e-02, 1.29927071e-02,
       -9.55043640e-03, -8.60177260e-03, -6.39181025e-03,
       -5.30348113e-03, 6.18609833e-03, -1.67713277e-02, 1.76696514e-03,
       7.02493777e-03, 1.40281385e-02, 3.20847658e-03, -2.18179189e-02,
       -6.46918453e-03, 4.95310966e-03, -1.65026728e-02, -1.00518959e-02,
       4.12727287e-03, 8.94136541e-03, -2.76754756e-04, -1.19957216e-02,
       1.36255322e-03, -1.11782877e-02, 1.50767097e-04, 9.07997042e-03,
       3.33955366e-04, -5.99939795e-03, 9.75032803e-03, 2.93087796e-04,
       -7.59158051e-03, 2.70108995e-03, -1.24853021e-02, 9.56581719e-03,
       -5.96635416e-03, -9.87962470e-04, 9.17014945e-03, 1.13098267e-02,
       -8.62288848e-03, 4.85771848e-03, 9.64544900e-03, -1.19688315e-02,
       -1.21692279e-02, -8.42484087e-03, 2.21020598e-02, 1.34716602e-02,
       1.21217063e-02, -7.19864806e-03, 8.56129732e-03, 1.77576914e-02,
       6.40226621e-03, 1.32416822e-02, -3.94201316e-02, 2.41241828e-02,
       1.21716997e-02, 4.80454240e-04, -1.62136964e-02, -2.19197180e-02,
       -1.58132147e-02, -2.27763820e-02, -9.28008929e-03, 4.41386476e-02,
       -4.02961532e-03, -1.99871995e-02, -3.15318612e-04,
       -1.12339370e-02, -3.30122001e-02, -2.58429665e-02,
       -2.93820444e-02, -3.78708616e-02, -4.19891812e-03, 3.09242005e-03,
       -3.48749235e-02, -1.84768636e-03, -2.14623567e-02,
       -1.24082658e-02, -1.03042619e-02, 6.03140285e-03, 4.22628485e-02,
       2.12443192e-02, 2.86809355e-02, -2.19016075e-02, -1.03964489e-02,
       -2.39163525e-02, -2.29697824e-02, -2.15469766e-02,
       -1.04013132e-02, 2.21501514e-02, -4.15998744e-03, 2.62181573e-02,
       -1.45208342e-02, -1.21459085e-02, -1.82965640e-02, 2.62014102e-03,
       -6.73692115e-03, -6.62997784e-03, 3.54787474e-03, 1.93215907e-03,
       2.82427482e-03, -2.30928026e-02, 7.16568297e-03, 5.55421738e-03,
       -1.93661898e-02, 1.00398492e-02, -9.91795305e-03, -1.66763086e-02,
       3.14188451e-02, -3.62725444e-02, -1.54163539e-02, 9.18579928e-04,
       -1.05272066e-02, -1.54437125e-02, -2.03028768e-02,
       -2.13852488e-02, 2.22666096e-02, -4.63134982e-03, 2.97973510e-02,
       -9.05560702e-03, -9.02748387e-03, 8.41902278e-04, -2.58549154e-02,
       -1.16591137e-02, -1.97350010e-02, -5.08716470e-03, 1.24329934e-03,
       -1.80923492e-02, -2.42509991e-02, -6.30022027e-03,
       -3.07164975e-02, -1.43518234e-02, -7.59292161e-03,
       -1.89743210e-02, 9.82580613e-03, 3.50521952e-02, 7.55924871e-03,
       -4.37630294e-03, 7.59718055e-03, -1.51343625e-02, 4.80905781e-03,
       -3.93654080e-03, 1.65532976e-02, 1.27786875e-03, -1.33815827e-02,
       -7.79701164e-04, -3.31353425e-04, 3.91732976e-02, 1.64761059e-02,
       -1.83353964e-02, 1.46573894e-02, -1.58048663e-02, 1.27837034e-02,
       2.82683084e-03, 1.27777066e-02, -1.08906273e-02, 1.38893798e-02,
       -8.39434005e-03, 2.19490193e-02, 1.30595444e-02, 1.26339896e-02,
       2.87997932e-03, -1.48412473e-02, -2.68148519e-02, -1.31148798e-03,
       1.73086803e-02, 2.90712677e-02, -1.58431344e-02, -1.20580895e-02,
       1.19312294e-02, 1.53814433e-02, 1.26139931e-02, 2.88145784e-02,
       1.95382871e-02, 2.44591329e-02, 2.02763062e-02, -1.04390616e-02,
       -1.71806682e-02, -3.63222091e-03, -6.57236064e-03, 3.49702649e-02,
       -1.40045220e-02, -1.96446851e-02, -2.69697607e-02,
       -9.39061213e-03, 2.87543493e-03, 5.19393664e-03, 4.02482264e-02,
       3.46120931e-02, 1.10188150e-03, -2.09511584e-03, 1.60009060e-02,
       1.11367833e-02, 3.16540413e-02, -1.91556104e-02, 4.57297033e-03,
       -5.76685648e-03, -8.49386863e-03, 3.25774774e-02, -5.48212603e-03,
       -9.28366324e-04, -1.87733360e-02, -1.61322653e-02,
       -7.51482742e-03, -1.30075235e-02, 7.18723424e-03, 2.72919366e-04,
       1.42523507e-02, 5.73424436e-03, 4.94569307e-03, -1.69334207e-02,
       -1.01843281e-02, -5.99489454e-03, -2.44277827e-02,
       -2.13847850e-02, -3.30331773e-02, -4.37819446e-03,
       -1.73954275e-02, 1.77223124e-02, 1.44119971e-02, -5.02979383e-03,
       -9.43894405e-03, 1.66894887e-02, 2.94825081e-02, 7.64235808e-03,
       -7.76448287e-03, 2.20455080e-02, 4.42815758e-03, -8.74105841e-03,
       -1.48040093e-02, -6.20886171e-03, -1.69298425e-02,
       -4.96235036e-04, -1.73912812e-02, 2.22162791e-02, -1.79009680e-02,
       -1.98284835e-02, -2.21912563e-03, -5.64077264e-03,
       -2.12705750e-02, 2.34198221e-03, 2.96779051e-02, -8.82214401e-03,
       -2.12547705e-02, 1.09228287e-02, 3.66461650e-02, 1.48701193e-02,
       -3.42208124e-03, -1.74080692e-02, 6.95628067e-03, 1.17781404e-02,
       -2.35955641e-02, -1.37416646e-02, -2.68901675e-03,
       -1.43195931e-02, -6.33948995e-03, -5.22740418e-03,
       -7.97005650e-03, 1.29050892e-02, 2.55785640e-02, -8.11904017e-03,
       -2.80073453e-02, -4.28183470e-03, 4.08928394e-02, 3.20935845e-02,
       -5.11548715e-04, -1.11559443e-02, 1.70502942e-02, -2.26285541e-03,
       -4.91966866e-03, -2.11568400e-02, 3.08624320e-02, 3.12859640e-02,
       4.10607681e-02, -8.78300332e-03, 1.22606829e-02, 1.22606978e-02,
       -1.47288619e-02, -2.15043258e-02, -1.33439351e-03,
       -2.15525497e-02, -2.10115872e-02, -5.58042713e-03, 3.29218246e-03,
       7.11485650e-03, 1.18181128e-02, -6.48177927e-03, 8.37899931e-03,
       2.09269132e-02, 1.76704638e-02, -7.18608266e-03, 2.97649996e-04,
       1.13377346e-05, -1.20122349e-02, -2.30461336e-03, -1.07474662e-02,
       -1.40418895e-02, -1.14223664e-03, -1.22132413e-02, 8.31873249e-03,
       1.64882876e-02, -4.83526755e-03, 7.73403374e-03, -7.05575477e-03,
       2.25227326e-03, -7.34921917e-03, -1.20704705e-02, -3.07443226e-03,
       1.21406401e-02, 9.51591600e-03, 3.73213785e-03, 1.92971813e-04,
       -7.73974322e-03, -7.43711134e-03, -4.07046033e-03, 3.33706327e-02,
       -2.35076132e-03, 2.29900819e-03, -7.14266347e-03, 1.48720257e-02,
       -5.00915712e-03, 3.36541329e-03, 9.98408347e-03, 3.60420183e-03,
       -1.30902613e-02, 2.13933992e-03, 2.20336588e-05, -1.30265970e-02,
       -1.56625435e-02, -7.30385212e-03, -1.63200833e-02,
       -2.27404069e-02, -1.41739072e-02, 1.62452813e-02, -1.37132290e-03,
       -5.83843654e-03, -6.96397573e-03, -5.63810999e-03,
       -3.26273078e-03, -8.88414914e-04, -1.74605660e-03, 1.15727000e-02,
       -2.04692855e-02, -9.84068122e-03, -1.15005383e-02,
       -1.67449173e-02, -1.85841676e-02, -6.10970426e-03, 1.21909752e-02,
       -6.80722203e-03, -1.03342650e-03, 1.20005012e-02, -1.02523947e-02,
       1.31889610e-02, 3.98655469e-03, -1.78124066e-02, 6.55779056e-03,
       1.16178701e-02, 1.51248882e-03, -9.32937837e-04, -1.89345703e-02,
       1.85237247e-02, 8.15001840e-04, -4.77431295e-03, -1.09123308e-02,
       -1.50051145e-02, 1.32061066e-02, -8.25440325e-03, 6.94637559e-03,
       1.70967691e-02, -1.37319313e-02, 1.34631582e-02, -1.06958235e-02,
       -2.87707224e-02, -4.23870655e-03, 8.19744263e-03, 7.78368581e-03,
       1.87648414e-03, -1.81839876e-02, 1.34179015e-02, 8.72746576e-03,
       -5.33141708e-03, -4.73597459e-03, 6.43894263e-03, 2.59077037e-03,
       1.76130806e-03, 1.57010239e-02, 1.17978612e-02, -1.73412897e-02,
       -1.44975726e-02, -1.66266263e-02, -4.55140509e-03, 3.62120848e-03,
       -6.26489427e-03, -3.85622424e-03, 1.43607147e-02, -1.43877035e-02,
       -1.44594880e-02, -4.75398451e-03, -2.63329153e-03, 1.11701759e-02,
       6.19273447e-03, -6.48193702e-04, -1.24949915e-03, -1.12826545e-02,
       1.73724424e-02, -9.95003711e-03, 2.52331467e-03, 5.47996257e-03,
       2.71735713e-02, 3.24359164e-02, 7.11561413e-03, -6.86484296e-03,
       -1.87336374e-02, 3.99146928e-04, -1.10121462e-02, 3.70029290e-03,
       -7.20182061e-03, 3.89826931e-02, -5.80831256e-04, 1.42240408e-03,
       -2.02889442e-02, 1.32527035e-02, 3.16512818e-03, 7.68131018e-03,
       1.53926341e-02, 1.08981971e-02, -2.78756046e-03, 1.65474545e-02,
       2.45995121e-03, -1.44490469e-02, -1.72916651e-02, -4.96868649e-03,
       -1.58897717e-03, 3.66220623e-03, 2.19585057e-02, 2.46431353e-03,
       2.08615921e-02, 8.94748326e-03, -1.44787347e-02, -1.58787277e-02,
       1.67783871e-02, -1.62743516e-02, -2.14576581e-03, -1.96233159e-03,
       1.12445364e-02, 6.14247099e-03, 1.04012797e-02, -2.49654823e-03,
       8.79012700e-03, -1.84084848e-02, -2.67166644e-02, -8.85896757e-03,
       3.51101765e-03, -1.81762855e-02, -2.52944287e-02, -2.12765904e-03,
       -1.01582482e-02, 2.59059947e-03, 1.71629302e-02, 5.43767260e-03,
       8.85204040e-03, 2.04961821e-02, 5.86729962e-03, 6.69028051e-03,
       1.50170652e-02, 2.42110919e-02, 1.71894170e-02, -3.98439215e-03,
       -6.59124227e-03, 2.51511857e-02, 1.23575442e-02, 1.47284558e-02,
       -3.63964923e-02, 5.92344368e-05, -9.26442211e-04, -3.56475916e-03,
       -3.39195272e-03, -1.55084226e-02, -4.42229770e-03, 5.65782236e-03,
       -2.06646696e-02, 1.13270814e-02, 1.16208345e-02, 3.10786963e-02,
       2.55575776e-02, 2.33580288e-03, -5.16356993e-03, 2.01658998e-02,
       2.61094552e-02, 5.18700201e-03, -6.99775433e-03, 7.86172412e-03,
       2.37115622e-02, 2.72017810e-02, -1.01034285e-03, 9.43410117e-03,
       3.93039584e-02, 1.10628437e-02, 7.26046320e-03, -1.31438747e-02,
       -1.24722710e-02, -2.43809242e-02, -1.26815727e-02, 1.96598563e-02,
       1.36922570e-02, 1.23038404e-02, 2.51364168e-02, 6.19519129e-03,
       1.02300234e-02, 3.51108320e-04, 1.91912390e-02, 3.81681435e-02,
       -6.26838952e-03, 1.19620292e-02, 1.64613761e-02, 1.64128132e-02,
       -6.10534335e-03, -2.93283723e-02, -2.25433446e-02,
       -6.28058659e-03, 1.49926180e-02, -4.62856330e-03, 1.05277244e-02,
       5.94815426e-03, -3.24311526e-03, -2.35161632e-02, -5.50311990e-03,
       1.47013646e-03, 5.28108608e-03, 2.22183261e-02, -1.15415817e-02,
       2.60942858e-02, 1.19323134e-02, 1.30164055e-02, -3.39693460e-03,
       -2.23265998e-02, -6.29689498e-03, -5.50427707e-03,
       -1.52563090e-02, 1.78948678e-02, -1.32112876e-02, -1.55096948e-02,
       -3.11344638e-02, -2.33702827e-02, -6.31766254e-03, 4.67847218e-04,
       1.36660393e-02, 3.03988028e-02, -1.41782248e-02, 6.19324623e-03,
       6.45016460e-03, 2.99379649e-03, -1.48264514e-02, -8.32174066e-03,
       -7.80535489e-03, -1.14686266e-02, -2.31111925e-02,
       -2.60286569e-03, -2.73082424e-02, 1.03648333e-02, 9.95385274e-03,
       -1.08747538e-02, 1.45594878e-02, 1.26359053e-02, 1.74153764e-02,
       4.70015313e-03, -1.19851371e-02, -2.98195649e-02, 1.42211758e-03,
       -8.13533552e-03, 9.44952853e-03, -1.42695224e-02, 2.76361126e-02,
       3.10410112e-02, 1.69614628e-02, -9.66094621e-03, 7.22619053e-03,
       2.81586056e-03, -2.60097347e-02, -5.09852590e-03, 3.22410762e-02,
       4.29718336e-03, 9.98275820e-03, 2.05041543e-02, 1.30047938e-02,
       -1.27765611e-02, 3.09827551e-02, 1.62494965e-02, 1.97515395e-02,
       -9.21145314e-04, 1.08433543e-02, 1.22701582e-02, -6.99584745e-03,
       1.81361157e-02, 1.74487568e-02, 3.79793532e-02, -5.99531922e-04,
       -8.33843183e-03, -2.44664717e-02, 7.27280416e-03, -4.60962532e-03,
       -9.94865969e-03, 1.22250721e-03, 1.76785551e-02, 1.97167099e-02,
       6.86539512e-04, -7.08450470e-03, 1.15803387e-02, 5.01603447e-03,
       1.16473753e-02, 1.08956518e-02, -2.61210818e-02, 3.47151458e-02,
       2.22767200e-02, 2.51549035e-02, 1.59990378e-02, -2.82558966e-02,
       9.72179603e-03, -1.31953172e-02, -2.51107719e-02, -2.04322152e-02,
       1.08614564e-02, -4.98192851e-04, -2.81538535e-02, -3.61972190e-02,
       1.46433255e-02, 1.03731668e-02, 4.38826485e-03, 1.33734830e-02,
       7.19568413e-03, 2.88766604e-02, 4.28590272e-03, -1.54338963e-03,
       4.31355461e-03, -1.70277746e-03, -7.92881753e-03, -4.01722826e-03,
       1.18778264e-02, -2.10599741e-03, 6.24735898e-04, -2.69920845e-03,
       -1.33861350e-02, -1.68679431e-02, 2.99849771e-02, 3.58591857e-03,
       4.01995704e-03, 2.42939163e-02, 4.59797075e-03, 3.85544705e-03,
       -1.24843027e-02, -3.88046633e-03, -2.40375957e-04,
       -5.34332963e-03, -1.45597328e-02, -2.45358534e-02, 1.21807940e-02,
       1.92240290e-02, -9.65499226e-03, 3.50413891e-03, -1.16132740e-02,
       -1.63777005e-02, 2.45552678e-02, -8.18838924e-03, -2.89207208e-03,
       1.73684582e-02, -9.05602239e-03, 5.45295421e-03, 2.05907272e-03,
       8.18734989e-03, 2.16454603e-02, 1.75614015e-03, 2.41801448e-04,
       -1.96334571e-02, 1.21018840e-02, 5.19111045e-02, -5.55708399e-03,
       -1.06802094e-03, 2.31779902e-03, -6.80588372e-03, 1.99382696e-02,
       2.48735654e-03, -3.06181982e-03, 1.40764844e-02, -1.78891420e-02,
       1.16002569e-02, -8.15347489e-03, 2.07788614e-03, -2.70609977e-03,
       2.07052636e-03, 4.55746520e-03, 2.77637970e-03, 8.76796152e-03,
       8.72331299e-03, 3.04573192e-03, -9.10058618e-03, 1.60027072e-02,
       1.37410304e-02, -1.11510232e-03, -9.65091959e-03, -6.36762520e-03,
       1.01639712e-02, -1.75575111e-02, 1.53014138e-02, -2.13138741e-02,
       1.41688893e-02, 1.30810495e-02, 9.63972602e-03, 9.56966076e-03,
       1.64008159e-02, -3.00605944e-03, 1.88960452e-02, 3.14973644e-03,
       -2.64911936e-03, -3.89736815e-04, 2.07678531e-03, 5.96642122e-03,
       1.44020561e-02, 2.29762550e-02, -1.68767869e-02, 1.32726803e-02,
       1.17553826e-02, 4.11564019e-03, -4.35712794e-03, 1.49844754e-02,
       -4.05527512e-03, 1.06680184e-03, 5.85813029e-03, 1.12225581e-02,
       -5.99340163e-03, 2.33420841e-02, -2.28289217e-02, -6.29577262e-04,
       -1.69266691e-03, 3.32077080e-03, -1.57356635e-02, -1.21992978e-03,
       1.09788869e-02, -2.43664347e-02, 3.33433338e-02, -3.64885293e-03,
       -1.25627648e-02, 1.75880231e-02, -7.04920758e-03, 1.14735579e-02,
       -1.12900650e-03, -1.63884796e-02, 4.37825397e-02, 2.38775462e-02,
       1.50154540e-02, -7.44920364e-03, 5.05156722e-03, -6.09576749e-03,
       1.72503218e-02, 1.03827398e-02, 1.73941515e-02, -6.92540128e-03,
       -6.98936684e-03, 1.34574494e-03, -1.77888514e-03, -9.15464014e-03,
       -2.04146244e-02, -1.15090339e-02, -1.44999642e-02,
       -2.35872460e-03, -1.64167695e-02, 1.38003668e-02, -7.47235585e-03,
       -2.30956357e-02, -4.21256572e-03, -2.99981870e-02, 1.16693778e-02,
       -1.57465097e-02, 4.76539321e-03, -2.90073305e-02, -1.85121763e-02,
       -1.11130448e-02, -1.41070401e-02, -1.88077837e-02,
       -1.35576725e-02, -2.14862498e-03, -1.86348613e-03,
       -1.33952014e-02, 1.33452043e-02, 1.93660241e-02, 2.46561598e-02,
       2.51832101e-02, -4.74078348e-03, 3.38167176e-02, 2.22941507e-02,
       1.33688422e-02, 9.43419896e-03, 7.36262882e-03, 6.71998970e-03,
       2.50587054e-02, 2.58039068e-02, 4.25726958e-02, -1.41370471e-03,
       -4.27024625e-03, -2.86775120e-02, -1.03169428e-02, 1.01277158e-02,
       6.07531052e-04, 1.61984644e-03, 2.13899482e-02, 1.56066369e-03,
       2.08076369e-02, 1.83491446e-02, -6.44478062e-03, -6.99379528e-03,
       -4.58412059e-03, -1.12501206e-02, -6.07949402e-03, 1.73239838e-02,
       3.11782453e-02, 4.14157771e-02, 3.25787924e-02, 1.90772582e-02,
       1.39307920e-02, 1.23518948e-02, 7.75173493e-03, 2.70904787e-03,
       1.75355542e-02, 2.88352389e-02, 1.79549139e-02, 1.00927139e-02,
       2.48636864e-02, 2.17998251e-02, -1.32774760e-03, 2.97465194e-02,
       2.45594140e-02, 1.84559152e-02, 1.26376683e-02, -1.70739088e-02,
       1.23801865e-02, -1.16167385e-02, -2.33736765e-02, -3.04318406e-03,
       -6.27815491e-03, -1.28671508e-02, 4.22336301e-03, -1.21451598e-02,
       -3.19383405e-02, -8.50601308e-03, 2.58819815e-02, 1.04522835e-02,
       1.17457681e-03, 2.47844532e-02, 3.25531214e-02, 1.07946740e-02,
       -2.87909824e-02, 1.76510606e-02, 1.12498086e-02, 6.66035619e-03,
       -1.07650971e-02, -2.14541480e-02, 5.01281163e-03, 3.52042392e-02,
       7.69912079e-03, 1.57321356e-02, -1.37084778e-02, -3.82008357e-03,
       -1.16181867e-02, -4.65554707e-02, -4.62493747e-02,
       -5.73945343e-02, -5.88430651e-03, -5.16090402e-03,
       -7.55712949e-03, 2.96755452e-02, 1.82724502e-02, 4.38832790e-02,
       1.21082757e-02, 3.18939262e-03, 4.53212298e-02, 8.85398909e-02,
       3.35382558e-02, 3.65480594e-02, 2.74051744e-02, 2.24881154e-02,
       1.01120109e-02, -2.83054495e-03, -5.97823597e-03, 7.48950988e-03,
       2.15384848e-02, 1.87976081e-02, 2.66523082e-02, -9.08057857e-03,
       1.03648007e-02, 2.42966134e-02, 1.51904235e-02, 3.41718807e-03,
       -6.20011985e-03, 2.52718776e-02, 1.76729728e-02, -8.04699957e-03,
       -9.39477701e-03, 7.80398434e-04, 8.60941596e-03, -3.40516791e-02,
       5.23760123e-03, 1.42702516e-02, 4.30218168e-02, 2.23098751e-02,
       2.02292739e-03, 1.66132823e-02, 3.81358862e-02, 5.93579374e-02,
       4.08713669e-02, 1.99808199e-02, 4.37793974e-03, 2.30938215e-02,
       1.47178145e-02, 2.57459972e-02, -7.79665401e-03, -1.23734679e-02,
       3.48528405e-03, 1.27207609e-02, -6.16094971e-04, 6.08458882e-03,
       1.01474067e-02, 1.23223232e-03, -1.41572077e-02, -1.49519593e-02,
       8.26773606e-03, 6.07106835e-03, -1.45478547e-02, -2.25149412e-02,
       2.60818144e-03, 3.08762509e-02, -8.12264439e-03, -9.57288966e-03,
       -5.29178651e-03, 1.57997534e-02, 1.36086727e-02, 2.18316745e-02,
       1.34109491e-02, 8.18748120e-03, -7.61170464e-04, 3.67814908e-03,
       5.65906521e-03, -1.02515530e-03, 5.33607742e-03, 6.60773879e-03,
       2.40275674e-02, 3.00313793e-02, 3.59559176e-03, 6.38111262e-03,
       -1.67911090e-02, -1.42883533e-03, 1.46327754e-02, 7.62703642e-03,
       5.39285690e-03, 3.21567692e-02, 2.72493884e-02, 9.01427306e-03,
       -2.97581567e-03, -2.00707819e-02, -3.94082814e-03,
       -1.59473997e-02, -7.42935296e-03, -1.97665449e-02, 9.32202616e-04,
       1.69127900e-02, -4.81956056e-04, 5.97308809e-03, 7.32909096e-03,
       -4.19253390e-03, 7.85833225e-03, 4.47651790e-03, 1.23027209e-02,
       8.23475607e-03, -3.14460248e-02, 5.34467632e-03, 2.80506467e-03,
       1.51042854e-02, 1.45126246e-02, -1.12822326e-03, -2.73926090e-02,
       -2.57703047e-02, -2.78192759e-02, -8.81999172e-03, 4.46493458e-03,
       1.82574205e-02, -6.65924419e-03, -9.92748886e-03, 4.39393707e-02,
       6.85874140e-03, 4.49457485e-03, -5.60545782e-03, 2.05199048e-02,
       1.46345412e-02, -1.31333116e-02, -7.81188626e-03, 3.95149216e-02,
       -3.03121302e-02, -7.08716782e-03, -8.03518482e-03,
       -5.54680638e-03, 2.22880654e-02, -2.17669131e-03, -1.72786247e-02,
       -3.49155278e-03, -1.57437809e-02, -2.34214924e-02,
       -1.05532110e-02, -1.02144768e-02, 4.16776426e-02, 1.76289026e-02,
       4.82244566e-02, -2.12489571e-02, -2.48145517e-02, -1.01658786e-02,
       -1.27765853e-02, -2.24740319e-02, -1.95092484e-02,
       -2.98330821e-02, -9.43085994e-04, -8.68784264e-03,
       -3.29982154e-02, -2.05509830e-02, 1.97677087e-04, -2.31346488e-02,
       -7.84453936e-03, -3.18047479e-02, 4.41536605e-02, -3.60552943e-03,
       3.20845731e-02, -1.90781504e-02, -2.59432495e-02, -2.84515172e-02,
       -2.09898856e-02, 1.05216044e-04, -5.75908599e-03, 4.03756462e-03,
       4.10961211e-02, 2.32237224e-02, -3.34338434e-02, -2.04871818e-02,
       -1.48993507e-02, -2.04759873e-02, -2.34116688e-02,
       -3.55950147e-02, -9.70491674e-03, 1.85293294e-02, 1.41173871e-02,
       -3.50320227e-02, -2.27417555e-02, -1.38646541e-02,
       -1.88721363e-02, 6.68123225e-03, -1.92225538e-02, 3.53109017e-02,
       4.60904976e-03, 1.63083933e-02, -2.47410610e-02, -2.50251442e-02,
       -2.65673622e-02, -1.42085338e-02, -1.96420066e-02,
       -4.00570445e-02, 3.18449773e-02, -2.60666339e-03, 1.66323129e-03,
       -1.47882253e-02, -3.01175751e-02, -1.91279203e-02,
       -1.97675917e-03, 4.37580654e-03, -8.93498436e-05, -4.33391286e-03,
       -1.61616597e-03, 1.81666072e-02, -1.19257271e-02, -3.29386885e-03,
       1.42966583e-02, -1.72533300e-02, -1.66161347e-03, -1.20830815e-02,
       -1.71856321e-02, -6.78990688e-03, -1.60958208e-02, 3.39953066e-03,
       1.05778407e-02, -5.06357028e-05, -1.05618145e-02, 1.72216061e-03,
       -1.25276698e-02, 3.67177390e-02, -1.03992941e-02, 1.69793870e-02,
       8.29382334e-03, 2.45917984e-03, -8.01319629e-03, -8.39418825e-03,
       -1.71154141e-02, -1.20313624e-02, -1.44898864e-02, 5.32076461e-04,
       -1.76269691e-02, -1.21772510e-03, -8.35477561e-03,
       -8.30128882e-03, 1.15616601e-02, 3.66394594e-03, -2.57982649e-02,
       6.86904043e-03, 2.91336570e-02, -7.98728410e-03, -1.44971153e-02,
       1.71471536e-02, -3.94988674e-05, 1.04635721e-02, 2.46837642e-02,
       -1.48546947e-02, -2.06370652e-02, 9.95597523e-03, -1.23194680e-02,
       8.83296225e-03, 1.83257442e-02, -5.19859837e-04, 1.73010509e-02,
       1.38577428e-02, -4.73275501e-03, 3.68697233e-02, 1.58187076e-02,
       -1.49624143e-02, -1.90974455e-02, 7.13239936e-03, 1.02927536e-02,
       -9.83595033e-04, 3.63170281e-02, 2.11353917e-02, 7.67681701e-03,
       1.86622664e-02, -2.05454323e-02, 3.81711288e-03, 2.31313240e-02,
       1.45786279e-03, -1.42064383e-02, 4.72091464e-03, -8.24576803e-03,
       -1.44223748e-02, 1.17294900e-02, -8.88832472e-03, 2.01510452e-03,
       1.93870999e-02, -7.73605844e-03, -1.20071704e-02, -1.00877229e-02,
       3.02138776e-02, 2.24160478e-02, 2.56679044e-03, 4.69490793e-03,
       9.32085607e-03, 5.59660187e-03, -5.46869030e-03, -2.78163813e-02,
       3.54227005e-03, -1.27508407e-02, -1.08547667e-02, 3.56210023e-02,
       -2.05943212e-02, -2.25347821e-02, 1.91062223e-02, -1.35296015e-02,
       -2.55244989e-02, -1.25108045e-02, -1.91650659e-04, 1.36968475e-02,
       -8.70741624e-03, 2.33000200e-02, -2.75702495e-02, -6.82561286e-03,
       -2.84058582e-02, 3.44895981e-02, 9.10654478e-03, 2.78722681e-02,
       -1.50558716e-02, 9.02039930e-03, -1.53559987e-02, 1.24608791e-02,
       -5.26813371e-03, 2.12626308e-02, 1.70054045e-02, 9.99953132e-03,
       -2.77105588e-02, -3.64195704e-02, 4.31863312e-03, -3.32843163e-03,
       -1.44068534e-02, -2.77960282e-02, -4.08327347e-03, 1.68824401e-02,
       2.02269070e-02, 2.44539659e-02, 3.36240456e-02, 6.90639811e-03,
       3.72404642e-02, 8.54966138e-03, 1.28354849e-02, 2.05649640e-02,
       8.45843554e-03, 9.91932768e-03, 1.15653127e-02, 1.93318296e-02,
       3.64202075e-02, 3.03032734e-02, 3.77049460e-03, -7.60612497e-03,
       1.91606674e-02, 9.49307065e-03, 1.09468903e-02, -2.12457143e-02,
       -2.70674527e-02, 8.14876147e-03, -9.44139343e-03, 6.91559492e-03,
       6.23677392e-03, 1.89486686e-02, -1.35209933e-02, -7.11872289e-03,
       -2.54467353e-02, -3.56233604e-02, -4.22954932e-03,
       -1.28547540e-02, 1.29428471e-03, -7.20984396e-03, -1.14382887e-02,
       3.90018709e-02, 3.83194126e-02, 2.11162083e-02, 6.88861161e-02,
       5.12620993e-02, 2.18234621e-02, 1.42161138e-02, 1.47137623e-02,
       4.04704660e-02, -2.50227842e-02, -1.07893534e-02, -8.32414627e-03,
       -2.75907223e-04, 1.48672523e-04, 9.21077933e-03, -5.50720934e-03,
       1.06644612e-02, -1.81637965e-02, -3.24994279e-03, -9.85123799e-04,
       -1.78503674e-02, -1.90411732e-02, -6.27540471e-03,
       -1.66626964e-02, -2.61774100e-02, -1.60139501e-02,
       -1.01165231e-02, 2.76017506e-02, -2.46384759e-02, -3.93437780e-02,
       -3.40544730e-02, 6.39769668e-03, -9.89517756e-03, -1.52034331e-02,
       -1.81997009e-02, 3.17769870e-02, 3.40042487e-02, 3.25764380e-02,
       2.63349339e-02, 1.84334759e-02, 9.99392103e-03, -1.40113744e-03,
       -2.42435653e-02, 3.40687716e-03, 1.37520079e-02, 6.34879097e-02,
       3.76479886e-02, 1.76283885e-02, 1.52110998e-02, 2.47701667e-02,
       7.68744852e-03, -8.08579032e-04, 2.24089548e-02, 6.81587607e-02,
       2.17538904e-02, -1.50777521e-02, -2.22687721e-02, -3.02699190e-02,
       -1.81403831e-02, -1.64304823e-02, 4.67009348e-04, -2.58922689e-02,
       8.38699285e-03, 5.64330630e-02, -4.69588488e-03, -1.41535199e-03,
       -2.84929052e-02, 2.59232819e-02, -1.36099001e-02, -1.07392855e-02,
       -3.28761302e-02, 4.69792411e-02, 4.60709855e-02, 2.06768960e-02,
       4.07419354e-03, 1.85046741e-03, -1.45857735e-02, -2.30768993e-02,
       -9.38314479e-03, -7.60188233e-03, 4.06330898e-02, 2.66022664e-02,
       1.57525614e-02, -8.84271227e-03, -2.12764717e-03, 5.35037369e-03,
       -5.85518219e-03, 5.04930411e-03, 9.16540250e-03, 3.58575806e-02,
       1.30403405e-02, -1.95260141e-02, -2.21001147e-03, -3.61596681e-02,
       5.83675085e-03, -1.70106813e-02, -2.08502207e-02, -3.34844813e-02,
       -7.82023053e-05, -2.08878107e-02, -7.52479653e-04,
       -1.33426646e-02, 1.61739010e-02, 1.41922086e-02, 2.25159060e-02,
       -1.67117883e-02, -2.14917045e-02, -2.24836450e-02,
       -1.48571180e-02, -2.34490782e-02, -1.90596804e-02, 6.01426582e-04,
       1.78443100e-02, 2.21459731e-03, -1.48295760e-02, -1.47339422e-02,
       -2.77885795e-02, 1.70714036e-02, -2.61593070e-02, -1.62061565e-02,
       3.71525697e-02, 4.00269851e-02, 3.13794427e-02, -8.63098633e-03,
       -6.46097772e-03, 6.07408490e-03, -3.35058663e-03, 1.54097062e-02,
       1.62484273e-02, 2.63274275e-02, 9.45886411e-03, 3.16069201e-02,
       1.42420754e-02, 9.58558824e-03, -7.62668764e-03, 3.93533036e-02,
       7.96374306e-03, -7.37910857e-03, 2.90809441e-02, 1.24959350e-02,
       1.54759502e-02, 1.10831177e-02, 1.30353719e-02, 2.73217764e-02,
       8.46434385e-03, -1.21029560e-03, 1.38196978e-03, -1.34774791e-02,
       1.04842326e-02, 9.02907550e-03, 4.79396852e-03, 7.08370283e-03,
       -1.97355356e-03, 2.48546842e-02, 1.45856827e-03, 2.19740514e-02,
       5.01566846e-03, 2.96435114e-02, 8.96935933e-04, -1.08555108e-02,
       -4.81605995e-03, 1.08336117e-02, 1.52817592e-02, 7.61497207e-03,
       -1.69630237e-02, 1.85228623e-02, 8.28025211e-03, -9.65901185e-04,
       4.06740746e-03, 7.74013018e-03, 2.81751007e-02, -5.09787700e-04,
       -3.77700734e-03, -1.86853707e-02, -6.31198380e-03, 2.75709946e-02,
       -2.85274480e-02, 9.56015848e-03, 3.86423711e-03, 8.30210373e-03,
       2.57158261e-02, 6.16487348e-03, 1.12604536e-02, -4.10339003e-03,
       2.11178008e-02, -6.82201749e-03, -4.13601473e-03, 2.17748084e-03,
       1.76748000e-02, -1.03235338e-02, 2.15730183e-02, -5.41115459e-03,
       1.41593646e-02, 2.69684708e-03, -1.40581122e-02, -4.56248224e-03,
       -1.28823584e-02, 4.35885944e-04, -2.47384422e-03, 3.40459077e-03,
       -3.29401181e-03, -2.33826530e-03, -2.37839040e-03,
       -1.35937762e-02, -7.55803240e-03, 5.61407022e-03, 3.52538098e-03,
       8.96771345e-03, 3.05579207e-03, 8.03018641e-03, -1.56426374e-02,
       6.14891388e-03, -1.06445476e-02, -3.39223910e-03, 1.60380118e-02,
       1.13223437e-02, 6.22707652e-03, 2.48276871e-02, 2.35637072e-02,
       1.44451289e-02, -1.78169459e-02, 1.55863361e-02, 2.54360102e-02,
       2.20554471e-02, 4.36248578e-04, 1.45315100e-02, 1.49504803e-02,
       7.10068736e-03, 5.43621322e-03, -4.18725237e-03, 6.93605514e-03,
       6.76804362e-03, 2.48160362e-02, 1.25281410e-02, 5.94174198e-04,
       4.17911168e-03, -6.07207278e-03, 1.04126020e-03, 2.27709226e-02,
       -2.07059588e-02, -1.05356909e-02, 1.80760808e-02, 1.47593804e-02,
       -6.50645525e-04, -1.23084551e-02, -4.14533727e-03, 3.31438184e-02,
       4.58502118e-03, 2.51162499e-02, -7.55058648e-03, -2.27393772e-04,
       1.49775436e-03, -3.86631209e-03, 1.54663911e-02, -2.46344483e-03,
       -5.28616738e-03, -1.17575889e-02, 5.12177474e-04, 1.48265511e-02,
       8.82094167e-03, 1.44499463e-05, -2.29370259e-02, -2.22993195e-02,
       1.47335529e-02, 9.23628453e-03, -2.63488926e-02, 7.52456207e-03,
       6.84594503e-03, -1.04529783e-02, -2.34928578e-02, 1.03318095e-02,
       7.87142664e-03, 3.19830072e-03, 2.06195470e-02, 2.16890480e-02,
       -2.33289767e-02, -1.83555372e-02, -2.18171510e-03, 1.33115994e-02,
       4.25623078e-03, -8.36690050e-03, 1.63005292e-02, 3.31392363e-02,
       2.29863096e-02, 8.79808329e-03, -7.16325222e-03, 6.65158220e-03,
       4.76339599e-03, -2.45346967e-02, -2.60547772e-02, -4.94254893e-03,
       4.43516532e-03, -3.35875340e-03, -6.23833993e-03, -5.21312002e-04,
       1.15938288e-04, -1.89788677e-02, 1.55958962e-02, -1.01729231e-02,
       1.13298297e-02, 3.38850655e-02, -2.55123191e-02, 2.28090324e-02,
       2.26026215e-02, 8.59779119e-03, 1.87529139e-02, -1.56774919e-03,
       -1.99778490e-02, -1.06998058e-02, -3.06868786e-03, 1.04214828e-02,
       -2.90811658e-02, -2.20699627e-02, 1.10673811e-03, -1.10475002e-02,
       -1.62538681e-02, -9.24834516e-03, -8.66543502e-03,
       -8.47405195e-03, -1.54449567e-02, -1.78311523e-02,
       -1.43867619e-02, -1.19383419e-02, -1.76426116e-02,
       -1.73913892e-02, -2.82624718e-02, -2.21077874e-02, 3.32312025e-02,
       6.18770719e-03, 3.34736705e-02, -1.00132246e-02, -7.97176082e-03,
       -1.98095962e-02, -1.20524624e-02, -6.65615126e-03, 1.67910755e-03,
       5.55573739e-02, 1.39235314e-02, 2.09855475e-02, -9.61248763e-03,
       -9.95683833e-04, -1.72853153e-02, 1.90723669e-02, 5.09233261e-03,
       7.94206839e-03, -1.14237657e-03, -2.75137071e-02, -5.84671879e-03,
       -2.33103745e-02, -1.91677865e-02, -5.49556874e-03, 2.02030465e-02,
       -2.67740078e-02, -3.14923525e-02, -2.66725887e-02,
       -1.85259245e-02, -2.01066583e-02, -9.97363869e-03,
       -8.06367304e-03, -3.82448034e-03, -1.72150356e-03,
       -1.29675074e-02, -5.28721930e-03, 1.43380472e-02, -2.81005669e-02,
       4.18172358e-03, -2.71586720e-02, -1.68487895e-02, -8.47445987e-03,
       -9.41665005e-03, -2.20905952e-02, -3.97949386e-03,
       -6.91893790e-03, -6.26614550e-03, -3.78233311e-03,
       -5.15603715e-05, -8.03400006e-04, -1.32036489e-02, 3.48097645e-02,
       8.99051130e-03, 6.61545526e-03, -5.51153254e-03, -3.86955328e-02,
       -2.80239992e-02, -1.70514814e-03, -2.48229541e-02, 1.86171178e-02,
       2.19662804e-02, 1.39150955e-02, -1.78380292e-02, -8.66577588e-03,
       -6.19341480e-03, 1.11947523e-03, -7.83739984e-03, -1.44065470e-02,
       4.03071120e-02, 4.02102573e-03, 1.33794574e-02, 2.36971360e-02,
       1.47102531e-02, -2.40098257e-02, -3.65090929e-03, -9.81475227e-04,
       4.36348637e-04, 9.28712171e-03, -9.36834235e-03, 5.74713049e-04,
       6.73005357e-03, -8.40611104e-03, -2.08017062e-02, 6.69783680e-03,
       -3.54174641e-03, -1.59865785e-02, -5.53036015e-03, 1.18138064e-02,
       9.40585975e-03, -2.07229611e-02, -1.23625388e-02, 2.66916119e-02,
       3.40049230e-02, 5.99095086e-03, 1.02540879e-02, 1.86631344e-02,
       7.95554277e-03, -1.03607345e-02, -2.09893174e-02, -2.05912199e-02,
       1.43879419e-02, -1.97102269e-03, -3.11770365e-02, -6.60408475e-03,
       1.35310180e-03, 1.41174272e-02, 3.70488665e-03, -2.16559181e-03,
       1.13805430e-02, 1.27298124e-02, 3.49128060e-02, 2.60253344e-02,
       8.54068995e-03, 1.37757491e-02, 1.77897699e-02, 8.95385892e-05,
       4.61108662e-04, -9.51727107e-03, -2.80086533e-03, -8.21712986e-03,
       -1.47613380e-02, -6.30029989e-03, 3.20083299e-03, 4.86560315e-02,
       1.38603281e-02, 1.80291571e-02, 3.08611430e-02, 3.38015379e-03,
       1.97769590e-02, -6.94044400e-03, -2.80997978e-04, 4.27468568e-02,
       1.21436603e-02, -8.51972122e-03, 2.73018107e-02, 1.43740177e-02,
       6.92665018e-03, -5.21356380e-03, 2.76763877e-03, -2.99850199e-03,
       1.69442333e-02, 2.62859855e-02, 1.88319683e-02, 3.99853848e-02,
       1.56490151e-02, 3.27108055e-02, 1.44782895e-02, 3.74246873e-02,
       -8.01269058e-03, 3.04263160e-02, -9.58628580e-03, 4.30098362e-03,
       2.16456503e-02, -1.09303370e-02, 2.37978380e-02, -2.28571724e-02,
       5.61064480e-05, 1.49555982e-03, 2.99197864e-02, -2.62546148e-02,
       -3.80412862e-03, 1.76269151e-02, -8.54013301e-03, 3.21897352e-03,
       -2.11072341e-02, -9.57081001e-03, 2.54990766e-04, -2.00581737e-02,
       -3.92537341e-02, 2.03712154e-02, 5.46402019e-03, 6.69775484e-03,
       -9.30380076e-04, -1.48682231e-02, -1.30844023e-03,
       -1.34326867e-03, -7.14916969e-03, -3.56039554e-02,
       -3.07979388e-03, 8.37651081e-04, -4.04915214e-02, -1.70738865e-02,
       -8.92708544e-03, 5.69355749e-02, 1.36942277e-02, 1.18733803e-02,
       -1.58251487e-02, 2.71720905e-02, -1.73194555e-03, 6.19658828e-03,
       1.71797518e-02, 1.93475094e-02, 1.97404362e-02, 3.63181047e-02,
       2.47647911e-02, 5.42696391e-04, 5.97371953e-03, 7.85292685e-03,
       4.77286940e-03, 3.31129618e-02, 1.13213640e-02, 1.02878334e-02,
       2.90437788e-03, -1.61980547e-03, 1.37938745e-03, -1.62929446e-02,
       -5.39599638e-03, -2.45681871e-03, 2.91309832e-03, 7.51853036e-03,
       -9.41427890e-03, -3.12127895e-03, -3.17131393e-02, 4.69046198e-02,
       -1.73385534e-02, -7.81511609e-03, -1.11709423e-02,
       -7.10414909e-03, -5.62681677e-03, -1.26835862e-02,
       -3.51234972e-02, -1.61282271e-02, 4.44204845e-02, -1.71617791e-02,
       5.57995576e-04, -8.40796437e-03, 2.70762164e-02, 1.70479789e-02,
       -1.50649007e-02, -1.83322169e-02, 7.99781457e-03, 3.05409580e-02,
       1.56858303e-02, 2.78894380e-02, 5.61992824e-03, -2.87202355e-02,
       1.26036694e-02, 1.39628546e-02, -7.09422724e-03, -9.34736431e-03,
       7.35592004e-03, -1.07126981e-02, 6.03230949e-03, 3.32316421e-02,
       2.82492465e-03, 2.62886402e-04, -2.59618205e-03, -5.04091242e-03,
       -8.52787122e-03, 4.34566103e-02, -1.46230217e-02, 4.95582027e-03,
       -4.69891028e-03, 4.59313480e-04, 1.09090540e-03, -8.98070913e-03,
       -2.69621462e-02, 1.78535022e-02, 9.54426732e-03, 7.39421789e-03,
       1.11874305e-02, 1.80326197e-02, -9.48738959e-03, -3.14360810e-03,
       -2.61772261e-03, -1.37126604e-02, -8.58561043e-03, 1.24505665e-02,
       -1.76645033e-02, 4.19556024e-03, 2.55318265e-02, 1.75631847e-02,
       -1.04482155e-02, 7.52420491e-03, 4.30211518e-03, -1.83692854e-02,
       3.79297100e-02, 1.48259094e-02, 8.57833400e-03, 4.58824001e-02,
       3.29012563e-03, 2.66874060e-02, 1.93908357e-03, -1.71492007e-02,
       2.67663691e-03, 5.32110501e-03, -2.40648072e-02, -2.88866591e-02,
       -9.93424002e-03, -1.14230858e-02, -1.06071681e-02,
       -8.95221531e-03, -5.85710956e-03, -2.00741887e-02, 3.74638475e-02,
       -1.30897178e-03, -1.44999800e-02, 1.19842952e-02, -1.52163748e-02,
       1.61825903e-02, 1.08927703e-02, -2.08164100e-02, -1.10434443e-02,
       1.21764774e-02, 1.43710580e-02, -2.18821652e-02, 2.98625287e-02,
       2.41747275e-02, 2.84507349e-02, -1.17694344e-02, -1.66688468e-02,
       -1.54286753e-02, -9.27924179e-03, -1.17059769e-02,
       -2.91593187e-02, 1.98072996e-02, 2.09330209e-02, 3.58871147e-02,
       1.74305832e-03, 1.11246593e-02, -1.00783492e-03, 3.67907397e-02,
       1.17804194e-02, -1.33865802e-02, -3.22723649e-02, 1.47627778e-02,
       -1.36720361e-02, 5.69447223e-03, 2.52274750e-03, -7.47936196e-04,
       -7.60366023e-03, 6.92575332e-03, -2.20407303e-02, -1.64168645e-02,
       -1.39953604e-03, 1.11015858e-02, 3.21131833e-02, 3.26606520e-02,
       1.01760495e-03, -1.66881853e-03, -4.18935623e-03, 9.97710507e-04,
       2.68882327e-03, -1.45340450e-02, 2.61621247e-03, -7.33011402e-03,
       3.34441802e-03, -6.32507633e-03, -1.85650293e-04, -5.78829926e-03,
       1.73308682e-02, 1.78195611e-02, 2.31885328e-03, 1.16244750e-02,
       2.85153918e-04, 2.75178510e-03, 4.13640495e-03, -3.95924300e-02,
       -2.55214912e-03, -9.84366518e-03, -1.75535940e-02,
       -2.05433276e-02, 6.06991164e-03, 1.83453709e-02, 1.70900691e-02,
       -8.87870416e-03, -2.71146768e-03, 1.01587595e-02, 1.39594246e-02,
       -4.08914359e-03, -3.03160097e-03, -1.34344622e-02, 5.56714367e-03,
       1.78346653e-02, 1.88050773e-02, 5.42747183e-03, 2.36598728e-03,
       7.96915218e-03, 1.09258248e-02, -9.58627276e-03, 5.66890603e-03,
       2.27874052e-03, 1.43222986e-02, 2.84544472e-02, -1.46530746e-02,
       -3.46172042e-03, 8.01753066e-03, 6.76776748e-03, 1.50857940e-02,
       1.59565695e-02, 8.84643290e-03, -1.03099295e-03, 9.28395428e-03,
       2.93400791e-02, 1.70691404e-02, 1.15317209e-02, -1.61881261e-02,
       -5.14249615e-02, -1.53149525e-02, -1.27211882e-04, 3.59137636e-03,
       2.60109957e-02, 1.48505969e-02, 6.43030042e-03, 8.31505982e-04,
       -1.70365293e-02, -7.52770051e-04, -2.97492486e-03,
       -2.01084465e-02, 6.95134001e-03, -1.08358655e-02, 7.88892561e-04,
       -8.51515587e-03, 8.83437693e-03, 3.08837853e-02, 3.43531072e-02,
       3.31841297e-02, 2.76355688e-02, 7.95491133e-03, 1.62365921e-02,
       -8.61513801e-03, -2.40412336e-02, 1.32978836e-03, 5.95966494e-03,
       3.02888714e-02, -9.16141272e-03, -1.01512820e-02, -1.20525360e-02,
       -1.61053855e-02, 1.76303945e-02, -2.35264618e-02, -5.06184716e-03,
       -4.69171675e-03, 2.21604225e-03, -2.47277017e-03, 7.55093992e-04,
       6.53772010e-03, 2.79123783e-02, 9.01589077e-03, -3.12158689e-02,
       -3.11545911e-03, -1.36185838e-02, 1.00340825e-02, -2.37728283e-02,
       -2.52538081e-02, -2.36351453e-02, 1.34942150e-02, -1.00460509e-02,
       9.07899346e-04, 2.24412885e-02, 3.01891398e-02, -2.59245653e-03,
       2.34181643e-03, 2.20319219e-02, -2.70422474e-02, -1.79676395e-02,
       -2.71510836e-02, -3.30570550e-03, 2.17156950e-02, 1.92278659e-03,
       -3.20237945e-03, 2.91598402e-03, 3.70620154e-02, 1.84012633e-02,
       1.24307331e-02, 9.48461890e-03, -3.27651971e-03, 2.32772231e-02,
       -2.10568705e-03, -6.53014379e-03, -1.79574806e-02, 1.55712310e-02,
       -2.39213761e-02, 1.52434548e-02, -1.31688500e-02, -3.28142755e-03,
       2.51119174e-02, 2.06629699e-03, 1.15904408e-02, -2.11049747e-02,
       2.42771171e-02, 2.77892407e-02, 2.50000227e-02, -2.53380556e-02,
       -6.56512426e-03, -9.06853564e-03, -2.89724562e-02,
       -5.03161810e-02, 3.06475908e-03, 7.65901953e-02, 3.68381781e-03,
       8.92900769e-03, -3.06243300e-02, -1.20402928e-02, -1.94398239e-02,
       -1.31077627e-02, -1.45249376e-02, -1.19197425e-02, 3.08746528e-02,
       1.67326666e-02, 8.00417643e-03, -8.45915172e-03, -1.58336442e-02,
       -3.42129986e-03, -2.12550946e-02, -1.35822259e-02,
       -2.41955500e-02, 4.26143333e-02, 5.59728779e-03, 5.00932802e-03,
       -1.71607137e-02, 1.38677948e-03, 2.71418039e-02, 2.69799903e-02,
       -8.08746461e-03, -2.23571472e-02, -2.73497170e-03,
       -2.48268154e-02, 7.14644417e-03, -2.04532933e+00 ]
