%YAML:1.0
mex_id_type_d_back: !!opencv-object-detector-hog
   winSize: [ 128, 80 ]
   blockSize: [ 16, 16 ]
   blockStride: [ 8, 8 ]
   cellSize: [ 8, 8 ]
   nbins: 9
   derivAperture: 1
   winSigma: 4.
   histogramNormType: 0
   L2HysThreshold: 2.0000000000000001e-01
   gammaCorrection: 1
   nlevels: 64
   signedGradient: 0
   SVMDetector: [ -3.19915824e-02, -1.04076397e-02, 9.04946402e-03,
       -2.93789199e-03, -2.35480871e-02, -9.65169910e-03,
       -2.33397149e-02, -1.76873840e-02, -1.01363966e-02, 5.17919427e-03,
       -4.15815134e-03, -7.02603161e-03, -5.82094444e-03, 5.85314445e-03,
       1.46217328e-02, 1.93853036e-03, -5.88422595e-03, 4.12191786e-02,
       7.13756250e-04, -1.08027924e-02, 2.05974784e-02, 6.08223141e-04,
       1.68708917e-02, 1.81599651e-02, -1.00103980e-02, -2.35777143e-02,
       3.48521098e-02, 3.75736807e-03, -4.55225073e-03, 2.10171062e-02,
       -6.57090219e-03, 2.09958069e-02, 1.46233886e-02, -2.19307393e-02,
       -7.49999704e-03, 4.35910933e-02, 1.36479326e-02, -1.91444084e-02,
       -1.68835875e-02, -3.63467224e-02, -3.44982892e-02,
       -1.59687214e-02, -1.60553120e-02, -2.67418846e-02, 8.81399610e-04,
       1.38399722e-02, -2.50002537e-02, -2.67556440e-02, -3.13799642e-02,
       -3.34974416e-02, -2.94457003e-02, -3.04941125e-02,
       -4.09621857e-02, -1.49712861e-02, 1.62033606e-02, -2.24681348e-02,
       -3.36244628e-02, -5.11966273e-02, -4.09981944e-02,
       -3.42132188e-02, -3.93604822e-02, -2.88211796e-02, 3.67228761e-02,
       1.90356057e-02, 2.62187561e-04, -2.84160916e-02, -8.86132289e-03,
       -3.43765058e-02, -5.76943671e-03, -1.21211531e-02,
       -6.88760728e-03, 1.37594156e-02, 2.98653338e-02, -1.39982766e-02,
       2.48071644e-03, 1.17494445e-02, -9.23516229e-03, -1.35069136e-02,
       -9.70238168e-03, -2.71119904e-02, 1.99034940e-02, 3.29704373e-03,
       -4.76055108e-02, -1.01447525e-03, 8.64765141e-03, -6.45038579e-03,
       4.68522916e-03, 2.59321351e-02, -8.00431892e-03, -8.63379240e-03,
       3.15640382e-02, -1.13087483e-02, -1.98352914e-02, 1.84326209e-02,
       -9.75292455e-03, -9.43346135e-03, -1.70479789e-02,
       -2.30854973e-02, 3.59030552e-02, 4.16656863e-03, -2.18665861e-02,
       -1.98074114e-02, -5.99030918e-03, -6.47420820e-04,
       -9.19809099e-03, 4.81445063e-03, -3.14264465e-03, -6.80789212e-03,
       5.01069501e-02, 2.20651217e-02, 3.56186777e-02, 5.22085689e-02,
       -1.32288039e-02, -9.92170535e-03, 2.78799981e-02, 8.27316381e-03,
       2.64496543e-02, 4.55770083e-02, 1.82566990e-03, -1.70451473e-03,
       1.16707487e-02, -1.22808048e-03, -1.18458131e-02, 1.08907152e-04,
       -2.87477160e-03, 1.30066201e-02, -8.01952556e-03, -1.11521455e-03,
       -1.71164833e-02, 1.76334437e-02, -3.27108428e-02, -3.19127813e-02,
       1.33051910e-02, 8.87503102e-03, -2.98629440e-02, -1.61689036e-02,
       -2.84169475e-03, -8.13576672e-03, 3.14611499e-03, -2.23051701e-02,
       -3.10918111e-02, 4.44003614e-03, -5.47079556e-03, 1.01382216e-03,
       7.12876618e-02, 4.03620582e-03, -7.52767315e-04, 1.81471519e-02,
       2.92875688e-03, -3.51174152e-03, 2.32343394e-02, 1.52510349e-02,
       4.81789745e-02, 8.99038464e-03, -3.61357303e-03, 9.49212536e-03,
       2.23026220e-02, -7.97468144e-03, 4.20759954e-02, 2.08109729e-02,
       3.88244912e-02, 4.44638208e-02, 2.24106642e-03, 9.47061833e-03,
       -1.13972081e-02, -1.09460568e-02, -1.53321531e-02,
       -1.55543853e-02, 2.81628524e-03, -1.05139771e-02, 9.97570995e-03,
       -1.04234088e-02, -2.56578834e-03, -7.47474376e-03, 1.18049898e-03,
       -5.05194813e-02, -2.54159812e-02, 2.65592523e-03, -2.31442484e-03,
       -1.04899947e-02, -1.81307979e-02, -1.63998967e-03, 1.03509463e-02,
       -9.94391181e-03, -1.65433511e-02, 5.72912656e-02, 4.18709498e-03,
       2.23284569e-02, -8.55134893e-03, 6.42796792e-03, -5.59207518e-03,
       9.70968511e-03, 6.67244243e-03, 9.43261757e-03, 2.16619521e-02,
       -2.69560679e-03, 1.97728183e-02, 2.16221977e-02, -2.26700567e-02,
       9.85716749e-03, 3.33309756e-03, -1.39436331e-02, -4.69419453e-03,
       -9.84183629e-04, -4.05705534e-03, 3.17555200e-03, -4.43517556e-03,
       1.59301311e-02, -1.19034643e-03, 7.08341226e-03, 4.27200040e-03,
       -9.26441234e-03, 1.42528787e-02, -1.13833891e-02, -1.27746519e-02,
       1.67959165e-02, -3.36039588e-02, -1.50165707e-02, 1.94941331e-02,
       -2.58947704e-02, -3.04693468e-02, 4.56934702e-03, 6.64048176e-03,
       -1.03104487e-02, -2.83886469e-03, 2.24636099e-03, -1.91586986e-02,
       2.13044658e-02, -1.02979383e-02, -1.40035050e-02, -9.80147999e-03,
       1.36505570e-02, 6.07776036e-03, 1.35086617e-02, 1.25410613e-02,
       -3.92442085e-02, 4.95727756e-04, -2.62366533e-02, 2.63296142e-02,
       -1.04234461e-03, 6.69862051e-03, -2.00198106e-02, 2.78664976e-02,
       3.42867114e-02, -1.75097808e-02, 4.44061705e-04, -4.22566052e-04,
       4.27227467e-03, 1.67065870e-03, 2.23094504e-03, -1.94496997e-02,
       2.01825295e-02, -1.95911359e-02, -3.64103005e-03, 1.20601067e-02,
       1.57556273e-02, -1.18959474e-03, 5.82672050e-03, 2.71611270e-02,
       1.51294982e-04, 5.61641390e-03, -2.48173699e-02, -2.62941904e-02,
       1.17275296e-02, 1.31894266e-02, -2.84148920e-02, 1.25448371e-03,
       2.07958315e-02, 5.50254574e-03, -1.09808985e-02, 3.17475386e-02,
       4.54440294e-03, -1.69605808e-03, 1.36787519e-02, 1.70926470e-02,
       9.90850036e-04, 6.38297992e-03, 2.43989611e-03, 3.98431085e-02,
       2.45310105e-02, -1.08588664e-02, -1.20562157e-02, 2.19491241e-03,
       -3.83156836e-02, -1.66994371e-02, 3.67516768e-03, 4.35732678e-03,
       6.03587553e-03, -7.19954958e-03, -7.73292268e-04, 2.28737630e-02,
       1.26551902e-02, -3.29737552e-02, 1.36948992e-02, 1.95586421e-02,
       1.61647275e-02, -1.26409428e-02, -1.85952559e-02, 1.65548883e-02,
       3.57385762e-02, 2.41800267e-02, -2.54787505e-02, 2.05721930e-02,
       -6.79796794e-03, 9.57056321e-03, -2.08457746e-02, 1.81698240e-02,
       1.14121092e-02, -7.16013974e-03, 7.79771013e-03, -2.87051871e-02,
       6.92275306e-03, 4.45934758e-03, 6.05546869e-03, -1.00072278e-02,
       4.05543105e-04, -4.98194294e-03, 7.65683455e-03, -1.33302705e-02,
       -3.03185219e-03, 6.75737811e-03, 4.26051347e-03, 2.44172439e-02,
       -1.47664044e-02, -1.26379123e-02, -2.87396647e-02, 1.16795972e-02,
       -5.82391443e-03, 3.69867054e-03, 2.72500198e-02, -7.68679008e-03,
       -1.56110320e-02, 1.04222093e-02, -5.14750555e-03, -2.33991947e-02,
       6.34152070e-03, -1.27681124e-03, 1.57607477e-02, 2.12994032e-02,
       1.28582341e-03, 1.24704950e-02, 2.60341614e-02, 1.89995451e-03,
       -4.15753499e-02, 5.48433466e-03, 4.35086014e-03, -2.59461235e-02,
       2.54026093e-02, -9.62237455e-03, -2.31148880e-02, -1.46116056e-02,
       1.45644704e-02, -4.14200418e-04, 1.78339984e-02, 2.03105565e-02,
       3.61791666e-04, 9.78376344e-03, 2.79775485e-02, 1.85024310e-02,
       7.49552203e-03, 3.50063643e-03, 8.95587087e-04, 1.67581951e-03,
       -5.60842047e-04, -3.79605517e-02, 1.04327174e-02, 6.30754698e-03,
       -1.84417644e-03, 2.03434415e-02, -4.89665149e-03, 2.22307295e-02,
       -7.29627209e-03, 1.21443244e-02, -4.26974073e-02, 2.12327018e-02,
       1.29508777e-02, 9.12453327e-03, 9.25731729e-04, -1.26963248e-02,
       -8.37644842e-03, 1.85243599e-02, 3.58343427e-03, -2.51558907e-02,
       1.17979599e-02, 3.39825749e-02, -2.74446374e-03, 8.48338939e-03,
       1.96316489e-03, 1.37036352e-03, 1.43185686e-02, 8.03589879e-04,
       -3.69150974e-02, 1.55547112e-02, 3.03879846e-02, 1.61849242e-02,
       1.44240204e-02, 6.17274921e-03, 1.66677833e-02, 1.08880019e-02,
       1.93869788e-02, -1.78257469e-02, 6.61954423e-03, 4.98964591e-03,
       1.52879884e-03, 1.59981363e-02, -2.24362202e-02, 3.80686746e-04,
       3.71665414e-03, 1.56689424e-03, 2.43375767e-02, -7.10652908e-04,
       5.01123630e-03, 5.93880937e-03, 1.75749778e-03, 6.91231980e-04,
       2.23273654e-02, 1.42708831e-02, 5.71839744e-03, -4.06216346e-02,
       -8.28753866e-04, 7.12278206e-03, 1.70071032e-02, -1.08293667e-02,
       -6.92986324e-03, 7.76453270e-03, 2.34973989e-02, 3.10151023e-04,
       2.15319246e-02, -1.26662329e-02, -3.50780156e-03, 2.46638595e-03,
       2.30880105e-03, -4.86768642e-03, 4.01903577e-02, 2.97103152e-02,
       3.35039049e-02, 3.05700954e-02, 3.25639197e-03, 1.04348324e-02,
       7.49856420e-03, 7.88912294e-04, -1.84218138e-02, -7.01066526e-03,
       -1.65774990e-02, -2.78032329e-02, 4.55218554e-02, -1.80899873e-02,
       6.91256998e-03, -3.68676707e-03, -1.84962526e-02, -3.07979193e-02,
       1.85508337e-02, 5.99676650e-03, 4.90669813e-03, 1.17607415e-03,
       1.09030250e-02, 3.28701362e-03, -1.76428701e-03, -2.13403031e-02,
       -4.10397835e-02, -3.36046470e-03, -3.17443386e-02,
       -3.35703455e-02, 2.13145390e-02, -2.99280155e-02, -1.23964557e-02,
       8.69392790e-03, -3.05108111e-02, 1.36739025e-02, 3.22476178e-02,
       3.24823055e-03, 1.23388716e-03, 3.13240811e-02, 1.25369919e-03,
       -6.18591439e-03, -1.02489125e-02, 1.20290294e-02, -8.71213712e-03,
       1.51797244e-02, -1.90092862e-04, 7.69972568e-03, 1.40108811e-02,
       2.39992351e-03, -2.65182857e-03, 1.29923346e-02, 2.96566548e-04,
       -3.39347497e-02, 3.15005286e-03, -3.84960411e-04, 1.49494819e-02,
       3.81438546e-02, -2.10838765e-03, -4.79524070e-03, -1.22527350e-02,
       -2.79909987e-02, -3.55943926e-02, -4.62946668e-03, 1.05937477e-02,
       -1.74749817e-03, 2.21613348e-02, 7.78858364e-03, 4.36476339e-03,
       1.06976135e-02, -3.36731337e-02, -4.78426516e-02, 1.56655312e-02,
       1.47942808e-02, 1.56087801e-02, 2.28090044e-02, 6.76157000e-03,
       -8.86872970e-03, 7.02444650e-03, -2.80139279e-02, 1.87619403e-02,
       3.70796095e-03, 3.16339754e-03, 2.99543459e-02, 2.07965132e-02,
       -2.46440317e-03, -1.82342529e-02, -5.41329850e-03, 5.29512810e-03,
       -3.66806239e-02, 9.97804292e-03, -6.01871172e-03, -1.83152705e-02,
       2.30690427e-02, -7.42956484e-03, 1.38216594e-03, 2.42987815e-02,
       -2.44619586e-02, 8.34891200e-03, -1.68143678e-03, -2.77557317e-03,
       1.21870013e-02, -3.30772460e-03, 1.73704233e-02, 8.81187618e-04,
       4.70607216e-03, 4.06364631e-03, -1.39091471e-02, -1.98696125e-02,
       -8.66618752e-03, -3.30889039e-02, 6.60360465e-03, -2.83054505e-02,
       6.49156515e-04, -1.52340280e-02, -2.11590324e-02, 3.33688296e-02,
       -1.78253669e-02, -1.21195177e-02, -1.67138781e-02, 1.13800941e-02,
       -2.26966795e-02, -6.88759435e-04, -3.42332982e-02, 2.31416263e-02,
       2.37565045e-03, -2.83081550e-02, -1.22748073e-02, -2.89427638e-02,
       1.68305431e-02, -6.45355275e-03, -2.79165246e-02, -1.19739706e-02,
       -5.33191068e-03, 3.77349779e-02, -7.24295853e-03, -4.83838143e-03,
       3.23409028e-02, -1.39397709e-03, 1.97700728e-02, -1.23793660e-02,
       -3.19424784e-03, 9.91668366e-03, -2.62411009e-03, -8.32674559e-03,
       -6.96350960e-03, -1.79759823e-02, 3.89834568e-02, -9.60036460e-03,
       5.01209591e-03, -1.25025455e-02, 8.65138881e-03, -2.17600912e-02,
       -7.52262026e-03, -5.33534819e-03, 4.53317072e-03, 2.16481574e-02,
       -2.31875051e-02, -1.11417873e-02, -2.67609563e-02,
       -1.92687530e-02, 5.18421493e-02, 4.27015359e-04, -1.23670334e-02,
       6.70723710e-03, 2.77513675e-02, 3.83852492e-03, 2.60555604e-03,
       3.25259799e-03, 2.59721447e-02, 3.21921743e-02, -1.64496806e-02,
       1.24498960e-02, -1.47844758e-02, 1.43302353e-02, -3.34775932e-02,
       2.61092768e-03, -9.56842210e-03, 2.18127482e-02, 3.18551511e-02,
       8.24750308e-03, -2.16091215e-03, -3.26331798e-03, 2.86360979e-02,
       -4.08658991e-03, -1.34742875e-02, -1.05173765e-02, 3.05010863e-02,
       -3.35281454e-02, -1.90422721e-02, 5.20644011e-03, -3.44175729e-03,
       1.45906303e-02, 6.91834884e-03, -5.35293343e-03, -8.06017034e-03,
       -1.93565581e-02, 5.84138045e-03, -1.57989934e-02, 6.91501703e-03,
       -1.66485738e-02, 1.16888527e-02, -6.07260829e-03, -4.30042809e-03,
       -7.34468922e-03, 7.74215348e-03, -8.11755657e-04, 2.31714291e-03,
       3.00180167e-03, 1.91173796e-02, 7.14542717e-03, -3.19732097e-03,
       -1.24679236e-02, -1.95355192e-02, -6.68163225e-03, 1.93153583e-02,
       2.55800434e-03, 4.53493558e-03, 2.73364820e-02, 1.16299596e-02,
       2.08531581e-02, 1.11025665e-02, -6.26743399e-03, 2.34499797e-02,
       2.97849867e-02, 2.37778910e-02, 1.67237855e-02, 2.24470999e-02,
       3.71274934e-03, -4.27289400e-04, 1.19107384e-02, -5.55357244e-03,
       1.59419216e-02, 2.78859064e-02, -2.05755066e-02, -2.69709919e-02,
       -1.17255272e-02, -2.29302025e-03, 1.32655445e-02, -2.71271840e-02,
       -1.94245689e-02, 5.37005663e-02, 2.55188365e-02, -3.32593871e-03,
       -2.95781326e-02, -2.24875137e-02, 1.85308624e-02, 6.16834685e-03,
       -1.99137814e-02, 1.09132961e-03, 3.01968027e-02, -3.60215665e-03,
       1.64392758e-02, 1.63151938e-02, 1.69984773e-02, -2.56044567e-02,
       -8.92674085e-03, 9.40498151e-03, -7.42976600e-03, 5.28489891e-03,
       -3.45876850e-02, 3.80607927e-03, 1.43543107e-03, 2.76213884e-03,
       -1.98781714e-02, 1.84735619e-02, 1.87777802e-02, 1.78442094e-02,
       -2.38606604e-04, 1.59699924e-03, 1.07870623e-02, -1.00863576e-02,
       -6.78908499e-03, -2.41032764e-02, 1.39774475e-02, 7.33764842e-03,
       -1.33275641e-02, -5.88520942e-03, 1.56353030e-03, 4.91301436e-03,
       -9.97025799e-03, 1.22021092e-02, -8.47418793e-03, 1.62156243e-02,
       1.45829804e-02, 1.63279604e-02, -2.65608216e-03, -1.64533090e-02,
       1.12038450e-02, -8.15362763e-03, 4.85992152e-03, -7.81872496e-03,
       2.08688676e-02, 1.55700995e-02, 1.98547449e-02, 6.86396891e-03,
       1.50954966e-02, 7.13457633e-03, 7.91090634e-03, -1.14751579e-02,
       2.33801864e-02, -1.30030289e-02, -8.70487886e-04, 2.05521751e-02,
       2.18901727e-02, 1.20765045e-02, 4.26809257e-03, -1.34343775e-02,
       9.49670747e-03, -2.78910995e-02, 1.15549946e-02, 5.24792727e-03,
       8.33821669e-03, -9.26912017e-03, 3.99295846e-03, 8.44904315e-03,
       -7.60242296e-03, -4.97654593e-03, -1.94779262e-02,
       -1.97353885e-02, 3.41867883e-04, -7.13583967e-03, -2.03101244e-02,
       -3.94841619e-02, 8.28169938e-03, 1.39868557e-02, 7.31950346e-03,
       2.65431553e-02, 1.74606536e-02, 1.02076055e-02, 1.13140242e-02,
       -2.76455209e-02, -3.39309201e-02, 7.92656280e-03, -3.05595472e-02,
       -4.91633974e-02, 1.49358651e-02, -1.54956244e-02, -8.20840895e-03,
       2.71024015e-02, -1.06680840e-02, -7.64859142e-03, 8.66476726e-03,
       9.54851974e-03, 2.73649320e-02, 2.71648518e-03, 2.58295443e-02,
       -1.30126551e-02, -2.91136373e-02, -4.50160205e-02,
       -2.43608345e-04, -1.78506151e-02, -1.40278675e-02,
       -2.18955949e-02, 6.17398322e-03, 3.49879090e-04, -2.89726723e-02,
       -1.29805868e-02, -1.33628193e-02, -1.79258250e-02,
       -9.01030283e-03, -3.61456047e-03, 1.99808981e-02, 1.97888818e-02,
       -1.62908304e-02, -2.04496235e-02, 7.52548268e-03, -1.31944697e-02,
       -2.88588684e-02, 3.06208665e-03, 2.85080206e-02, 7.76463561e-03,
       6.87016780e-03, 1.73878707e-02, -2.51029339e-03, 2.18786225e-02,
       -2.91364715e-02, 1.30424649e-02, -7.77339330e-03, 7.75179500e-03,
       2.74284966e-02, 2.85407826e-02, -1.30400909e-02, -1.09817302e-02,
       1.28564490e-02, 1.45154074e-02, -5.79325203e-03, -3.19150230e-03,
       1.55197214e-02, 1.91204306e-02, 9.76984017e-03, 3.91508415e-02,
       9.26602073e-03, 3.91385965e-02, 1.30695691e-02, -1.90189146e-02,
       1.90286208e-02, 6.58880454e-03, -2.17244010e-02, -9.22738761e-03,
       -2.05651484e-02, -1.70556158e-02, 1.55560765e-02, -1.88804548e-02,
       1.19515611e-02, 1.20504368e-02, 1.89615339e-02, 1.46666551e-02,
       1.83846503e-02, 2.26809084e-02, 6.34014898e-04, 6.94010779e-03,
       -1.11993970e-02, -2.78031789e-02, -7.37796864e-03,
       -1.84251480e-02, -1.00788772e-02, -7.31408922e-03, 1.00102434e-02,
       -1.41929630e-02, 7.49849901e-03, -2.24220250e-02, 9.21980292e-03,
       5.12326928e-03, -1.74998865e-02, 2.40883697e-02, 9.66108590e-03,
       2.34737955e-02, 6.59511564e-03, 1.03548951e-02, -2.21161963e-03,
       -1.91594474e-02, -1.41997132e-02, 6.24066917e-03, -2.52091754e-02,
       -7.03741470e-03, -4.21513058e-03, -2.63571404e-02,
       -2.31955908e-02, -2.76716836e-02, 3.86699028e-02, 7.50863866e-04,
       9.67356842e-03, 8.38312600e-03, -2.19665281e-02, -8.08589160e-03,
       -3.21038775e-02, -1.74413379e-02, 2.54224185e-02, -3.12048965e-03,
       -2.97420397e-02, -5.86918322e-03, -3.56893763e-02,
       -3.63526978e-02, -3.29506882e-02, -4.75860294e-03,
       -2.59971805e-03, 2.05019722e-03, 2.15841774e-02, -1.45400548e-02,
       -1.28265396e-02, 9.07401554e-03, -2.27490403e-02, -2.09412072e-03,
       2.10434711e-03, -3.83379683e-03, 2.51668673e-02, 1.84337404e-02,
       6.48180285e-05, -1.23382984e-02, -1.41762514e-02, 2.83557847e-02,
       -1.25513226e-02, -1.13629587e-02, -4.90044104e-03, 6.83875103e-03,
       1.50615629e-02, -1.25511941e-02, 7.94604712e-04, -3.31605710e-02,
       1.50092132e-02, -3.39128859e-02, -7.50361849e-03, -2.08960343e-02,
       -1.52667263e-03, 1.47537459e-02, -5.30992448e-03, -1.41690699e-02,
       4.88864211e-03, 4.01722779e-03, -6.22341409e-03, 6.87222509e-03,
       9.48972441e-03, 1.62080433e-02, 3.36845219e-02, -2.42177937e-02,
       -2.04489622e-02, -7.23972730e-03, -1.58576109e-02,
       -3.71881947e-02, 4.02226951e-03, -1.53745525e-02, 1.29832858e-02,
       6.09141402e-03, -2.47599427e-02, 7.73477077e-04, -1.31582571e-02,
       -2.67897476e-03, 1.49000390e-02, 2.70793890e-03, -1.00528663e-02,
       2.35483032e-02, -3.28723490e-02, 1.56462509e-02, -5.56716649e-03,
       -3.15258116e-03, -1.57868559e-03, 1.04136858e-02, 1.14091691e-02,
       4.46298299e-03, -2.02947259e-02, 9.84085165e-03, 5.43208234e-03,
       -3.58578027e-03, 1.28773577e-03, -1.33960061e-02, 6.14795042e-03,
       5.31413406e-03, -1.62060780e-03, 7.83067942e-03, -1.35943471e-02,
       1.41332019e-03, -1.61851235e-02, -1.87255815e-02, 1.53528876e-03,
       1.94599456e-03, 1.41426921e-02, 9.56501439e-03, -9.41970665e-03,
       2.57462673e-02, 1.01018010e-03, -7.42348842e-03, 2.41876263e-02,
       3.26406918e-02, 4.05915920e-03, -2.50104666e-02, -1.74150821e-02,
       3.43123414e-02, 5.89450216e-03, 1.88693609e-02, 6.37790700e-03,
       4.71876748e-03, 2.60444395e-02, 1.60661899e-02, -3.23755504e-03,
       1.54135367e-02, 2.38329526e-02, 1.36360554e-02, 7.77592324e-03,
       -3.17195337e-03, -1.12373952e-03, 2.00456828e-02, -6.96904631e-03,
       -2.43253391e-02, -1.84292346e-02, 3.94338928e-03, 1.50287617e-02,
       -3.88909457e-03, -1.03649804e-02, 1.02927685e-02, 6.26790896e-03,
       -5.59480907e-03, -1.66991241e-02, -5.54086361e-03,
       -1.80217959e-02, -1.87967662e-02, 1.13492999e-02, -1.48074888e-02,
       1.11660035e-03, -1.53521160e-02, 1.26338284e-02, 1.11936862e-02,
       3.32722533e-03, -5.43097919e-03, 5.63733140e-03, 1.74375772e-02,
       2.91781267e-03, 5.73782017e-03, -1.52171245e-02, -3.07337497e-04,
       2.54873596e-02, 2.44150348e-02, 1.06670484e-02, -2.17721518e-02,
       8.14053789e-03, -5.65687707e-03, 1.04012769e-02, -2.10162010e-02,
       8.30044446e-04, 1.59836980e-03, 1.04636382e-02, -5.02281077e-03,
       5.47272246e-03, 2.11835988e-02, 1.51188001e-02, 1.57929640e-02,
       -6.60897465e-03, 8.70542321e-03, 2.81598791e-02, 2.34969631e-02,
       1.77856889e-02, -4.79609519e-03, -4.81551653e-03, -9.69993044e-03,
       -5.63258864e-03, -1.04424590e-02, 1.84440389e-02, 1.04676317e-02,
       1.19832046e-02, -1.20722596e-02, 8.59891251e-03, 2.34363005e-02,
       1.33434334e-03, 1.01220030e-02, 3.01264245e-02, -6.26547087e-04,
       2.55476702e-02, 1.26227681e-02, -6.49845647e-03, -2.04750113e-02,
       -7.75134470e-03, 1.61064491e-02, -1.01838703e-03, -1.08583597e-02,
       4.98731900e-03, 1.01267062e-02, 6.46328507e-03, -3.33786383e-02,
       -3.26007456e-02, -4.68315382e-04, -7.59854633e-03, 9.14305542e-03,
       -1.07779410e-02, 6.38281414e-03, 1.84151866e-02, 6.46273885e-03,
       -3.32273692e-02, -1.33630903e-02, 9.99518763e-03, -7.14432308e-03,
       -6.75998209e-03, -4.60398558e-04, -1.59693845e-02, 7.20185740e-03,
       -1.49398176e-02, -1.72323436e-02, -8.29674769e-03,
       -2.25246456e-02, -1.09877978e-02, -4.22395132e-02, 1.93828736e-02,
       -1.27829872e-02, 7.18481606e-03, -1.00279115e-02, -7.49116810e-03,
       2.29886323e-02, -1.10431376e-03, -5.84743870e-03, 4.03890647e-02,
       -3.11262207e-03, 9.35334992e-03, -4.72253095e-03, -7.66548002e-03,
       2.02851985e-02, 4.59829485e-03, -1.34885581e-02, -1.59000028e-02,
       -2.82817963e-03, 1.39792385e-02, 3.74225527e-03, 1.31529905e-02,
       -3.10010687e-02, 2.02796031e-02, 5.62769594e-04, -8.07630457e-03,
       1.14914626e-02, -2.29105502e-02, 2.77440846e-02, -2.87195686e-02,
       1.48520432e-02, 6.76605059e-03, -1.22629444e-03, -2.25882884e-02,
       1.02209738e-02, 7.70804612e-03, -1.82296745e-02, 5.09439642e-03,
       -2.27467436e-02, 1.26926508e-02, 7.50484178e-03, -2.44163908e-02,
       4.48211953e-02, 2.51858160e-02, 2.31557395e-02, 2.89719012e-02,
       3.85604845e-03, 5.18153235e-03, -8.19846406e-04, -2.88640857e-02,
       2.74956599e-02, 3.90594788e-02, 1.28872795e-02, 8.42980854e-03,
       3.13906707e-02, 1.13035468e-02, 3.71148437e-02, 3.18682753e-02,
       2.47164834e-02, 2.62707658e-02, -3.20360065e-02, 8.76727048e-04,
       -8.17723200e-03, -6.54221419e-03, -1.91190559e-02, 8.19104631e-03,
       -2.17328361e-05, -2.79601431e-04, -2.43314505e-02, 2.16687769e-02,
       1.44885052e-02, 1.23817017e-02, 1.70727037e-02, 5.75015135e-03,
       2.22431459e-02, -1.76516026e-02, -2.31853453e-04, 1.74906868e-02,
       -1.92871392e-02, -3.18330666e-03, 8.51515494e-03, 3.22757810e-02,
       -1.67248845e-02, 1.24155907e-02, 1.55385640e-02, -5.43837482e-03,
       -6.67926436e-03, -2.14810427e-02, -1.24167965e-03, 1.45359174e-03,
       2.77575981e-02, 8.47982801e-03, 2.87631601e-02, -1.02231177e-02,
       1.19371219e-02, -1.33217135e-02, -5.45858825e-03, -2.05813814e-02,
       2.69080629e-03, -3.26985866e-02, -1.59559064e-02, -1.52602298e-02,
       -5.76887233e-03, -1.32443979e-02, -1.34074013e-04, 2.21731924e-02,
       -1.79996062e-02, -1.36893569e-03, 1.48724663e-04, 2.32395064e-03,
       7.55183690e-04, -7.91213382e-03, -1.14241941e-02, 2.79174801e-02,
       -3.84281646e-03, -2.69604828e-02, -1.14782685e-02,
       -3.22552919e-02, 1.31453648e-02, -1.79096460e-02, -1.09024765e-02,
       3.92425572e-03, 1.89017470e-03, 4.76158075e-02, -5.35481609e-03,
       -8.72373814e-04, 1.04817403e-02, 7.45677040e-04, 2.64051873e-02,
       2.29015686e-02, -5.29000117e-03, 1.39326015e-02, -4.83253831e-03,
       -2.01469399e-02, -8.37989064e-05, 1.03101786e-02, 4.19895686e-02,
       9.42644849e-03, -1.48484018e-04, -2.12835688e-02, 5.24317101e-03,
       -2.73276959e-03, -1.21018933e-02, -1.01560531e-02,
       -5.67040173e-03, -1.10757665e-03, -1.81949586e-02, 1.23264119e-02,
       -2.63580233e-02, -1.19990529e-02, 1.82556976e-02, 6.11873716e-03,
       1.56848393e-02, -2.38849502e-03, 1.43971536e-02, 1.52464919e-02,
       2.85718590e-03, -9.97628830e-03, 1.38196908e-02, 3.39937508e-02,
       -1.63606778e-02, -3.26330611e-03, 2.75864266e-03, -1.11471657e-02,
       -7.88648799e-03, -1.97606999e-02, -1.11196097e-02, 7.51506165e-03,
       9.88802686e-03, 4.15099878e-03, 6.88634254e-03, 1.45309996e-02,
       -9.90269892e-03, 1.37405156e-03, 8.25962424e-03, -1.93481590e-03,
       -5.68775320e-03, -3.69737409e-02, 1.90067873e-03, -7.51323486e-03,
       1.50333364e-02, -3.18771601e-03, 9.69647616e-03, 2.23060362e-02,
       1.09589472e-02, -3.74222435e-02, 2.16633012e-03, 1.55494958e-02,
       1.09488703e-02, 7.46419281e-03, -3.15935463e-02, 1.34329526e-02,
       -1.73068810e-02, 1.23140626e-02, -1.80268977e-02, -1.04997212e-04,
       2.21622679e-02, -2.01698020e-03, 4.69336472e-03, -2.89646559e-03,
       3.54272057e-03, 1.03009781e-02, 1.26346936e-02, -1.18051749e-02,
       7.76869245e-03, -6.86680852e-03, -1.87336765e-02, -4.29337844e-03,
       2.21784953e-02, 5.92482043e-03, -1.81429703e-02, -2.45689414e-02,
       7.49933720e-03, 3.08545004e-03, 1.51438208e-03, 3.18998098e-03,
       1.77399293e-02, 2.31555328e-02, 1.58752985e-02, -6.43881690e-03,
       1.46213127e-03, -2.46230210e-03, -2.38535479e-02, -1.10865338e-02,
       -2.66445093e-02, -5.34050260e-03, 6.92058215e-03, -2.88732263e-04,
       -2.79993843e-02, -1.30917635e-02, -8.12110491e-03,
       -1.90226492e-02, 9.67084710e-03, 1.42596643e-02, 1.57167017e-02,
       1.30404420e-02, 2.29886919e-02, -1.71910063e-03, 1.73252989e-02,
       -1.41832530e-02, -3.00614000e-03, 1.12704234e-02, -2.28579044e-02,
       8.47701728e-03, -4.02566567e-02, -1.08768968e-02, -8.69161822e-03,
       1.00618713e-02, -2.15716977e-02, 1.95762906e-02, 2.68500429e-02,
       1.19868992e-02, 8.95867473e-04, -2.29362398e-02, 3.12308874e-03,
       1.27927801e-02, 3.37691195e-02, 7.70926103e-03, -1.04987966e-02,
       1.67025607e-02, -2.62363232e-03, 2.40546744e-03, -2.85384245e-02,
       8.99291318e-03, -6.04364742e-03, 2.10820716e-02, -1.53997159e-02,
       1.01528922e-02, 2.22768709e-02, -1.98325384e-02, -1.14998845e-02,
       -2.52658334e-02, -1.33078801e-03, 1.06521156e-02, 3.61541100e-02,
       1.00003844e-02, -1.14573790e-02, 1.62559785e-02, 1.50348498e-02,
       7.79689476e-03, -6.69156481e-03, -1.26403884e-03, 9.63332318e-03,
       1.14840670e-02, -2.88897492e-02, 1.08073640e-03, 2.04475485e-02,
       -1.31817989e-03, 4.85512149e-03, 3.99694731e-03, 5.70077356e-03,
       1.49858836e-02, 1.97512228e-02, -1.38973650e-02, -1.32750242e-03,
       -4.78753282e-05, -8.83218180e-03, 1.24216797e-02, 9.33055952e-03,
       2.70048957e-02, 4.84794844e-03, 3.92493904e-02, -1.06409881e-02,
       -1.28930369e-02, 7.95753382e-04, -1.19331316e-03, 2.46838089e-02,
       1.39562720e-02, 2.01001726e-02, -7.04658777e-03, 1.17462911e-02,
       -2.31249556e-02, 7.60097662e-03, 9.16198362e-03, -1.61727499e-02,
       -6.80276705e-03, 1.76414493e-02, 5.37446793e-03, 8.20196979e-03,
       -3.39115458e-03, 1.41536898e-03, -4.68190666e-03, -1.85129438e-02,
       -4.89238463e-03, -1.22899283e-02, 3.87998670e-02, -1.74666860e-03,
       -5.73249068e-03, -3.41154747e-02, -3.69565701e-03, 2.93043237e-02,
       1.89527627e-02, 1.69158708e-02, 1.72539912e-02, 2.39557344e-02,
       1.35661187e-02, 1.96316224e-02, 1.73644312e-02, 1.44377248e-02,
       2.36855391e-02, 5.86261833e-03, 6.94830809e-03, 1.19093228e-02,
       1.42497839e-02, -1.63941830e-02, -1.83284953e-02, -2.77565233e-02,
       -2.19491281e-04, 4.54186536e-02, -7.12804450e-03, 1.17762024e-02,
       -2.50164885e-03, 2.66842581e-02, 3.23957019e-03, -9.74876899e-03,
       -1.45936348e-02, 4.79038581e-02, -2.56792139e-02, -2.84060687e-02,
       -1.26030622e-02, -3.37071829e-02, -7.19707692e-03,
       -7.12842261e-03, -9.62163042e-03, 1.49823576e-02, -9.87776928e-03,
       1.04363501e-01, 2.68573929e-02, 3.13046612e-02, 3.02954838e-02,
       1.06509803e-02, 1.45280799e-02, 6.97676418e-03, -1.76785432e-03,
       1.02981150e-01, -9.62077174e-04, 1.89474341e-03, 4.61903634e-03,
       9.26798675e-03, -2.30941791e-02, 1.79840103e-02, 6.01367559e-03,
       -1.10761402e-03, 1.99716166e-02, -1.61839221e-02, 5.88466460e-03,
       2.44945791e-02, 3.40983341e-03, -2.15695500e-02, -1.39666740e-02,
       5.50554087e-03, 1.21056056e-03, -3.74659291e-03, -9.30359773e-03,
       1.39095532e-02, 7.21262442e-03, -5.32731926e-03, 2.97308005e-02,
       -2.30036750e-02, -2.38424167e-03, -1.07145803e-04,
       -3.71026201e-03, -5.33374678e-03, 3.35822371e-03, 2.51489058e-02,
       2.45174803e-02, -2.94666439e-02, 7.37381121e-03, -2.02028863e-02,
       -1.11339325e-02, 3.98605643e-03, -1.99685246e-02, 1.43221598e-02,
       2.02508718e-02, -7.38613028e-03, 3.26352799e-03, 7.18896976e-03,
       2.66134553e-02, 3.67335370e-03, -2.32809652e-02, -9.48812813e-03,
       5.76278614e-03, -4.04306035e-03, -2.59107240e-02, 2.10913178e-02,
       -2.43758485e-02, -1.61822848e-02, -5.65574644e-03,
       -1.44576440e-02, 3.01092844e-02, -1.17985327e-02, -1.36098266e-02,
       -1.24833100e-02, 1.83496047e-02, 5.80630824e-03, -3.81500431e-04,
       5.44785944e-05, 1.70373023e-02, 2.37454232e-02, -1.17010465e-02,
       2.49241269e-03, -4.26917747e-02, -1.25378789e-03, -1.69124566e-02,
       1.59290899e-02, -8.39080662e-03, 6.02622423e-03, 3.01731694e-02,
       -7.14263180e-03, -7.07720872e-03, 4.90486016e-03, -5.40271727e-03,
       1.08539847e-04, -1.22059006e-02, -1.71161983e-02, 1.69708543e-02,
       -6.88422285e-03, -7.58009311e-03, 3.67852789e-03, -2.14521978e-02,
       2.90510710e-02, 7.01441080e-04, 7.63830543e-03, -1.16273295e-03,
       5.28886868e-03, 9.64763295e-03, -1.18724601e-02, -1.54720508e-02,
       2.10160459e-03, 2.76823482e-03, -4.62656980e-03, 4.77797585e-03,
       3.81775154e-03, 2.62142462e-03, 8.43838882e-03, -3.46646411e-04,
       1.80316698e-02, -6.19970961e-03, 1.23474589e-02, 2.85637937e-03,
       -2.28121481e-03, -1.79895889e-02, 9.75847151e-03, 3.70755158e-02,
       -1.06466925e-02, 8.29454791e-03, -6.17606007e-03, 1.06120370e-02,
       -8.32228363e-03, -7.53552793e-03, -9.93786007e-03, 2.21504215e-02,
       3.04071873e-05, 1.36049275e-04, -2.14238418e-03, -2.18867790e-03,
       -1.47890300e-02, -9.66284238e-03, -2.85568472e-04, 8.80737149e-04,
       1.00850398e-02, -3.04183085e-02, -1.35260308e-03, -3.80363315e-03,
       -1.39098335e-02, -5.66443615e-03, -5.27719688e-03,
       -7.07004080e-03, 2.10021641e-02, -3.14226896e-02, 1.74924284e-02,
       -1.39808031e-02, 1.13091292e-02, 1.98753867e-02, 1.56208109e-02,
       -8.78841430e-03, -6.83395984e-03, 4.45394265e-03, 4.17417893e-03,
       -8.02999549e-03, -1.17758997e-02, 1.76804028e-02, 1.39431667e-03,
       -1.16523858e-02, 2.79422407e-03, 7.53537845e-03, 2.90165991e-02,
       -3.05390079e-03, -1.00785410e-02, -8.82777022e-05,
       -1.12380441e-02, -1.45672718e-02, 2.46360507e-02, 4.45901556e-03,
       -2.17195824e-02, -1.40514784e-02, -1.56074371e-02,
       -3.46862040e-02, 8.63612629e-03, 3.58471507e-03, -2.21297517e-03,
       1.49694392e-02, 2.70501524e-02, 6.31207088e-03, -1.42891571e-04,
       -2.48254146e-02, -5.62397717e-03, -2.35266797e-02,
       -1.34956399e-02, -1.52370203e-02, 2.57345065e-02, 4.06816462e-03,
       -6.84559112e-03, -1.42234592e-02, -2.50290632e-02,
       -2.88693365e-02, 3.20707168e-03, -4.40025795e-03, 3.77272518e-04,
       1.24500238e-03, 1.05891610e-02, -5.01052535e-04, 1.44256121e-02,
       -2.95133907e-02, -2.88755558e-02, 6.48220303e-03, -1.11487629e-02,
       9.08651855e-04, -1.59040540e-02, 5.59969805e-03, -1.34164821e-02,
       1.27709126e-02, -1.88080259e-02, -1.02858990e-03, 1.32778790e-02,
       -1.84542853e-02, -6.37650630e-03, -2.91802734e-02,
       -2.91083171e-03, -9.62866656e-03, 2.67703664e-02, 8.69859383e-03,
       -1.14302943e-02, -4.83816676e-03, -2.53423080e-02,
       -1.18285883e-02, -2.54162564e-03, -9.05171596e-03,
       -1.65128950e-02, 1.77001469e-02, -8.79768375e-03, 1.54488701e-02,
       2.04233471e-02, 8.44976678e-03, -4.64341324e-03, -1.40166096e-02,
       -6.53850241e-03, -2.40021907e-02, 1.66220292e-02, 2.52829436e-02,
       -7.46916607e-03, 6.50483323e-03, -3.11153848e-03, 8.25889502e-03,
       2.82014739e-02, 2.01890748e-02, -1.53051661e-02, 1.44580584e-02,
       -4.35205363e-03, -3.08238026e-02, 5.12969960e-03, -7.28924153e-03,
       -9.44214500e-03, 2.44382080e-02, 6.49291929e-03, -1.34380842e-02,
       5.55349747e-03, -2.65552383e-02, 1.54790573e-03, 3.78076583e-02,
       2.26999167e-02, 2.45508924e-02, 1.10184150e-02, 1.82859637e-02,
       -1.44574512e-03, 1.08382199e-02, -2.06474820e-03, -3.00342217e-03,
       6.70155790e-03, 2.84056598e-03, 1.25720175e-02, -1.26104541e-02,
       -5.06554265e-03, -8.49751197e-03, 1.20390803e-02, -1.70342140e-02,
       -3.28499940e-03, 2.62994622e-03, -2.73369509e-03, 2.08783138e-04,
       2.67065987e-02, -7.73221208e-03, 2.37414967e-02, 1.77444592e-02,
       3.16050882e-03, 2.08704416e-02, -9.35483724e-03, -1.70774534e-02,
       -3.27727459e-02, 1.47396242e-02, -2.23837215e-02, 1.53387021e-02,
       3.43096536e-03, 9.26129520e-03, 1.83530431e-02, 7.13634118e-03,
       1.82433780e-02, 5.09110885e-03, -4.02992172e-03, 8.87744408e-03,
       2.70967167e-02, 2.55140010e-02, 1.30881863e-02, 3.52977365e-02,
       -1.28129786e-02, 4.16242285e-03, -1.35768624e-02, 1.32710440e-02,
       -2.28923708e-02, 4.85417340e-03, 1.01764696e-02, 2.80581322e-02,
       3.01679019e-02, 1.06441174e-02, 2.25550868e-03, -1.43985562e-02,
       2.43484136e-02, -9.58884135e-04, 2.56894156e-02, 6.26501348e-03,
       3.05992253e-02, -3.02217267e-02, -4.16379143e-03, 7.13605527e-03,
       -1.45654324e-02, -6.33128965e-03, -7.74109620e-04, 1.21294372e-02,
       -1.43981073e-02, -3.27903628e-02, 4.87435237e-02, -8.79183598e-03,
       6.58968976e-03, 2.97548366e-03, 1.71188591e-03, -1.96456797e-02,
       -5.62834134e-03, -4.54994291e-03, 3.29339281e-02, -4.23097191e-03,
       1.17787230e-03, 6.24788832e-03, -7.96351116e-03, -1.59997270e-02,
       -1.03942212e-02, -1.72806112e-03, -1.35002751e-02,
       -6.60381094e-03, -1.99355949e-02, -3.50384926e-03, 8.50935653e-03,
       8.10044073e-03, -2.44398005e-02, 2.51517929e-02, -1.26869911e-02,
       -1.94789283e-02, -6.28938840e-04, -1.44667551e-02, 1.67459343e-02,
       7.36515829e-03, -2.16820650e-02, -1.23353628e-02, 9.71003622e-03,
       1.29569331e-02, -3.88438394e-03, -1.71113759e-02, -1.72730964e-02,
       -8.23486131e-03, -1.23157669e-02, 1.29997227e-02, -1.83731169e-02,
       1.72514468e-02, -5.07609686e-03, -9.85414721e-03, 4.14576614e-04,
       -1.32205402e-02, -7.26006646e-03, -5.07190358e-03, 5.07074827e-03,
       -3.69806378e-03, 9.06914193e-03, -8.25874880e-03, 4.82264627e-03,
       -2.80058514e-02, 5.79917990e-03, 2.73684599e-03, 2.05552541e-02,
       -2.93875933e-02, -9.66744870e-03, -2.97762826e-02, 4.32551466e-03,
       -5.59189264e-03, -8.62505008e-03, 2.38790233e-02, -1.83064174e-02,
       1.20310858e-02, 1.15228696e-02, -2.38360092e-03, -6.72633061e-04,
       -5.36434958e-03, -2.60019558e-03, 4.02264893e-02, 1.99157465e-02,
       -4.98078903e-03, 2.50651664e-03, -2.49170437e-02, 8.24047159e-03,
       -2.92514525e-02, 1.78834945e-02, 2.39645736e-03, -4.71352425e-04,
       1.60636120e-02, -2.46558357e-02, -1.13184787e-02, -9.51237045e-03,
       3.26642022e-03, 9.84805822e-03, -9.57299583e-03, -5.04639931e-03,
       1.29913585e-02, -1.41092176e-02, -1.54469963e-02, 1.77014712e-02,
       -1.28804967e-02, 2.32097935e-02, -1.30036604e-02, -2.41577532e-03,
       -1.57241188e-02, 1.62874684e-02, 7.33083906e-03, -7.93788489e-03,
       7.55563285e-03, -8.44232552e-03, 1.26043456e-02, -1.25074415e-02,
       2.19908403e-03, -1.26257055e-02, -4.35672374e-03, 1.32973725e-02,
       -1.00088194e-02, -1.73416047e-03, -1.10459486e-02, 2.71514128e-03,
       -1.81077179e-02, -2.51331367e-03, -2.36526760e-03, 1.90631002e-02,
       3.03584654e-02, -1.53080104e-02, -1.21170850e-02, -1.39441295e-02,
       6.25029160e-03, -2.30340417e-02, 9.78585239e-03, -7.73448730e-03,
       1.24438340e-02, 1.33379465e-02, -3.94386658e-03, 5.05354023e-03,
       4.26456239e-03, 8.34095292e-03, -1.13829151e-02, 5.74940443e-03,
       6.10278966e-03, -5.02890302e-03, -1.55822318e-02, 2.29696501e-02,
       9.86429863e-03, 7.22790183e-03, -7.31182937e-03, -1.95682951e-04,
       2.13137474e-02, 1.98634062e-02, -1.66768692e-02, 4.66882205e-03,
       1.77290849e-02, 2.24626120e-02, -7.82644469e-03, 1.40528949e-02,
       2.83690486e-02, 1.34399207e-02, -1.55938370e-03, -3.42444074e-03,
       7.78438197e-03, 1.94112398e-02, -5.09664509e-03, -5.34896553e-03,
       3.61121562e-03, -5.49580622e-03, 3.23583209e-03, -4.52263141e-03,
       6.07340457e-03, -4.72781807e-03, -3.20683233e-02, -2.79277028e-03,
       -3.37926373e-02, 5.28879464e-02, -1.74323213e-03, -6.91004610e-03,
       -1.29745891e-02, -1.41827818e-02, -7.88500067e-03, 2.07236893e-02,
       2.51105870e-03, 5.65215945e-03, 1.50863603e-02, 1.73357204e-02,
       -1.84624009e-02, 2.49546790e-03, -1.99204348e-02, -7.16412999e-03,
       -2.52835322e-02, -8.91337264e-03, -2.61660479e-02, 7.50955287e-03,
       2.75590527e-03, -1.84402503e-02, -1.75129455e-02, -2.34795101e-02,
       4.03550500e-03, 6.08913740e-03, 1.47391269e-02, 1.27442358e-02,
       1.22250626e-02, 4.11937460e-02, 1.23968571e-02, -2.67013384e-04,
       -6.14568358e-03, -1.30050490e-02, -5.20563743e-04,
       -9.19294730e-03, -1.45114185e-02, -1.10117514e-02,
       -1.54914036e-02, -1.44085214e-02, 9.06964857e-03, -1.58198513e-02,
       9.45938565e-03, 2.43455842e-02, 1.02016777e-02, -1.62727498e-02,
       -3.25973369e-02, -8.93987250e-03, -1.24986307e-03, 3.43345143e-02,
       5.32683171e-03, -4.87807021e-03, -5.08171623e-04, -1.07452357e-02,
       3.25896684e-03, -3.04087084e-02, -1.10122841e-02, -2.21119518e-03,
       3.96376662e-03, 4.06047935e-03, 1.88575238e-02, 1.91636551e-02,
       -1.26815261e-02, -1.33913085e-02, -2.62136273e-02,
       -9.17038694e-03, -4.22767084e-03, 2.57205199e-02, 2.60400996e-02,
       -2.54788361e-02, 1.16054518e-02, 3.12122423e-03, 1.54892262e-02,
       -5.13207074e-03, -1.33565394e-02, -4.70622355e-04, 2.00698134e-02,
       -1.73614286e-02, -5.61936200e-03, 1.03709595e-02, -1.68135762e-02,
       5.14492765e-03, 4.86466149e-03, -1.85692240e-03, -1.67196710e-02,
       8.96025449e-03, -2.44449768e-02, 1.43461360e-03, 3.58005501e-02,
       1.32232932e-02, 2.07476597e-02, 1.79660600e-02, 2.64297961e-03,
       5.25568705e-03, 1.83673929e-02, -1.48681253e-02, -1.51701747e-02,
       1.20815830e-02, 1.66757889e-02, 9.84718464e-03, -9.31250956e-03,
       2.70449854e-02, 1.87008791e-02, 1.01575414e-02, -1.72280446e-02,
       1.69357955e-02, 1.66068450e-02, 8.90328083e-03, 1.81257706e-02,
       2.68262755e-02, 3.07595041e-02, 2.96139419e-02, 3.83418314e-02,
       9.24335048e-03, 1.36731863e-02, -1.20555926e-02, 9.16876737e-03,
       -1.73012982e-03, 3.71811911e-02, -2.28732154e-02, -6.48943614e-03,
       -1.57049373e-02, 9.06492583e-03, 6.77248929e-03, 1.43839009e-02,
       9.60994326e-03, -4.08044830e-03, 6.98233256e-03, -4.39559668e-03,
       2.05466002e-02, 1.43094631e-02, -1.73316151e-03, 3.95366643e-03,
       2.15883204e-03, 1.15702720e-02, -1.75178908e-02, -3.64708318e-03,
       -3.90895456e-02, -5.07026864e-03, -1.22481827e-02,
       -9.10295453e-03, 3.80997024e-02, -1.77976850e-03, 3.24930507e-03,
       1.87964439e-02, 1.69353727e-02, 2.58315518e-03, 1.79701038e-02,
       -5.67454612e-03, 1.98015627e-02, -2.04781233e-03, -4.11491189e-03,
       2.60555302e-03, 3.58919404e-03, 2.69175880e-02, -1.20594362e-02,
       2.26431508e-02, -6.77940808e-03, -1.88541785e-02, 4.01320774e-03,
       -6.08057296e-03, -3.81254847e-03, -1.07793584e-02, 1.54789323e-02,
       -2.22172285e-03, 1.34231821e-02, -1.43543014e-03, 1.95833333e-02,
       -8.14051554e-03, -3.91747663e-03, -2.07303744e-03,
       -2.29271706e-02, 1.58807281e-02, -2.84216963e-02, -1.03142895e-02,
       -9.87345818e-03, 8.72831035e-04, -2.73507368e-02, -1.69533677e-02,
       -4.58807731e-03, 8.43198597e-03, -1.95167325e-02, 2.09083632e-02,
       7.08580343e-03, -3.35077231e-04, -3.01302038e-02, -2.76534166e-03,
       -6.08157599e-03, -2.48306897e-04, 8.89301207e-03, -2.00189860e-03,
       8.61979462e-03, 2.24903779e-04, -1.25495670e-03, -3.44710648e-02,
       -3.03806234e-02, -7.17418315e-03, 7.90516939e-03, 6.14154339e-03,
       -2.18771268e-02, 1.36660580e-02, -1.54118352e-02, -1.57492384e-02,
       -3.11068390e-02, -8.44504870e-03, -1.53014129e-02, 4.58607916e-03,
       4.49815905e-03, -1.53557146e-02, 1.76337734e-02, 1.70659774e-03,
       1.55402962e-02, -2.41415668e-02, 1.67918522e-02, -1.43325524e-02,
       -1.99712440e-02, -1.37692867e-02, -5.71203046e-03,
       -3.69464420e-02, 7.04037072e-03, -1.04379002e-02, -9.39536188e-03,
       4.55194227e-02, -2.30762569e-04, -1.42863309e-02, -2.62412732e-03,
       3.04177147e-03, 1.78070497e-02, -4.35910188e-03, -9.50287562e-03,
       3.17181498e-02, 3.14235464e-02, -6.22817269e-03, -1.80055927e-02,
       -3.20066400e-02, -3.89476418e-02, -2.27849875e-02,
       -6.12802571e-03, 5.33493003e-03, 1.37529289e-02, 1.48923891e-02,
       -1.64614059e-02, -1.15024466e-02, 6.77709281e-03, -2.09807027e-02,
       -1.57254841e-03, 8.87200981e-03, -2.09124037e-03, 1.10320877e-02,
       9.97730996e-03, -1.27539772e-03, -7.95633253e-03, 3.02144937e-04,
       1.65583827e-02, 1.04659609e-02, -4.81986161e-03, -3.69548728e-03,
       3.21113644e-03, 6.40348159e-03, -6.99605793e-03, -2.40366980e-02,
       -2.11005900e-02, 3.53170838e-03, 6.81321661e-04, 3.44202388e-04,
       -5.58272423e-03, 6.24266919e-03, 1.88577280e-03, 7.11354846e-03,
       1.66426767e-02, 9.82131809e-03, 4.95578116e-03, 8.93306918e-03,
       -9.29433201e-03, 2.45800684e-03, 4.35255002e-03, 2.96958312e-02,
       -4.47661430e-03, -6.44688169e-03, -2.60711424e-02,
       -2.26740967e-02, -1.94921978e-02, -2.46045366e-02,
       -3.43137211e-03, 2.66832840e-02, 1.60286408e-02, 5.83893899e-03,
       1.19049801e-02, 1.11711556e-02, 1.35057978e-02, 2.41803546e-02,
       -1.46928467e-02, -9.10538598e-04, 1.62401516e-02, -2.75325254e-02,
       8.53877864e-04, -8.61717295e-03, 4.79644805e-04, 7.14824395e-03,
       1.43856602e-02, 4.29133652e-03, 8.13687872e-03, -1.59409791e-02,
       1.01911575e-02, -5.70019195e-03, -1.14090489e-02, 7.19602220e-03,
       -2.45414525e-02, -1.65569801e-02, -1.11710560e-02, 8.93894641e-04,
       1.22307902e-02, -1.14567727e-02, -7.00321607e-03, -1.57356933e-02,
       -1.29352103e-03, -9.20687860e-04, -3.36839608e-03, 9.04307980e-03,
       1.38847223e-02, -1.47499237e-02, 2.22268351e-03, -1.56326424e-02,
       -4.63906862e-03, -1.00083929e-02, 2.33740248e-02, 1.26428180e-03,
       4.89008985e-03, 5.55175729e-03, -1.42486971e-02, -4.62309970e-03,
       -4.79660928e-03, 1.15346862e-02, 1.18422145e-02, 2.92409528e-02,
       2.50557531e-02, -1.35588855e-03, 7.32267648e-03, -1.04904575e-02,
       1.12442058e-02, -2.85384133e-02, -1.61659438e-02, -4.59598750e-03,
       1.22045819e-02, 1.89265404e-02, 1.22139771e-02, 7.41174794e-04,
       8.61777551e-03, -4.93038155e-04, -7.70034036e-03, -7.18669174e-03,
       1.13115152e-02, -1.83515213e-02, 2.17661243e-02, 2.35975138e-03,
       -1.45146558e-02, -1.23221818e-02, -2.29173657e-02,
       -1.20492307e-02, 3.33155971e-03, 8.49022344e-03, -3.61271985e-02,
       -2.23649479e-02, -1.26246251e-02, 2.08058469e-02, -9.63308755e-03,
       7.87644926e-03, 2.87631210e-02, 9.18896589e-03, 1.17506795e-02,
       -3.87666672e-02, -1.16350241e-02, -1.93231571e-02, 2.20852941e-02,
       1.73733626e-02, -2.98359431e-02, -5.14679542e-03, 3.15318536e-03,
       1.33764083e-02, -2.72207595e-02, -5.23797981e-03, -1.13463048e-02,
       -1.18350994e-03, -1.60889439e-02, 8.01862311e-03, 1.70406532e-02,
       -1.15602054e-02, 2.55397409e-02, -1.38279367e-02, 1.02108270e-02,
       -1.01075992e-02, 2.00202819e-02, 1.52747100e-02, -1.69249829e-02,
       1.68687087e-02, -3.80001054e-03, 1.51017671e-02, -1.68525167e-02,
       -6.01491099e-03, 6.45316299e-03, 2.20773444e-02, -8.03681277e-03,
       -4.89010625e-02, -1.34851672e-02, -3.53840442e-04, 1.37709652e-03,
       -2.31349166e-03, -3.94329336e-03, 2.13081110e-02, -8.74913391e-03,
       -3.85840945e-02, -2.21050042e-03, 1.10406987e-02, -4.72347107e-04,
       4.16574478e-02, -9.19374215e-05, 1.99504346e-02, 7.18287891e-03,
       2.10113041e-02, 8.26925598e-03, -4.16484429e-03, 9.35725495e-03,
       5.28125511e-03, 2.99724545e-02, 1.85495000e-02, -2.02953517e-02,
       -1.51116680e-02, -2.46535242e-02, -1.38358837e-02, 1.69637967e-02,
       6.30051922e-03, 1.01132486e-02, 5.60984481e-03, 2.65856721e-02,
       3.46744284e-02, 2.64423788e-02, 1.98434442e-02, 3.09231356e-02,
       -1.02383997e-02, -2.40016188e-02, -1.05405850e-02,
       -1.02097131e-02, 3.26415487e-02, -2.73545757e-02, -9.13239270e-03,
       -1.12325419e-02, 6.13835268e-03, 1.56458355e-02, 2.35337950e-02,
       1.84934773e-02, -1.62563305e-02, -4.93697869e-03, -8.74777976e-03,
       -1.59636475e-02, 2.32215505e-03, 3.44581529e-03, -1.36391250e-02,
       -1.48179987e-02, 2.08016601e-03, -4.13488708e-02, 3.68086621e-02,
       -3.38736326e-02, -3.46783176e-02, -1.35618402e-02,
       -3.71015840e-03, 1.11604268e-02, -8.10313597e-03, -6.76006591e-03,
       5.92670694e-04, 3.31664048e-02, 1.12930443e-02, 1.01406197e-03,
       6.24042796e-03, 4.72641364e-02, 1.93419848e-02, 6.11957349e-03,
       -1.50412158e-03, 1.58350021e-02, 5.07382303e-02, 1.90675482e-02,
       -1.68315228e-02, -1.51992252e-03, 2.55347230e-02, 2.14731842e-02,
       -7.05840671e-03, -1.64998285e-02, -4.23859879e-02, 2.66893953e-03,
       -8.64576921e-03, 2.04902445e-03, 1.06383360e-03, 3.90469022e-02,
       -6.41832035e-03, 1.06323035e-02, -3.96367954e-03, -1.96174718e-02,
       -2.30908254e-03, -6.28260802e-03, 1.89568829e-02, 1.53394500e-02,
       -1.69329606e-02, -3.28057595e-02, -1.25812916e-02, 8.88160057e-03,
       2.43845172e-02, -2.30528880e-02, 3.77248460e-03, -1.41081540e-02,
       -1.80053152e-02, -3.65054458e-02, 1.16036339e-02, 2.61632842e-03,
       3.63272689e-02, 1.32939704e-02, -3.07365283e-02, 1.18584130e-02,
       -4.91277082e-03, 1.54380305e-02, 1.39582120e-02, -3.34195904e-02,
       -1.33436462e-02, 1.02410829e-02, 8.49835202e-03, -2.11420283e-02,
       -1.79412346e-02, -1.78426076e-02, -7.28851743e-03,
       -4.09797430e-02, -2.11085100e-03, -1.44475410e-02, 7.36704376e-03,
       1.48134865e-02, -1.49142025e-02, 1.47016263e-02, 2.15463992e-03,
       1.56136900e-02, -3.42980167e-03, 7.93308858e-03, 1.23248305e-02,
       1.75336283e-02, -2.62487978e-02, -4.07164358e-02, -8.54433328e-03,
       -1.05955545e-02, -3.60182277e-03, 6.61053322e-03, 1.21974275e-02,
       -5.79251302e-03, -1.17114898e-04, 3.49309705e-02, -6.52449019e-03,
       -8.31904821e-03, -9.26917978e-03, -1.16521874e-02, 1.56105869e-02,
       -1.96698532e-02, -1.42221199e-02, -4.92238393e-03,
       -1.38322301e-02, -1.44091584e-02, -2.09149998e-02,
       -1.69441185e-03, -6.60356483e-04, -1.03778681e-02, 7.60638481e-03,
       -1.67445466e-02, -8.98138434e-03, 4.09916975e-03, -1.46481991e-02,
       -1.34925926e-02, 8.61783419e-03, -7.34094298e-03, 1.94508936e-02,
       -3.81146139e-03, -3.67894233e-03, 2.27627382e-02, 3.11642099e-04,
       2.52487846e-02, -1.22345816e-02, -4.59331134e-03, -2.85848114e-03,
       -9.82737355e-03, 1.25652063e-03, -6.77779317e-03, 6.62091840e-03,
       -1.31916180e-02, 6.87732967e-03, -1.09859463e-02, -7.52747245e-03,
       1.25318458e-02, 1.06740370e-02, 1.40604544e-02, -5.20318374e-03,
       1.48397135e-02, -4.02757013e-03, 1.97303314e-02, 6.22436265e-03,
       1.07679470e-02, 7.03892857e-03, 2.68995203e-02, 1.98297333e-02,
       -2.12129802e-02, -7.42537575e-03, -9.46668442e-03, 1.52296769e-02,
       -2.32747011e-02, -5.82697289e-03, -7.70034781e-03, 9.97001585e-03,
       4.02931328e-04, -7.56679149e-03, -2.50963308e-03, -5.19467797e-03,
       6.82200212e-03, -9.95896477e-03, -4.11802484e-03, 1.55647448e-03,
       -4.66046343e-03, -2.82389708e-02, 8.74571130e-03, 8.61418061e-03,
       -1.12817958e-02, 1.52429566e-03, -1.16645675e-02, 1.61498953e-02,
       1.17076244e-02, -3.93156037e-02, -9.98672750e-03, 2.96389591e-03,
       -4.30972269e-03, 7.82990456e-03, 7.35273398e-03, 3.37248435e-03,
       -3.78528307e-03, -3.50859412e-03, -1.15383733e-02,
       -2.64835358e-02, 4.84162662e-03, -7.82044046e-03, -6.90910406e-03,
       1.37459738e-02, -1.55837135e-03, -1.02111744e-02, 1.07532311e-02,
       -1.47868022e-02, 6.42619887e-03, -1.12374583e-02, -1.04409298e-02,
       3.64835840e-03, 1.41874021e-02, -1.26069216e-02, 9.55273048e-04,
       3.46265151e-03, 4.48702276e-03, 6.69776322e-03, 1.21824006e-02,
       -1.26075954e-03, 7.42133893e-03, 2.57594977e-03, 1.12331482e-02,
       6.39487617e-03, -1.48885828e-02, -2.83800205e-03, -1.05224326e-02,
       -1.32338721e-02, -3.77899664e-03, -1.48020941e-03, 1.46178485e-04,
       -1.05357319e-02, 1.65551361e-02, -1.72129627e-02, -1.02346260e-02,
       -1.88400934e-03, 1.74609497e-02, -3.95680312e-03, 1.33829135e-02,
       -1.60194915e-02, -7.47539889e-05, -1.79403974e-03,
       -2.19046115e-03, -1.03173004e-02, -1.31874923e-02, 1.07208388e-02,
       -1.50359608e-03, -9.02184052e-04, -7.25542428e-03,
       -1.81961302e-02, 4.89179138e-03, -5.12941182e-03, -4.97534685e-03,
       9.53713432e-03, 3.40765826e-02, 2.26024799e-02, 2.15954296e-02,
       -2.27931654e-03, 6.41069515e-03, -5.66072948e-03, -5.47450176e-03,
       1.48743857e-02, -1.73089430e-02, 1.72595866e-02, -1.29197380e-02,
       -5.51144732e-03, -2.43282691e-02, -5.32656501e-04, 1.75450835e-02,
       -2.70361709e-03, -7.75264250e-03, 2.83111032e-04, 3.58503126e-02,
       9.88761056e-03, 2.48101037e-02, 7.22643640e-03, 1.15288207e-02,
       3.82411969e-03, 7.85106048e-03, 1.23844650e-02, -2.36548763e-02,
       1.10671856e-02, 1.53863616e-02, 2.16566473e-02, -1.35752875e-02,
       2.22356543e-02, 1.53910890e-02, 1.50942849e-02, 2.13762349e-03,
       -2.59367041e-02, -1.14478553e-02, -1.09701389e-02, 1.79245733e-02,
       2.12752670e-02, 1.25880167e-02, -3.02302116e-03, 7.10755913e-03,
       -1.76824033e-02, -1.35658327e-02, 1.50465406e-02, 2.22248286e-02,
       -2.62305746e-03, -1.76599398e-02, 2.09154412e-02, 6.47837669e-03,
       5.09873545e-03, -9.03800596e-03, -1.95922703e-02, -1.18056787e-02,
       -5.77082101e-05, 4.67866706e-03, 1.01074278e-02, 1.41972089e-02,
       -1.12994090e-02, -5.33487648e-04, -8.45771469e-03, 2.85058538e-03,
       6.77680504e-03, -2.10579205e-03, 7.20036030e-03, -7.92355509e-04,
       2.34582238e-02, 1.94812883e-02, 1.99909359e-02, -4.23746742e-03,
       -2.64893919e-02, 6.33170968e-03, 6.19347719e-03, -2.87439898e-02,
       2.98761521e-02, -1.10732950e-02, 9.64058563e-03, 3.86339583e-04,
       -2.80660577e-03, 3.79478261e-02, 3.45038809e-02, 4.28182445e-03,
       8.14436283e-03, -9.09508578e-03, 2.63184067e-02, 2.58042905e-02,
       3.55191343e-02, 1.10071292e-02, -5.83590055e-03, 1.11218086e-02,
       7.12006213e-03, -2.06680056e-02, 1.30698746e-02, -3.70265804e-02,
       3.95218236e-03, -1.35147609e-02, -2.85269618e-02, 2.32926607e-02,
       1.85708255e-02, 8.92767159e-04, -1.05580231e-02, 2.35759504e-02,
       1.34086218e-02, 1.94877181e-02, 1.22701442e-02, 3.37109691e-03,
       -2.48901397e-02, 4.84616216e-03, 1.73965394e-02, 1.03376079e-02,
       2.25762650e-03, 2.25095004e-02, 2.87672151e-02, 1.59559157e-02,
       -3.01616620e-02, 5.27377874e-02, 5.40734008e-02, 1.25554502e-02,
       -1.54670132e-02, 1.30038837e-03, -1.62622873e-02, 1.74557953e-03,
       1.41831359e-03, 2.44373996e-02, -9.35532246e-03, -1.60395086e-03,
       2.05660183e-02, 1.48485797e-02, 4.42953827e-03, 3.04815732e-02,
       3.91426422e-02, 5.04008867e-02, -4.54363972e-03, -3.38516794e-02,
       -1.22737465e-03, 1.18764378e-02, 5.13714924e-03, 8.23198259e-03,
       -3.30091342e-02, -3.62488907e-03, -2.35873857e-03,
       -2.85382755e-02, 2.42546257e-02, 1.24081085e-02, 1.17513835e-02,
       2.29112543e-02, 1.75747760e-02, 1.65427662e-02, 9.48331784e-03,
       1.24775190e-02, 2.67567430e-02, -3.98968831e-02, -7.44837895e-03,
       1.22896666e-02, -8.39858782e-03, -6.36484008e-04, -3.40749957e-02,
       4.46070917e-03, 2.08881870e-02, -2.97506694e-02, 1.38004590e-02,
       2.64701825e-02, 4.82782198e-04, 5.61399525e-03, -8.24603904e-03,
       7.63377454e-03, 9.21413884e-04, 4.24432522e-03, 1.70600191e-02,
       -2.21789330e-02, -2.62466576e-02, 6.08268566e-03, -1.63766555e-02,
       -9.66514274e-03, -3.79665866e-02, -1.18305739e-02,
       -2.82010511e-02, -1.52610857e-02, 2.07140464e-02, -1.01649025e-02,
       1.25859249e-02, 3.08640837e-03, 1.64098311e-02, -9.71940719e-03,
       -6.45122444e-03, -5.54699451e-03, 5.73179089e-02, -9.11219511e-03,
       -1.50720105e-02, 4.27643722e-03, -1.40885739e-02, -1.71847139e-02,
       -2.67257635e-03, -1.13478936e-02, -3.59147564e-02,
       -1.47000141e-02, 9.21691675e-03, -2.00350638e-02, 2.54483754e-03,
       -6.02777861e-03, -2.40799002e-02, 8.73175077e-03, 3.56057100e-03,
       -1.35393057e-03, 2.08618082e-02, -1.42588113e-02, -1.81207564e-02,
       -4.03218577e-03, -1.43297976e-02, 3.01519800e-02, -1.19181769e-02,
       -7.14372098e-03, 4.83471015e-03, 2.51725614e-02, -4.45834780e-03,
       -8.83474480e-03, 1.23127666e-03, -2.39959229e-02, -1.10142576e-02,
       -9.07314941e-03, 1.02502443e-02, 2.77436618e-03, 1.13211488e-02,
       3.27229244e-03, -1.96693502e-02, -8.82700272e-03, -1.12115704e-02,
       -5.28048608e-04, -1.23142255e-02, -2.83109606e-03, 9.89269093e-03,
       1.35361226e-02, 1.89152006e-02, -1.19310385e-02, -1.33936368e-02,
       -2.72678789e-02, -1.09789763e-02, -1.61603671e-02,
       -1.23381279e-02, -1.11344075e-02, 2.16270909e-02, -6.37866650e-03,
       1.77188944e-02, -6.54486299e-04, 9.27173439e-03, 9.08674207e-03,
       1.78818102e-03, 2.60818796e-03, 7.59880582e-04, 9.67554189e-03,
       -3.91715206e-02, 2.05542147e-02, -1.39415674e-02, -1.19845523e-02,
       1.30218947e-02, 3.57669988e-03, -5.99260442e-03, 1.37840314e-02,
       -3.11938655e-02, 6.23195199e-04, 3.41496198e-03, -7.38821749e-04,
       2.68484373e-02, 7.71583477e-03, -1.88697223e-03, -6.92634203e-05,
       -1.14348810e-02, 6.46389974e-03, -1.18200015e-02, -3.84312635e-03,
       -7.47053418e-03, -1.61019142e-03, -3.22549418e-03,
       -7.39730848e-03, 1.87353492e-02, 8.13971274e-03, -2.73352005e-02,
       -5.38971508e-04, -1.34847639e-03, -1.37821836e-02,
       -4.18881793e-03, 1.54420109e-02, -1.14480713e-02, 4.33867937e-03,
       -2.10965518e-02, -1.64496934e-03, -1.64075885e-02, 1.17159095e-02,
       -8.38579889e-03, 1.19021507e-02, 2.66383532e-02, 1.92784406e-02,
       2.28812126e-03, -6.25996152e-03, -9.25884116e-03, -6.29843073e-03,
       -1.55283827e-02, -1.47479754e-02, 1.08475727e-03, 2.31104884e-02,
       -1.46565596e-02, -2.86022038e-03, -3.56441340e-03,
       -8.40317458e-03, -1.56142982e-02, -1.09104747e-02, 3.78287258e-03,
       1.07609164e-02, 2.15870496e-02, 2.80948989e-02, 2.03773975e-02,
       1.84138007e-02, -1.37198074e-02, -5.18568745e-03, 1.43383276e-02,
       -4.67115641e-03, 5.88292116e-03, -7.72039732e-03, 5.08476922e-04,
       3.17704212e-03, 2.74141761e-03, 1.09954048e-02, 6.49008946e-03,
       1.88335106e-02, -1.11195594e-02, 1.30401626e-02, -1.62735526e-02,
       6.68540306e-05, 1.86656937e-02, 1.97520517e-02, 1.92718040e-02,
       -2.54325266e-03, 9.14886408e-03, 1.31884776e-02, -7.54028466e-03,
       -2.50374414e-02, -8.51337891e-03, 8.35763011e-03, 5.70630701e-03,
       -4.15306538e-03, 8.15352146e-03, 2.18733661e-02, 2.01041568e-02,
       -6.14560256e-03, -7.52009870e-03, -8.18874221e-03,
       -8.95145163e-03, 9.76880081e-03, 4.67940141e-03, -1.55987665e-02,
       7.39628170e-03, -8.36800039e-03, -1.76361948e-02, -1.19234528e-02,
       2.28624307e-02, 9.26860794e-03, 1.23837860e-02, -6.86580176e-03,
       -2.30116863e-02, -5.74415177e-03, -1.14024989e-03,
       -1.39564807e-02, 1.76866092e-02, 2.35736463e-03, -1.04112038e-02,
       -8.39153677e-03, -1.37115736e-02, -1.18480958e-02, 2.55474113e-02,
       4.55617486e-03, 5.57848997e-03, -1.14166150e-02, 1.35984635e-02,
       1.49364127e-02, 1.09867165e-02, -8.09274428e-03, -1.57009717e-02,
       -7.59450486e-03, 1.09231025e-02, 4.59960708e-03, -3.36343772e-04,
       -5.21009089e-03, 8.25445354e-03, 2.59787799e-03, -1.60947852e-02,
       3.91527303e-02, 3.38662192e-02, -1.87557016e-03, 1.87128242e-02,
       2.59737000e-02, 1.96730923e-02, 9.51914210e-03, 3.62502038e-03,
       -1.11361616e-03, -1.62717123e-02, -9.07321519e-04,
       -8.95299856e-03, -2.61013936e-02, -2.15263208e-04,
       -2.23885197e-02, -1.34386530e-03, -1.08649964e-02,
       -3.55687477e-02, 1.03723025e-02, 8.37296341e-03, 2.77763419e-03,
       2.48851180e-02, -2.06686053e-02, 2.54470669e-02, 6.23067282e-03,
       -9.02497303e-03, -1.32273901e-02, -1.61844585e-03,
       -7.09995907e-03, -6.73749112e-03, -4.51761205e-03, 5.74685540e-03,
       -6.30901940e-03, -1.81885920e-02, -8.31453223e-03,
       -1.50503768e-02, 2.25708820e-02, 2.15896424e-02, -5.25215350e-04,
       -2.07655504e-02, 1.74971410e-05, -8.10105074e-03, 3.31249274e-02,
       2.95567270e-02, 2.30182726e-02, 5.93652669e-03, 3.06688007e-02,
       2.02718526e-02, 2.53920518e-02, 1.62003450e-02, 3.40545774e-02,
       3.58293951e-02, 3.52330469e-02, -3.35703953e-03, 3.33706625e-02,
       1.11282943e-02, 7.22895004e-03, 8.49322230e-03, 9.57995653e-03,
       1.19232964e-02, 1.01287877e-02, 5.06063038e-03, 7.41646253e-03,
       7.51369819e-03, 1.03807701e-02, 2.65676603e-02, 1.28486091e-02,
       6.23785146e-03, 1.33271813e-02, 1.24295633e-02, 1.27235604e-02,
       -1.20948954e-02, -3.14212218e-02, -1.53349070e-02, 7.10350042e-03,
       -2.15626601e-02, 5.37376094e-04, -1.27173187e-02, 4.59820672e-04,
       2.93943612e-03, -3.94294225e-02, 4.34859134e-02, 1.99001376e-02,
       8.93513393e-03, 1.34566808e-02, 1.35332504e-02, 1.20190047e-02,
       2.52247471e-02, 1.12587567e-02, 3.64318565e-02, -6.00299053e-02,
       -1.55583965e-02, 2.35724775e-03, 9.65522788e-03, 2.55256239e-02,
       -1.08022103e-02, -9.36987530e-03, 9.43764672e-03, -4.42131795e-02,
       2.74263732e-02, 2.62514362e-03, 1.31130684e-02, 3.07472255e-02,
       6.46887207e-03, 1.22527853e-02, 2.28780159e-03, 3.04113161e-02,
       1.97752425e-03, -1.84220318e-02, -1.87449139e-02, -1.26725296e-02,
       -3.06610763e-02, -1.48034757e-02, -1.17172543e-02,
       -1.51613457e-02, -3.59626152e-02, -9.09744669e-03, 2.10561622e-02,
       8.90509412e-03, -4.76235151e-03, -4.81620431e-03, 1.74720213e-02,
       9.56874923e-04, 2.59232265e-03, 1.41770542e-02, 1.84605122e-02,
       -1.46195581e-02, -2.78917067e-02, -8.52708239e-03,
       -2.92968787e-02, -6.60026539e-03, -1.39136482e-02,
       -1.88887622e-02, -1.08530661e-02, -1.17575722e-02, 1.72086675e-02,
       -3.58264777e-03, 3.02818301e-03, -1.09254813e-03, 2.80825309e-02,
       2.17207847e-03, 4.99647250e-03, -4.83558932e-03, 3.08903735e-02,
       1.80435386e-02, 4.97598480e-03, -1.52578503e-02, 3.96664080e-04,
       3.41797881e-02, -1.90818291e-02, -2.19578715e-03, 1.89993612e-03,
       -3.21558234e-03, 6.93434710e-03, -1.98461488e-02, -7.72476615e-03,
       -3.41748609e-03, -5.50129358e-03, -1.08031975e-02,
       -1.39290653e-02, 5.53458929e-03, 2.21006684e-02, 2.45370786e-03,
       -7.73351698e-04, 9.36439727e-03, 1.85966380e-02, -9.29988176e-03,
       -1.29001141e-02, -2.28288304e-02, -9.03854705e-03, 7.53721967e-03,
       1.27949053e-03, -2.51354668e-02, -1.70722641e-02, 2.87686149e-03,
       4.52089356e-03, -1.37415472e-02, -7.48017337e-03, -1.63078196e-02,
       -2.89779995e-03, 1.09309917e-02, -1.20250583e-02, 2.04078108e-03,
       2.44975975e-03, 1.21411383e-02, -5.92970697e-04, 3.73384147e-03,
       -1.24627091e-02, 2.01484538e-03, -2.10976675e-02, 4.10473393e-03,
       -5.70397079e-03, 1.98659208e-03, -9.99571756e-03, 1.66193422e-04,
       3.45916674e-02, 4.55909688e-03, -4.10726629e-02, -2.76611827e-04,
       1.12144602e-02, 2.49873544e-03, 6.90894295e-03, 7.20336009e-03,
       2.76407832e-03, -2.77090841e-03, -1.14555210e-02, -6.34809770e-03,
       3.10794148e-03, 8.68249498e-03, -2.08502242e-04, -3.33573390e-03,
       2.95797340e-03, -6.58604363e-03, 8.72594863e-03, -5.46123087e-03,
       -1.96366515e-02, 4.54707351e-03, 9.91539797e-04, 6.59759680e-04,
       4.45690891e-03, 3.24829966e-02, -3.22865099e-02, -1.45649249e-02,
       5.01548825e-03, -2.94749215e-02, -8.99847131e-03, 3.77412420e-03,
       -1.37265781e-02, 3.46944444e-02, 4.04920541e-02, 1.80427935e-02,
       -7.30855996e-03, -2.52468768e-03, -3.86077985e-02,
       -1.64641682e-02, 1.25906877e-02, 1.27747301e-02, 3.70175182e-03,
       3.40645835e-02, -2.94084679e-02, -1.80936866e-02, -1.14981541e-02,
       -2.57070251e-02, -1.76239535e-02, 4.33239713e-03, -8.15270748e-03,
       3.19028236e-02, 1.42577747e-02, 2.32234467e-02, 1.72376763e-02,
       7.21452851e-03, -4.69100997e-02, 7.22496305e-03, 1.55865634e-02,
       1.30691109e-02, 1.15223201e-02, -1.96994394e-02, -1.34865260e-02,
       5.93597768e-03, -3.17160098e-04, -3.67528293e-03, 2.37145871e-02,
       4.08820510e-02, 2.84528527e-02, 1.11358101e-02, -9.34815034e-03,
       5.49364742e-03, -7.90713914e-03, 1.64302010e-02, -1.00285863e-03,
       -1.87566448e-02, 9.35103279e-04, -1.04630021e-02, -1.15389545e-02,
       -4.95057628e-02, -4.81716357e-03, 2.60203816e-02, 2.10680952e-03,
       -3.44451666e-02, -6.79599028e-03, 1.65558569e-02, 7.39319623e-03,
       3.73913138e-03, -1.83938742e-02, 2.40248647e-02, 8.81668646e-03,
       2.90582813e-02, -3.02006230e-02, -5.18956734e-03, 3.21178660e-02,
       2.95897573e-03, 6.37786277e-03, -1.53888818e-02, 5.83416596e-03,
       9.33056697e-03, 1.80858374e-02, -1.61651261e-02, -2.99358908e-02,
       -2.38045910e-03, 1.18658058e-02, -8.53085148e-05, -1.81129854e-02,
       -4.37486731e-03, 7.98150711e-03, 6.66847499e-03, -2.08494458e-02,
       -7.27251219e-03, 3.16057801e-02, 1.48447156e-02, 1.57459881e-02,
       -2.13304833e-02, 3.34137827e-02, 1.98380891e-02, 4.21948694e-02,
       -2.77859643e-02, -3.89118157e-02, 1.08508673e-02, 7.27980770e-03,
       -2.34878948e-03, 1.96281895e-02, -1.26077747e-02, -1.69050135e-02,
       -8.51762947e-03, -3.47730219e-02, -2.39593666e-02,
       -1.12514952e-02, -7.80145731e-03, 3.09074181e-03, -2.25271769e-02,
       1.93618853e-02, 1.39920088e-02, -1.98728614e-03, -1.10713486e-02,
       1.68076064e-02, -7.59554852e-04, -6.09738380e-03, -2.90561211e-03,
       1.06924344e-02, -2.66548432e-02, -5.78311551e-03, -8.52792803e-03,
       5.84443798e-03, 1.57049811e-03, -1.83413737e-02, -3.53906624e-04,
       8.10454227e-03, 7.43073993e-04, 6.99612591e-03, 1.87139511e-02,
       1.16886906e-02, 2.74926405e-02, 2.16092858e-02, 1.28384335e-02,
       -1.65069709e-03, -1.18204551e-02, 3.90980206e-02, -3.59147862e-02,
       -1.06230294e-02, -2.01796684e-02, 5.80217037e-03, 6.31691888e-02,
       1.37479035e-02, -7.67217297e-03, -3.77566391e-03, 1.17726279e-02,
       -3.14105637e-02, 7.98020326e-03, 1.71589013e-03, 2.33716853e-02,
       1.27591137e-02, 2.00171918e-02, 2.45233625e-03, 1.36291534e-02,
       4.05171001e-03, 1.32420491e-02, 1.75484661e-02, 3.06415111e-02,
       -2.93521816e-03, 4.50172201e-02, 2.76013906e-03, -1.42590515e-02,
       1.05598327e-02, 2.59750057e-02, -1.00581078e-02, -2.25923420e-03,
       1.11881096e-03, 3.04934923e-02, 1.33073851e-02, 4.66836878e-04,
       7.45678227e-03, 3.11244410e-02, 3.94891128e-02, 2.06376687e-02,
       2.58167367e-03, 3.15527618e-02, 2.22959556e-02, -3.25167626e-02,
       -2.18347721e-02, -3.54424957e-03, 6.36954093e-03, 5.15543995e-03,
       -1.75100602e-02, -1.30897099e-02, -4.02228674e-03,
       -3.26381773e-02, 3.57917808e-02, 1.27557227e-02, 6.83958782e-03,
       8.53841752e-03, 1.52771519e-02, -4.38937917e-03, -8.35474487e-03,
       2.94055045e-02, 5.62527683e-03, -1.49316173e-02, 5.26241865e-03,
       1.01208631e-02, 8.32759310e-03, 3.83413886e-03, -1.23866769e-02,
       2.26195646e-03, 4.31117514e-04, -2.67401505e-02, 3.41690034e-02,
       1.41059887e-02, 1.42361745e-02, 6.35508355e-03, -3.80993588e-03,
       -1.14911096e-02, 1.19743701e-02, 2.13243477e-02, 1.40350992e-02,
       -2.20242385e-02, -1.23683140e-02, 6.23288052e-03, -1.80327278e-02,
       8.61558772e-04, -2.52602957e-02, -1.90083887e-02, -1.10235848e-02,
       -1.87478829e-02, 3.77322845e-02, 2.48912955e-03, 6.26175024e-04,
       -6.36234507e-03, 1.67889018e-02, -7.25949591e-04, 7.20300293e-03,
       4.80327848e-03, 3.22700478e-02, -2.76759244e-03, -2.46560713e-03,
       -1.94629165e-03, -2.05769874e-02, 2.33025639e-03, -2.52933409e-02,
       -4.44401987e-04, -6.97851414e-03, -1.00398930e-02, 2.12938190e-02,
       -1.74242519e-02, -3.16111036e-02, -1.39269438e-02, 5.75170154e-03,
       -1.17768282e-02, 2.74276230e-02, 1.72093436e-02, 8.11588485e-03,
       1.90385021e-02, -6.02585357e-03, 2.07551802e-03, 3.43086926e-04,
       -1.05551281e-03, -1.36822904e-03, -8.51261255e-04,
       -9.10022669e-03, 1.99846923e-02, 1.35740740e-02, 2.09597684e-03,
       -7.39290332e-03, -7.55610410e-03, 6.12125825e-03, 5.11647249e-03,
       -2.85321078e-03, -1.98326949e-02, 1.80942509e-02, 6.18741440e-04,
       -4.27822722e-03, -3.29525123e-04, 1.36843985e-02, 1.92374326e-02,
       8.82355683e-03, -1.24142994e-03, -1.44732911e-02, -8.78895819e-03,
       1.61710028e-02, -7.09779933e-03, -2.05929391e-02, -1.71045046e-02,
       4.10722056e-03, -6.52776752e-03, 4.71527269e-03, -2.26427969e-02,
       2.87714731e-02, -8.90782382e-03, 2.48626918e-02, 1.31492177e-02,
       1.82205942e-02, 1.95352174e-02, 1.70214679e-02, -2.82126339e-03,
       7.08697923e-03, 8.76070844e-05, -1.92071367e-02, 1.23709338e-02,
       1.35105513e-02, -5.52733615e-03, -8.18521343e-03, 2.30694171e-02,
       -1.67758316e-02, 1.00006228e-02, -3.09224874e-02, -1.24881789e-02,
       1.15784779e-02, 4.24526725e-03, -3.84679879e-03, -5.57648484e-03,
       9.53381788e-03, 2.36008968e-02, 2.40390915e-02, -5.00607828e-04,
       -1.87396482e-02, 1.16657000e-02, 8.42545647e-03, -1.27106896e-02,
       -8.87913071e-03, 4.75951424e-03, -2.44106725e-02, -9.66801029e-03,
       -4.35106643e-02, -1.54147791e-02, -1.02069788e-02,
       -2.35441830e-02, -6.25478849e-03, 3.81595492e-02, -1.46704493e-02,
       1.48617057e-02, 1.73067376e-02, -7.43983267e-03, 2.67674192e-03,
       4.11594007e-03, -6.61240797e-03, 1.55657181e-03, 1.90665387e-02,
       1.81738175e-02, -1.83271058e-03, 2.50439197e-02, -2.43865140e-02,
       -6.74868096e-03, -3.08416667e-03, -1.09770463e-03,
       -8.36693216e-03, 2.91352849e-02, -1.12885581e-02, -5.84122352e-03,
       1.54883498e-02, 6.08113129e-03, -7.41655333e-03, 2.24269833e-02,
       1.91144031e-02, 4.28359862e-03, 1.66715980e-02, -2.07877792e-02,
       1.14329569e-02, 4.50231396e-02, -2.95327995e-02, 8.14716332e-03,
       -1.12490049e-02, -1.17226746e-02, -2.29995959e-02,
       -5.72967082e-02, -2.56768558e-02, -8.08445085e-03, 5.05463919e-03,
       -3.32175591e-03, 3.95495817e-02, -1.85271222e-02, -2.02504061e-02,
       4.30695340e-03, -3.79297435e-02, 1.13487919e-03, 1.44367351e-03,
       1.37781613e-02, 3.73126790e-02, 1.08808195e-02, -7.87001103e-03,
       -1.76854879e-02, -2.19503082e-02, -4.43324558e-02,
       -2.65246704e-02, 5.71040250e-03, 2.24058665e-02, 3.96280549e-03,
       1.12832207e-02, -1.68636087e-02, -2.57125925e-02, -2.90559158e-02,
       -3.05181444e-02, 2.50153267e-03, -2.20895857e-02, 1.53167779e-02,
       8.64941720e-03, 1.85834654e-02, -1.26569280e-02, -1.30134327e-02,
       -1.03181321e-03, -1.33919224e-04, 4.77505475e-03, -2.28887377e-03,
       4.46369685e-03, 1.79622881e-02, -1.18701048e-02, 4.63970518e-03,
       -8.69353954e-03, -9.13783384e-04, 2.68684123e-02, -7.57720973e-03,
       1.05574038e-02, -6.31182129e-03, 3.79401632e-03, 2.30163168e-02,
       -8.69221892e-03, -9.54020489e-03, -1.32570341e-02,
       -1.40685774e-02, 1.19218081e-02, -9.72174760e-03, 2.08345205e-02,
       3.46613377e-02, -1.02451583e-02, 1.08562617e-05, -1.95505749e-02,
       -3.42857093e-02, -7.96524226e-04, -2.65733860e-02,
       -7.10286107e-03, -2.06252337e-02, -1.12341214e-02, 2.89948075e-03,
       5.54164127e-03, 1.81597243e-05, -3.44095030e-03, 4.20083143e-02,
       5.30605717e-03, 2.35471781e-02, 5.12459129e-03, 3.04281395e-02,
       3.10561061e-03, 1.11261476e-03, -2.48724315e-03, -4.87522408e-03,
       2.85654757e-02, -1.26430690e-02, 3.88815650e-04, -4.33105091e-03,
       -2.71064485e-03, 1.03130434e-02, 6.28533354e-03, 3.00433915e-02,
       8.70146137e-03, 2.75665820e-02, 2.10045278e-02, 9.43245948e-04,
       -8.40946566e-03, 1.57248471e-02, -1.55577967e-02, -2.52432656e-02,
       3.66437659e-02, 5.75215439e-04, 2.17292048e-02, 3.46466601e-02,
       -1.63110048e-02, -5.18631563e-03, -5.65685239e-03, 2.06289385e-02,
       6.08099671e-03, -8.33508000e-03, 2.03919522e-02, 2.12904494e-02,
       -8.15581251e-03, 6.22135936e-04, -2.47609732e-03, 1.77312754e-02,
       -1.67460777e-02, -1.47715863e-02, -1.85466912e-02,
       -2.41814158e-03, -6.51264843e-03, 2.28108955e-03, 2.30436902e-02,
       1.24145169e-02, -1.46918595e-02, 4.22432683e-02, 6.36160327e-03,
       4.50322852e-02, 3.49804461e-02, 8.23988579e-03, 3.90965827e-02,
       -2.49395689e-05, 2.17457563e-02, 4.43305112e-02, -1.76323503e-02,
       -3.49918409e-04, 2.29065977e-02, 9.48274136e-03, 1.37026338e-02,
       1.69851240e-02, -1.43163837e-03, 2.43575852e-02, 1.49496933e-04,
       -9.64129344e-03, 1.36305820e-02, 1.51157025e-02, 5.18659130e-03,
       1.83163793e-04, -1.50386980e-02, 9.17723123e-03, 3.04168859e-03,
       -1.74396317e-02, 7.20898970e-04, -3.33066471e-03, -9.11784545e-03,
       -1.28831174e-02, 2.01995322e-03, -1.26649737e-02, 9.91558935e-03,
       1.83747914e-02, -6.14159554e-03, -1.67822186e-02, 1.52183808e-02,
       1.06763486e-02, 2.85300296e-02, -9.65120678e-04, 1.77059404e-03,
       -8.15987960e-03, 2.23056711e-02, -1.39450505e-02, -2.83087464e-03,
       -1.21659739e-02, -2.32525710e-02, -2.18512621e-02, 1.40060857e-02,
       -1.53084528e-02, -8.73016100e-03, -1.70853944e-03,
       -6.53063320e-03, -1.49586545e-02, 8.04175902e-03, 1.13104563e-02,
       -2.50659026e-02, 2.89244559e-02, -9.56595596e-03, 7.27090053e-03,
       -1.57852918e-02, -1.80828124e-02, 3.61410081e-02, 4.53309016e-03,
       -4.11345856e-03, 1.64427347e-02, 1.39028849e-02, -8.50171223e-03,
       3.59745906e-03, -6.10654522e-03, 2.99877599e-02, -2.34738085e-02,
       1.83423178e-03, -6.74345717e-03, -2.37949733e-02, 1.40162595e-02,
       -3.30619179e-02, -3.83858988e-03, -1.09191258e-02,
       -7.97258544e-05, 3.33121303e-03, -9.82221449e-04, -2.57596020e-02,
       -1.67095028e-02, -5.74483117e-03, -2.38985475e-02, 8.79566371e-03,
       6.36354834e-03, 1.27894077e-02, 6.70532556e-03, -1.17329350e-02,
       -4.21206839e-03, 6.18415233e-03, 6.50282623e-03, -1.10769859e-02,
       -1.27377464e-02, -1.40285790e-02, 4.30254405e-03, 1.62241105e-02,
       -1.67058334e-02, -2.70501021e-02, -1.88413747e-02,
       -5.93170105e-03, -5.66273974e-03, -1.48148574e-02,
       -7.41433119e-03, 2.64270492e-02, 5.95758855e-03, 4.59105155e-04,
       -1.62271447e-02, 1.29138597e-03, 1.95169484e-03, 6.19810773e-03,
       -5.83281927e-03, -2.32393795e-04, -1.80056393e-02, 2.69416180e-02,
       -4.69186623e-03, -1.85778756e-02, 8.47627968e-03, 7.61570968e-03,
       -1.04324603e-02, -2.29737721e-02, -8.12397618e-03, 2.66371984e-02,
       2.16274634e-02, -1.85275846e-03, 1.27253206e-02, 5.22647798e-03,
       -2.16071960e-03, 1.36712044e-02, 7.01361755e-03, 1.05560357e-02,
       2.10037995e-02, -1.13801798e-02, 1.47738662e-02, 2.55190558e-03,
       -1.45751126e-02, -9.04611778e-03, 1.47664556e-02, 1.60747599e-02,
       4.32142848e-03, -2.55183950e-02, 1.31168682e-03, 4.40477114e-03,
       2.74963919e-02, 3.03044356e-02, 4.37525380e-03, 7.93703774e-04,
       -1.21887727e-02, 4.13259212e-03, 6.63045235e-03, -9.59611963e-03,
       8.27596068e-06, 2.75180489e-03, 6.42613368e-03, 4.38987184e-03,
       9.93812364e-03, 2.76780576e-02, 1.61890566e-04, -2.13405490e-02,
       -1.47786736e-02, 9.35461745e-03, 1.53305223e-02, -6.57869782e-03,
       3.85965928e-02, -2.94041671e-02, -6.45053992e-03, 8.92016385e-03,
       -9.98430769e-04, 8.02590139e-03, 2.12692302e-02, 1.71266068e-02,
       -2.40179077e-02, 1.58072878e-02, -1.88220087e-02, -5.37614059e-03,
       -1.04475869e-02, 4.82715992e-03, -1.50567554e-02, -2.56697007e-04,
       2.98592541e-03, 1.38868028e-02, 3.16653512e-02, -1.02984477e-02,
       1.32740103e-02, 2.44609062e-02, -9.13102087e-03, 1.78633779e-02,
       3.08128912e-02, 3.00550759e-02, 1.36930915e-02, 1.58625003e-02,
       5.61509887e-03, 2.42704079e-02, 7.90936686e-03, 1.40555389e-02,
       2.55442578e-02, -4.93064569e-03, -1.79725252e-02, -2.64970306e-02,
       -3.93554084e-02, -3.32240909e-02, -3.14462148e-02,
       -1.71326343e-02, 1.47973299e-02, 3.11116222e-02, -9.65193659e-03,
       -2.13942993e-02, -2.02714670e-02, -2.81483661e-02, 1.10523542e-02,
       -2.82496475e-02, -5.76082664e-03, 3.14993486e-02, 2.59417687e-02,
       -2.63885986e-02, -2.22689845e-02, -3.63669954e-02,
       -8.34504887e-03, -2.40389612e-02, -2.41299234e-02,
       -1.57130007e-02, 2.31913961e-02, 1.12584569e-02, 6.31794473e-03,
       3.66817508e-03, -2.15996318e-02, -3.18874307e-02, -4.84110601e-03,
       -2.77038217e-02, -1.90788191e-02, 7.90588837e-03, 5.56490123e-02,
       1.09957648e-03, 5.02690254e-03, -1.57236755e-02, -1.10908644e-02,
       1.88365448e-02, -2.78885979e-02, -2.18933262e-03, 6.58892244e-02,
       9.18195059e-04, -1.08917141e-02, -1.58307888e-02, -3.10939867e-02,
       -2.20227353e-02, -2.61702593e-02, -1.57046877e-02,
       -7.12739397e-03, 8.92869197e-03, 2.01924331e-02, 2.50518024e-02,
       -2.21641944e-03, -3.55597846e-02, -1.49838105e-02,
       -1.05607845e-02, -3.10107656e-02, -1.53525267e-02, 2.64716782e-02,
       -4.59276605e-03, 6.72126515e-03, 2.62848195e-03, -9.13501531e-03,
       -2.39793230e-02, -3.86940464e-02, -4.30751108e-02,
       -3.68257575e-02, -2.84513296e-03, 1.18656112e-02, 1.37941949e-02,
       4.26553637e-02, 3.78112355e-03, 1.73314437e-02, -4.87611583e-03,
       6.09954959e-03, -2.97347573e-03, -5.38117066e-03, -2.73889080e-02,
       -8.62754043e-03, 2.50538196e-02, -1.16229467e-02, 3.75505653e-03,
       3.05419695e-02, -9.64418612e-03, 4.95435437e-03, -4.19568010e-02,
       4.64936765e-03, 3.10196280e-02, 6.11272603e-02, 2.12297458e-02,
       -1.03717009e-02, -4.96549392e-03, 9.19332076e-03, -4.93845297e-03,
       6.28875289e-03, -2.87139826e-02, -1.32794455e-02, 3.82345617e-02,
       -4.26235283e-03, 1.03427167e-03, 2.51370557e-02, -1.91188161e-03,
       -4.37691063e-03, -1.98368989e-02, -2.18622331e-02,
       -1.32790906e-02, 1.69618689e-02, 1.92379933e-02, -1.03014549e-02,
       4.74810489e-02, 7.95079302e-03, 2.05026790e-02, -7.12267298e-04,
       -4.27660085e-02, 9.20699537e-03, 1.79767441e-02, 6.99828425e-03,
       1.54066617e-02, 2.73645818e-02, -1.04227234e-02, 1.85382180e-02,
       -1.47683686e-02, -2.19068713e-02, 3.97554686e-04, 6.05509691e-02,
       5.20679876e-02, -1.94754172e-02, 5.03364317e-02, 1.45771410e-02,
       1.72884483e-02, -7.94385374e-03, -9.72757395e-03, 2.13545896e-02,
       2.85998061e-02, 1.44657064e-02, -4.65030735e-03, 1.47319883e-02,
       -1.26859630e-02, 3.93525185e-03, -2.44307350e-02, -5.18844575e-02,
       -4.39729635e-03, -2.18186472e-02, 1.26653695e-02, -8.53428151e-03,
       1.97815672e-02, -3.53005971e-03, 6.85897307e-04, -3.90898325e-02,
       1.43600330e-02, -6.37617195e-03, -3.03407502e-03, -1.59913916e-02,
       -1.72777735e-02, -8.71260464e-03, -5.93653880e-03,
       -1.20065352e-02, 6.07999414e-03, -2.89983079e-02, -1.92406354e-03,
       -4.08604145e-02, -7.09611224e-03, -2.11461969e-02, 2.73967069e-03,
       1.06993020e-02, -1.24562858e-02, -4.38841507e-02, 1.43247498e-02,
       -3.79404332e-03, -3.08314916e-02, -2.47809440e-02,
       -1.63140930e-02, -4.28795209e-03, -2.09530685e-02,
       -9.70282778e-03, 5.91312442e-03, 1.20137595e-02, 1.03381602e-02,
       7.53074372e-03, 7.10980408e-03, 1.21804820e-02, -3.86054181e-02,
       -6.17511244e-03, -8.14003684e-03, -6.28546067e-03, 4.80208620e-02,
       2.97134463e-03, -2.32137423e-02, -1.35983769e-02, 2.47840304e-03,
       -1.85875986e-02, 2.70539336e-03, 3.38476081e-03, 2.19981167e-02,
       5.84981404e-03, -1.49320886e-02, -4.41147899e-03, -1.45271858e-02,
       -9.49840620e-03, -5.54232709e-02, -1.77625846e-02,
       -2.22377758e-02, -1.92356948e-02, -5.01831155e-03,
       -3.08049154e-02, -1.28722712e-02, -2.00616028e-02,
       -9.17799864e-03, -2.81318743e-02, 2.61855451e-03, -1.55482180e-02,
       3.76142911e-03, 1.86907295e-02, 2.91939545e-03, -1.49599472e-02,
       -2.11601355e-03, -8.58019665e-03, -2.85366550e-03, 1.36873720e-03,
       2.17313855e-03, -7.65118981e-03, 2.95179132e-02, -7.13573629e-03,
       -1.80292372e-02, -1.27915451e-02, -4.79462557e-03,
       -1.05648283e-02, -7.05910893e-03, -7.58246984e-03, 2.46176776e-02,
       -5.50475949e-03, -1.93439387e-02, -1.19480246e-03, 5.22861630e-03,
       -1.66231859e-02, -2.43896642e-03, -2.22449773e-03,
       -2.19222922e-02, -1.50261621e-03, 6.18636189e-03, -1.89975388e-02,
       -1.80327278e-02, -2.18215864e-02, -1.64032576e-03,
       -1.63330752e-02, -2.33530588e-02, -2.84794047e-02, 1.66333187e-02,
       1.63537245e-02, 1.00785680e-03, 8.40776507e-03, -6.59234647e-04,
       -3.53829819e-04, -2.31413934e-02, 1.58625077e-02, -1.37871143e-03,
       1.74314827e-02, -2.20462140e-02, -3.47040012e-03, -9.79831256e-03,
       -8.51160008e-03, -1.69047378e-02, -6.27103029e-03, 5.50919631e-03,
       -1.14842085e-03, -3.17742229e-02, 6.20820886e-03, 5.19205024e-03,
       2.11652890e-02, -1.27477013e-02, -9.72164609e-03, -6.84114126e-03,
       1.11799967e-02, -2.32014479e-03, 1.76763199e-02, -3.10241804e-03,
       -1.03599066e-02, -1.38166910e-02, -1.02165742e-02, 6.42852974e-04,
       4.38024942e-03, 1.04882736e-02, -1.87059701e-03, 1.40181661e-03,
       -7.05928309e-03, 8.54431000e-03, -5.89413475e-03, 7.45407073e-03,
       2.29936205e-02, -1.09826094e-02, -7.69338396e-04, -6.77238218e-03,
       -3.09407953e-02, 1.75434630e-02, 2.15507038e-02, 2.08845809e-02,
       3.21819969e-02, 2.03555860e-02, -1.83033813e-02, 1.02284020e-02,
       -9.46326926e-03, -9.38213617e-03, 2.40343949e-03, -4.11383575e-03,
       -2.21924321e-03, 1.69333331e-02, 3.84644493e-02, 2.71188635e-02,
       -6.17345329e-03, -1.00775482e-02, -1.74807087e-02, 1.67846214e-03,
       1.57529227e-02, 1.83466021e-02, 4.88660410e-02, -1.79937333e-02,
       1.53894750e-02, 6.35832222e-03, 1.64192189e-02, -4.49240301e-03,
       -2.37600831e-03, 1.17725031e-04, -1.18191410e-02, -1.70321092e-02,
       -2.52759419e-02, -4.35160920e-02, -3.56422202e-03,
       -2.29565380e-03, -3.61286779e-03, 2.56370157e-02, 1.91511437e-02,
       3.71487662e-02, 8.22457299e-03, 9.49072465e-03, 7.52748363e-03,
       8.27434100e-03, -3.30944639e-03, 1.33971183e-03, -1.63428690e-02,
       1.02751320e-02, 4.43265820e-03, 6.52867882e-03, -1.17528616e-02,
       -2.41170470e-02, 9.96283535e-03, 1.61107872e-02, -1.28135765e-02,
       -4.05232934e-03, 1.48354732e-02, 2.18849489e-03, 3.51592749e-02,
       3.50756906e-02, 2.38121841e-02, 4.99814302e-02, 2.30938233e-02,
       -1.05377194e-02, 2.24284101e-02, 1.93232466e-02, 1.36698782e-02,
       -4.96980967e-03, 2.37477035e-03, -2.26802402e-03, 2.12137606e-02,
       5.37993945e-03, 5.96048823e-03, -7.08593009e-03, -2.28878693e-03,
       -2.03616153e-02, -1.45248268e-02, -4.48475918e-03,
       -1.17109260e-02, -2.58379150e-03, 8.49052682e-04, -1.07320948e-02,
       4.48804675e-03, 2.45052427e-02, 4.12661536e-03, 3.68803786e-03,
       8.05344991e-03, -4.61468473e-03, 1.14795212e-02, 9.75866627e-04,
       -9.57177300e-03, -1.78493448e-02, 2.02698633e-02, 1.60087890e-03,
       -3.20459902e-02, 1.91729888e-02, -2.06593256e-02, -1.07804500e-02,
       -1.95940901e-02, -3.73580530e-02, 3.11237182e-02, 3.11281830e-02,
       3.38815898e-02, 9.44212265e-03, 1.68200508e-02, 2.05680076e-02,
       2.40978207e-02, 8.73645674e-03, 4.28518504e-02, -1.06666994e-03,
       -5.79147227e-03, 1.62878036e-02, -7.50381558e-04, 5.92964469e-03,
       1.52916126e-02, -1.40768930e-03, -3.00776772e-03, 8.85464717e-03,
       2.98372991e-02, 2.59893984e-02, 4.91144462e-03, -3.37044746e-02,
       5.59942005e-03, 6.10324321e-03, 2.42012758e-02, -3.03184777e-03,
       2.58345250e-02, 5.48599474e-03, -3.68567929e-03, -1.82362553e-02,
       -1.82013344e-02, 7.07709069e-06, -1.12628667e-02, -2.14952994e-02,
       -8.73148907e-03, -2.83809728e-03, 1.67422313e-02, -1.86135503e-03,
       4.23326455e-02, 4.86184582e-02, 6.36493694e-03, 5.01698963e-02,
       1.38656842e-02, 2.57117189e-02, 3.29132117e-02, -5.58188930e-03,
       2.07095016e-02, 3.42960246e-02, 3.50481384e-02, -5.10308472e-03,
       2.88517401e-02, 8.33282247e-03, 2.11311094e-02, 1.82700381e-02,
       2.29534600e-02, 5.50391525e-03, 8.76361597e-03, 2.36336105e-02,
       -4.65558562e-03, 5.15236566e-03, 1.49431149e-03, 2.45753210e-02,
       2.19676774e-02, 3.16566392e-03, 9.20042023e-03, -9.77858342e-03,
       1.83645159e-03, 2.18210928e-02, 7.50729768e-03, 5.88422082e-03,
       -1.00359945e-02, 2.51252800e-02, -1.77135505e-02, 8.72081704e-03,
       -1.86520573e-02, 1.97157729e-02, -1.08048553e-03, 2.77037956e-02,
       1.55087840e-02, 1.38134218e-03, -3.63343433e-02, 3.04471310e-02,
       7.80887390e-03, -1.23354327e-02, 1.09654116e-02, -5.04271826e-03,
       2.87016388e-04, 8.05120450e-03, 2.86200661e-02, 7.26411212e-03,
       -8.03809427e-03, 1.12066651e-03, -8.41437280e-03, 1.55645963e-02,
       -2.93502118e-02, 1.75621752e-02, -8.38462822e-03, -1.65414196e-02,
       -5.84700378e-03, 3.10363900e-02, 1.47864604e-02, 7.47161964e-03,
       -2.14885622e-02, 3.38570820e-03, -2.80103516e-02, -2.28250418e-02,
       -1.30064841e-02, 2.02812552e-02, 1.29277641e-02, -2.94683408e-02,
       5.10235084e-03, -9.70149040e-03, 1.10666184e-02, -2.50841044e-02,
       1.20481290e-02, -6.17094478e-03, -2.35797861e-03, 1.74411759e-02,
       -1.80121586e-02, 7.36260926e-03, 1.59026813e-02, 2.71050930e-02,
       2.70958096e-02, 3.04574277e-02, 1.97441373e-02, 3.88606898e-02,
       -2.21474376e-02, -1.52396671e-02, 9.66878515e-03, -2.97199991e-02,
       -2.04403121e-02, -3.06397714e-02, -1.64922550e-02,
       -3.11177410e-02, -2.06740666e-02, 8.09398852e-03, -1.96991228e-02,
       5.81756758e-04, -1.19117973e-02, 3.08518596e-02, -1.15226554e-02,
       -9.03786067e-03, 1.43600134e-02, 9.72573925e-03, 1.71508908e-03,
       -1.01657202e-02, -6.55807415e-03, 2.99073327e-02, 2.90302821e-02,
       2.80018467e-02, 2.03575450e-03, -2.32508611e-02, 2.79791541e-02,
       2.55136285e-02, -1.47130238e-02, -4.04530065e-03, -1.05225937e-02,
       1.09895216e-02, 2.00264491e-02, -7.37255393e-03, -1.63154043e-02,
       5.17342985e-02, 7.26886420e-03, -4.36914992e-03, 5.68306958e-03,
       -3.05861770e-03, 7.77349109e-03, -1.03747714e-02, -1.04322052e-02,
       -1.89342964e-02, 1.59851220e-02, 2.68366002e-02, -2.11598519e-02,
       -3.90089080e-02, -1.67699344e-02, -7.59491290e-04,
       -1.93658955e-02, -1.36610707e-02, -3.50056738e-02, 2.34803632e-02,
       7.64927827e-03, -7.11197313e-03, 2.12098919e-02, 6.12189621e-03,
       3.89477164e-02, 4.51524649e-03, 8.03179108e-03, 5.75027335e-03,
       2.49067619e-02, -1.81254279e-02, -1.13532599e-02, 1.74717570e-04,
       -5.35573903e-03, 3.74376923e-02, 2.70583127e-02, 2.77067348e-03,
       4.24011471e-03, -1.03528677e-02, -8.47290561e-04, -1.37412651e-02,
       -6.85705710e-03, 1.47271939e-02, 2.70352140e-02, 2.90447939e-03,
       5.51723689e-03, -1.44447759e-02, 3.22247250e-03, -4.92572747e-02,
       -1.41800316e-02, 1.51911890e-02, -1.35883885e-02, 5.00878145e-04,
       2.00426001e-02, -4.02117660e-03, -1.79591458e-02, -1.85527969e-02,
       5.77774458e-03, -1.86394844e-02, -7.69159943e-03, 1.35391674e-04,
       1.84343811e-02, -1.22450350e-03, -1.12098008e-02, -7.02804374e-03,
       2.37718155e-03, -8.28163512e-03, -2.21920805e-03, 3.37638776e-03,
       8.96733999e-03, 5.91151044e-03, -7.22465478e-03, -3.70377302e-03,
       1.61363371e-02, -2.64471881e-02, -1.78821366e-02, -2.28876714e-02,
       2.23672343e-03, 9.58276540e-03, -3.35634053e-02, -6.53810706e-03,
       -2.88189226e-03, -1.01232594e-02, 1.00300182e-02, -1.21105853e-02,
       -1.83154773e-02, 7.63062434e-03, 2.29484085e-02, 2.18640722e-04,
       1.24520808e-02, 1.22202719e-02, -4.92540421e-03, 1.40710939e-02,
       7.10201450e-03, -9.33735259e-03, 1.74808514e-03, -4.50826436e-03,
       -1.36365714e-02, -3.01688761e-02, 4.81269602e-03, 1.18596405e-02,
       8.09228688e-04, 2.06077062e-02, 2.25046128e-02, 4.31299768e-03,
       2.55863685e-02, 1.20976765e-03, 4.39462531e-03, 2.21334305e-02,
       1.35619519e-02, 1.05740139e-02, -1.97376702e-02, -4.95667523e-03,
       4.55833320e-03, 4.16613882e-03, -9.28580295e-03, -1.70068424e-02,
       -1.16311321e-02, -1.18226884e-02, -3.34099587e-03, 7.23547908e-03,
       -2.62223510e-03, 9.15978570e-04, -7.30708754e-03, -2.63026776e-03,
       9.81975626e-03, 5.76004200e-03, 5.99170895e-03, -4.73583862e-03,
       3.27171721e-02, 3.10448539e-02, 2.22951942e-03, 8.46850965e-03,
       -4.36315808e-04, -4.20477288e-03, 2.00652387e-02, 2.75524892e-02,
       3.99462581e-02, 4.31377441e-03, 7.37543823e-03, -2.46709120e-02,
       -2.21839696e-02, 2.45383531e-02, -1.39470883e-02, 9.03500710e-03,
       -5.64443786e-03, 1.38232680e-02, -6.68601645e-03, -1.38451308e-02,
       9.01454315e-03, -1.73489731e-02, -6.41699787e-03, 3.65080824e-03,
       3.03153880e-03, 2.37657782e-03, 1.12450158e-03, 7.03366892e-03,
       -1.98337361e-02, 5.13113895e-03, -9.97491367e-03, -6.03810372e-03,
       -1.80138256e-02, -5.79921645e-04, -2.36916542e-02,
       -2.08668765e-02, 1.46068735e-02, -3.20049701e-03, -1.60806850e-02,
       -2.97402851e-02, -8.66574701e-03, 1.06720012e-02, 1.73653886e-02,
       -2.46167369e-03, 3.68875302e-02, -7.84961414e-03, -1.72988866e-02,
       -1.10149179e-02, -1.15554640e-02, 2.08293386e-02, 2.07626559e-02,
       9.17717163e-03, 7.46785337e-03, 1.58799049e-02, 1.45684080e-02,
       8.53173342e-03, 3.81716564e-02, 1.44163063e-02, 1.58582143e-02,
       -2.04834365e-03, -4.83759167e-03, -1.99142452e-02, 5.32699691e-04,
       -2.83236168e-02, -1.89473573e-03, 1.14454068e-02, -6.30833441e-03,
       3.51748765e-02, 6.71083154e-03, -9.69350897e-03, -1.10103320e-02,
       -2.28274204e-02, 1.04623195e-02, -1.26118055e-02, -1.18717216e-02,
       -8.57757218e-03, 2.58301757e-03, 1.38913356e-02, 5.73120965e-03,
       -6.40722690e-03, 4.42210250e-02, -2.15250999e-02, -1.39523123e-03,
       -7.02752615e-04, 1.69703234e-02, 1.17943976e-02, 1.64110474e-02,
       1.08920820e-02, -1.49029540e-02, 1.02765299e-02, 1.97938886e-02,
       4.39231703e-03, 1.10504869e-03, -6.36595720e-03, -5.34040434e-03,
       2.28131446e-03, 1.20158808e-03, -7.90484063e-03, 3.33356857e-02,
       1.22949779e-02, 9.47849452e-03, 1.14851044e-02, 2.27685506e-03,
       6.05794659e-04, 4.87574656e-03, 3.11081726e-02, 6.42377790e-03,
       1.52946645e-02, -3.22955623e-02, -2.89019267e-03, 8.04439187e-03,
       2.09866725e-02, -1.82839986e-02, -3.63132684e-03, -1.25409607e-02,
       -3.49265494e-04, 1.04568945e-02, -3.27059184e-03, 1.04662469e-02,
       9.71477758e-03, 4.78317775e-03, -3.40842456e-02, -1.08606461e-02,
       -1.10469165e-03, -1.02535542e-02, 3.37108294e-03, 8.73824989e-04,
       6.86164666e-03, 1.08009512e-02, 4.85368539e-03, -1.48906149e-02,
       -5.00642648e-03, 6.30774302e-03, 2.22256836e-02, 1.90685354e-02,
       1.91593934e-02, 1.23630930e-02, 4.64923074e-03, 2.26661712e-02,
       -1.96155021e-03, -1.38388490e-02, 5.45228086e-03, 1.60644634e-03,
       1.53685464e-02, 2.11847927e-02, 5.74827893e-03, 6.76155672e-04,
       2.54789746e-04, -2.86211390e-02, -1.73683129e-02, -4.62678634e-03,
       -1.75716355e-02, 1.23835253e-02, 1.32411206e-03, -8.26244242e-03,
       -5.18628221e-04, 1.16481502e-02, -9.99564771e-03, -9.08921286e-03,
       5.81637071e-03, 2.17764955e-02, 8.41896795e-03, -3.08077969e-03,
       1.15949744e-02, 6.49217656e-03, 2.88822223e-02, -4.45027985e-02,
       -6.37300964e-03, 1.23842685e-02, -3.79624055e-03, -1.90547965e-02,
       -1.16279873e-03, -1.26666026e-02, 4.12260415e-03, 2.47959793e-03,
       -1.29770916e-02, 5.86763769e-03, 6.03864063e-03, 6.33626187e-04,
       -1.60252228e-02, 1.67693570e-02, 1.89957989e-03, -9.93283698e-04,
       3.49795707e-02, 5.95740648e-03, 3.08397948e-03, 1.28650675e-02,
       -3.00485699e-04, 2.62059271e-02, 2.03451738e-02, -8.47413391e-03,
       6.00566575e-03, 1.90469548e-02, -6.31137798e-03, 5.41807478e-03,
       3.86312744e-03, -1.77304000e-02, 3.50331925e-02, -3.34065151e-03,
       -4.62032901e-03, 7.01020530e-04, 1.60113703e-02, -3.30672860e-02,
       9.64225270e-03, -1.42817395e-02, -1.41254701e-02, -1.58699322e-02,
       2.19389163e-02, -8.95431545e-03, 1.61395787e-04, -3.38921882e-03,
       -3.10740341e-02, 6.27417723e-03, 5.87856537e-03, -7.37830251e-03,
       1.00843860e-02, -9.99066606e-03, 1.30864568e-02, 1.92848127e-02,
       1.39177050e-02, -1.53667117e-02, -1.32209286e-02, 1.48610631e-02,
       -1.60497110e-02, -1.81236900e-02, -4.71295267e-02,
       -1.53227085e-02, -2.59140767e-02, -1.32837500e-02,
       -3.24922502e-02, 1.33802332e-02, 1.83480252e-02, -1.11251874e-02,
       -8.41263961e-03, -3.37575865e-03, 6.25728106e-04, 2.38212844e-04,
       1.36215100e-02, -1.44147109e-02, -2.34731305e-02, 8.60792212e-03,
       -1.07414601e-02, 3.17252497e-03, -1.87497456e-02, 1.79594697e-03,
       2.82232556e-02, 1.67341046e-02, -3.16779800e-02, 1.34999193e-02,
       2.15857755e-02, 9.50165442e-04, -6.84258016e-03, -1.43683231e+00 ]
