%YAML:1.0
mex_id_type_b: !!opencv-object-detector-hog
   winSize: [ 128, 80 ]
   blockSize: [ 16, 16 ]
   blockStride: [ 8, 8 ]
   cellSize: [ 8, 8 ]
   nbins: 9
   derivAperture: 1
   winSigma: 4.
   histogramNormType: 0
   L2HysThreshold: 2.0000000000000001e-01
   gammaCorrection: 1
   nlevels: 64
   signedGradient: 0
   SVMDetector: [ 1.92726385e-02, 3.43560963e-03, 2.37251744e-02,
       1.86275989e-02, -9.04188026e-03, -4.13612695e-03, -8.55241064e-03,
       -4.53079678e-03, 8.25562794e-03, 4.15575728e-02, 1.76981557e-02,
       1.04595907e-02, -2.19590459e-02, -2.56194305e-02, -1.40750837e-02,
       1.00202411e-02, -2.77598109e-03, 4.03192267e-02, -5.45496913e-03,
       2.89645828e-02, 4.02347669e-02, 1.76810455e-02, -3.90886590e-02,
       -3.69578460e-03, -2.41604224e-02, -1.70678794e-02, 3.61777446e-03,
       1.10989818e-02, 7.69339362e-03, 4.21022326e-02, 6.04607980e-04,
       -1.87077820e-02, 2.71726656e-03, 1.33391265e-02, 3.05505493e-03,
       8.06372613e-03, 2.66376249e-02, -1.58605855e-02, -7.84918666e-03,
       -2.66583599e-02, -5.44598512e-02, -3.46364230e-02, 1.42835267e-02,
       -1.08964061e-02, 4.14191373e-02, -1.81527026e-02, -4.44252528e-02,
       -3.26964352e-03, -1.32654409e-03, 4.14633803e-04, -2.75451057e-02,
       1.69422477e-02, -6.24189526e-03, 2.89972723e-02, -1.52801778e-02,
       -1.84859596e-02, -3.51813762e-03, -1.37831392e-02,
       -3.29116061e-02, 4.24218830e-03, 2.31206231e-02, 1.39816590e-02,
       1.09525789e-02, -2.86978912e-02, -2.36626323e-02, -1.84649657e-02,
       1.87794305e-02, 2.75669862e-02, 1.83091145e-02, 3.02295592e-02,
       -1.69507526e-02, -1.62710696e-02, -3.26702967e-02,
       -2.89775059e-02, -1.33043865e-03, 1.82669028e-03, -6.79480843e-03,
       -3.66496406e-02, 2.10078340e-02, -8.76422413e-03, -3.70788686e-02,
       4.78476402e-04, -4.49964171e-03, -3.11334035e-03, 2.77319439e-02,
       -6.64372463e-03, 1.08918743e-02, -5.40516339e-03, -2.11905707e-02,
       7.49609317e-04, -1.16323996e-02, -2.60840682e-03, -3.21189081e-03,
       8.88802984e-04, 1.01716863e-02, 2.69141980e-02, 3.26910913e-02,
       3.09006101e-03, -1.18227005e-02, 7.47081498e-03, -8.97015707e-05,
       2.16238722e-02, 2.88867988e-02, -5.67925256e-03, 3.10759153e-02,
       3.29581350e-02, 1.01580303e-02, 7.30170775e-03, 3.90079692e-02,
       1.40265319e-02, 3.09504941e-03, -1.19182458e-02, -1.58272423e-02,
       -1.62256081e-02, 1.00521669e-02, -1.75834447e-03, 3.86983939e-02,
       1.25494869e-02, -2.56534363e-03, 5.77185443e-03, -9.08871926e-03,
       -6.43712282e-03, -1.79316830e-02, -7.63450749e-04,
       -2.33761827e-03, 1.70610789e-02, 1.09223211e-02, 4.85955877e-03,
       1.49616459e-02, -4.12723375e-03, 1.68463448e-03, 2.31362577e-03,
       5.53274527e-03, 1.33599155e-02, 1.99053902e-02, -1.78518294e-05,
       1.90769252e-03, 1.18485489e-03, 2.55924612e-02, -1.58011876e-02,
       2.19838079e-02, 1.25404131e-02, -1.18638938e-02, -3.34410183e-03,
       -5.91234257e-03, -7.30676856e-03, -5.17566595e-03,
       -1.70542747e-02, 1.56482868e-02, -2.05745529e-02, 1.09965482e-03,
       1.20845791e-02, -7.72149954e-03, 4.51037427e-03, -1.99280912e-03,
       -1.63939577e-02, -2.43665767e-03, 9.47470218e-03, -3.33745740e-02,
       7.94416200e-03, -3.71750025e-03, 1.81503780e-02, -2.09529735e-02,
       -1.46264937e-02, -9.36803233e-04, 2.56306529e-02, 8.56444798e-03,
       3.61179039e-02, 1.68376304e-02, -8.26371275e-03, -1.82493143e-02,
       -1.66286547e-02, -4.04655654e-03, -9.61844716e-03, 2.82652564e-02,
       -1.78801566e-02, 1.78553928e-02, -7.30315177e-03, -8.16941168e-03,
       -5.50532201e-03, 1.50529202e-02, -3.25258193e-03, -6.57505961e-03,
       -1.74681805e-02, 1.00967418e-02, -8.88782833e-03, 1.14514129e-02,
       1.30053721e-02, 2.63602752e-02, -1.09781129e-02, -2.06697099e-02,
       -1.21076694e-02, -2.52166316e-02, 3.69119504e-03, -8.09221715e-03,
       3.19531932e-03, -2.28979770e-05, 9.43526719e-03, -5.02939196e-03,
       1.35161902e-03, 4.72393073e-03, 2.62612700e-02, -8.98076780e-03,
       8.26770533e-03, -1.70099770e-03, 3.58013785e-04, 1.15516111e-02,
       -5.84569108e-03, -6.05043140e-04, 3.04432865e-03, 2.45654164e-03,
       -1.53635731e-02, 4.80214553e-03, -4.50073043e-03, -8.98748823e-03,
       1.85635022e-03, -4.30908147e-03, -6.09321985e-03, 8.80193431e-03,
       6.62963837e-03, 2.30254401e-02, -1.27706584e-02, 3.09087359e-03,
       7.12750992e-03, 2.47456934e-02, -8.07708781e-03, 9.32776276e-03,
       1.35306641e-02, -3.71430791e-03, 3.47526697e-03, -8.82334821e-03,
       8.65474530e-03, 3.78857856e-03, 1.11748148e-02, 3.86803108e-03,
       1.23232165e-02, -2.06352241e-04, 1.61393043e-02, 8.79544939e-04,
       1.03787973e-03, 5.05280821e-03, 2.09453143e-03, 3.20214243e-03,
       -3.50096524e-02, -2.22265546e-04, -1.39505807e-02, 7.92097580e-03,
       -1.22363139e-02, 1.08912410e-02, 1.75426714e-02, 3.55561817e-04,
       -2.22445671e-02, -1.05497893e-02, 9.40884557e-03, 2.38638595e-02,
       2.75791227e-03, 1.81798115e-02, 4.64410614e-03, 1.61002148e-02,
       -1.85002876e-03, -3.52855772e-04, -1.18844621e-02,
       -5.89579018e-03, -2.60824105e-04, 2.51733121e-02, 1.89443994e-02,
       1.75080746e-02, -1.55824318e-03, 4.75996232e-04, 6.70547830e-03,
       -3.14864852e-02, -1.05466293e-02, -2.65462277e-03, 3.17128678e-03,
       1.53492009e-02, 9.50341858e-03, 1.23565318e-02, -8.14248994e-03,
       -1.99352875e-02, -2.14573294e-02, -1.42238215e-02,
       -5.56558091e-03, 3.76443379e-02, 1.65784173e-02, 2.27484340e-03,
       -9.65804979e-03, -2.22528558e-02, -1.95452757e-02,
       -3.35364267e-02, -1.99592840e-02, -1.41993407e-02,
       -1.65183041e-02, 1.04079610e-02, -4.24939580e-03, 6.54083630e-03,
       -1.95754087e-03, -1.01046711e-02, -2.03277040e-02, 1.55283592e-03,
       1.97826214e-02, -3.01388279e-02, -1.82011239e-02, 2.39486480e-03,
       1.57374591e-02, 3.02892290e-02, 3.55581963e-03, -1.64149236e-02,
       -1.08433487e-02, -2.30079656e-03, -2.20609270e-03, 9.73780733e-03,
       -3.30613181e-02, -3.35116535e-02, -7.46030686e-03,
       -2.98826490e-02, -6.88399607e-03, 4.09295643e-03, -4.26023034e-03,
       -2.91339047e-02, 3.16826999e-03, 7.73775484e-03, -2.10581552e-02,
       -1.12525774e-02, -1.52331814e-02, -7.07925530e-03, 3.48097682e-02,
       4.58353125e-02, 1.63780320e-02, -2.17698328e-02, -1.27069270e-02,
       -1.10290619e-02, -7.71512836e-03, 5.87562448e-04, 1.20338681e-03,
       1.30513152e-02, 4.21156213e-02, 1.69478673e-02, -2.69170552e-02,
       -1.81287876e-03, 6.30167965e-03, 1.27103496e-02, -1.62342452e-02,
       -8.55230819e-03, 8.05424340e-03, 2.28938200e-02, 2.87297666e-02,
       -1.90144067e-03, -1.49308490e-02, 2.48069912e-02, 2.30862759e-02,
       -3.30806617e-03, -1.48439966e-02, 2.73483386e-03, 2.16587987e-02,
       1.07966326e-02, -2.07960960e-02, 9.17583238e-03, 3.20766717e-02,
       4.77381088e-02, -1.43566718e-02, 1.19198696e-03, 9.07876156e-03,
       4.73607040e-04, 1.20544189e-03, -3.51247601e-02, 6.16193097e-03,
       2.81422287e-02, 1.89333465e-02, 6.07500877e-03, -9.61579476e-03,
       8.54165852e-03, -1.23188216e-02, 9.00629151e-04, -1.86991610e-03,
       9.14108660e-03, 3.94350402e-02, -1.95555128e-02, -2.15837378e-02,
       4.03831387e-03, 1.78451166e-02, 6.23134244e-03, 1.00661097e-02,
       -2.22645830e-02, 1.38733722e-02, 3.88397798e-02, 3.11557893e-02,
       2.46361108e-03, -1.23031577e-03, 3.88564505e-02, 6.96818717e-03,
       1.87811982e-02, -7.42043415e-03, -2.42105331e-02, 2.29553208e-02,
       2.26974133e-02, -1.64751075e-02, 5.23666106e-03, 2.40653269e-02,
       2.74684597e-02, 2.21663825e-02, 1.17009096e-02, 2.20113695e-02,
       1.67061239e-02, -6.60249358e-03, -2.43364647e-02, 8.47319979e-03,
       1.07930470e-02, 2.20372714e-02, 3.17517295e-02, -3.02378982e-02,
       1.69926193e-02, 2.07447298e-02, 1.07875550e-02, 3.48924682e-03,
       -3.79717629e-03, 3.30595002e-02, 1.29728802e-02, 1.47794525e-03,
       5.53826196e-03, -1.97548959e-02, 2.80619087e-03, -7.84489326e-03,
       -3.08764651e-02, -3.87221552e-03, -8.70129000e-03,
       -3.35498643e-03, 4.19927901e-03, -1.09419823e-02, -8.35887156e-03,
       3.17870453e-03, -3.94647243e-03, -1.84516003e-03, 2.27487311e-02,
       8.56689550e-03, 2.46248692e-02, 7.54550229e-06, 1.14604821e-02,
       7.36622838e-03, 1.53955566e-02, 1.29794832e-02, 1.50948372e-02,
       1.41998520e-02, 4.68832068e-03, 1.67980120e-02, 2.62201801e-02,
       5.38734160e-03, 2.60618106e-02, 1.19800270e-02, 8.56600981e-03,
       1.69367325e-02, 2.78904215e-02, -5.99116506e-03, -2.87695043e-02,
       -4.49239798e-02, 2.13967320e-02, -2.69338153e-02, -2.11433717e-03,
       -5.81329979e-04, 2.72861701e-02, 1.43066877e-02, 1.66045572e-03,
       -2.45678611e-03, -3.36263888e-02, 1.11497967e-02, -3.22966762e-02,
       -1.34394644e-02, -1.38427755e-02, 7.90305622e-03, -1.91060901e-02,
       -1.73934940e-02, 1.15238940e-02, 1.41083561e-02, 3.50539461e-02,
       1.12118768e-02, 7.53614679e-03, -1.49467224e-02, -1.16422661e-02,
       8.59985594e-04, -3.08027695e-04, 6.55555027e-03, 1.99145060e-02,
       -1.09434230e-02, 2.60011721e-02, 4.36945958e-03, -9.78190452e-03,
       4.88610938e-03, -4.77167265e-03, -1.83035731e-02, -1.12294508e-02,
       -2.75711790e-02, 2.84593999e-02, -1.74121372e-02, -2.02345103e-02,
       -1.31865516e-02, -5.33975428e-03, 6.59053912e-03, -2.99197007e-02,
       -2.10487079e-02, -9.13429540e-03, -2.16972046e-02, 2.03376897e-02,
       8.15459061e-03, -2.90152188e-02, 2.23884378e-02, -1.16623733e-02,
       -1.83057808e-03, 2.07874104e-02, 1.64209418e-02, 2.58275736e-02,
       -5.27221197e-03, 3.97592643e-03, -2.77597201e-03, 2.43323622e-03,
       -7.80992303e-03, 4.96574631e-03, 9.10868868e-03, -1.38755236e-02,
       -5.71432291e-04, -1.14626177e-02, -2.96396408e-02,
       -7.09993578e-03, 1.54325785e-03, -1.62269140e-03, -1.45742642e-02,
       5.09950612e-03, 2.95058568e-03, -5.24709933e-03, 2.12627389e-02,
       1.79332085e-02, -2.32351460e-02, 9.03103035e-03, 1.29508814e-02,
       -4.52186121e-03, 2.14934070e-03, -6.43683318e-03, -3.20055038e-02,
       6.65129861e-03, -1.15872053e-02, -1.10991467e-02, 1.76029038e-02,
       -2.38911551e-03, 7.98235834e-03, -1.41997100e-03, 2.86920671e-03,
       3.20246331e-02, -3.49433976e-03, -7.07410090e-03, 2.98747024e-03,
       -2.35801539e-03, -2.39328090e-02, -6.83147833e-03,
       -2.20057312e-02, -1.07897548e-02, 1.60429813e-02, -1.38467485e-02,
       -8.31350591e-03, -6.49380544e-03, -2.64928453e-02, 1.06077595e-02,
       1.70516651e-02, 1.58235598e-02, 2.60661729e-02, 1.16573870e-02,
       1.82802137e-02, 2.84217880e-03, -5.81486942e-03, -1.06119434e-03,
       -1.35996183e-02, -1.00339577e-02, -1.56929512e-02, 1.07864868e-02,
       6.73231739e-07, 1.66068170e-02, -9.35613457e-03, -1.12790642e-02,
       -6.32855901e-03, 1.50596043e-02, 8.93271808e-03, -9.58758965e-03,
       -1.05332527e-02, 3.00362203e-02, -2.57004937e-03, -9.98004223e-04,
       5.65613853e-03, 4.07484506e-04, 2.78223138e-02, 5.05251018e-03,
       1.32964244e-02, 4.49231185e-04, 1.44736618e-02, -1.55167412e-02,
       1.77903548e-02, 1.04967523e-02, 1.33593567e-02, -8.54956917e-03,
       5.63842664e-03, 1.23242876e-02, 5.12897875e-03, 9.79818869e-03,
       2.54848860e-02, -5.07790828e-03, -1.24906423e-02, 1.05108097e-02,
       3.26575078e-02, 1.67609379e-02, 9.29725077e-03, -3.15205613e-03,
       -1.50962016e-02, -7.58507801e-03, 1.06520969e-02, -2.00705081e-02,
       2.97230892e-02, 1.58236157e-02, -1.05120707e-02, 4.89408104e-03,
       -7.90273678e-03, 1.04931463e-02, -7.39913667e-03, -3.99062963e-04,
       4.07379167e-03, 6.08786521e-03, -1.26775762e-03, 4.67004022e-03,
       1.52607737e-02, -1.84429504e-04, -4.26043011e-03, 2.46038437e-02,
       -8.34316481e-03, -2.75295228e-03, -1.29174665e-02, 2.81528309e-02,
       -3.85472272e-03, -2.23554093e-02, -1.64446495e-02,
       -8.70675407e-03, -2.84267236e-02, 1.37673663e-02, -2.48391293e-02,
       2.25361027e-02, -9.92305856e-03, -6.50997506e-04, 3.79764475e-03,
       8.88608862e-03, -1.30973728e-02, 9.16328840e-03, -1.22221895e-02,
       -1.07711488e-02, -1.41273653e-02, -1.22387875e-02, 4.12552664e-03,
       1.54753523e-02, 1.61772892e-02, 5.62584959e-03, -1.59193820e-03,
       2.10865606e-02, 1.35182850e-02, 4.04498680e-03, 3.70557769e-03,
       5.13530010e-03, -3.57891712e-03, -1.40455496e-02, -4.59516868e-02,
       -1.48032159e-02, 1.86548773e-02, 3.79370116e-02, -1.10862777e-02,
       -2.42827591e-02, -2.71597151e-02, -2.69169770e-02,
       -2.21989048e-03, 1.72432810e-02, 3.35113294e-02, 8.07856489e-03,
       2.23065391e-02, 1.99834686e-02, 2.88514495e-02, 1.43915629e-02,
       6.49693096e-03, 6.38187071e-03, -2.28740219e-02, -2.64928630e-03,
       -2.32065795e-03, 1.04547944e-02, 4.30129357e-02, 2.50149723e-02,
       3.86473313e-02, 1.70874745e-02, 5.16827544e-03, -4.70293052e-02,
       -1.63733345e-02, -5.77344978e-03, 4.96767648e-03, -2.28441064e-03,
       -8.27667862e-03, 4.10457589e-02, 1.82708912e-02, -1.15483336e-03,
       -3.10878083e-02, -2.22355127e-02, -8.39847699e-03,
       -6.22835755e-03, -8.20953026e-03, 5.92891127e-02, 4.44792509e-02,
       3.45759764e-02, 8.69912468e-03, -3.81834768e-02, -2.26598643e-02,
       -8.44480749e-03, 1.72058195e-02, 2.69039180e-02, 2.01696958e-02,
       3.54786105e-02, -5.93733415e-03, -2.03537680e-02, 1.67527460e-02,
       -2.07555145e-02, -4.31315973e-03, 1.74957365e-02, 2.77285799e-02,
       -2.43667304e-03, 1.24812024e-02, 1.25229256e-02, 2.80095879e-02,
       3.99924591e-02, 7.36727985e-03, -1.45220049e-02, -4.84468183e-03,
       -1.00312810e-02, 2.40987656e-03, 2.43044831e-03, 1.90176517e-02,
       5.29097132e-02, 2.02380195e-02, 3.53013612e-02, 9.03275050e-03,
       2.05639508e-02, 1.53594315e-02, 1.03078838e-02, -2.09866161e-03,
       -3.67113942e-04, -1.47653585e-02, 3.45559837e-03, -1.75213930e-03,
       5.69528667e-03, 7.27478927e-03, 2.27478426e-02, -3.42183076e-02,
       -1.10572409e-02, 4.98050265e-03, -8.57559126e-03, 1.71823725e-02,
       -1.96884479e-02, -9.41721909e-03, -2.46398104e-03,
       -4.07428155e-03, 1.56744551e-02, -8.23168783e-04, -6.42375648e-03,
       8.44366942e-03, 4.56154719e-02, 1.00959493e-02, 1.98105127e-02,
       2.82367365e-03, 2.41965391e-02, 2.09968351e-02, 4.34360793e-03,
       1.49857514e-02, 1.30818430e-02, 3.33154351e-02, 6.69866707e-03,
       7.17279408e-03, 3.47993872e-03, 2.29969975e-02, -1.71214025e-02,
       -6.06427994e-03, 1.00109456e-02, -1.42341265e-02, 9.29342769e-03,
       -3.20570767e-02, 4.31342004e-03, -4.85972594e-03, -3.51656508e-03,
       -3.73664370e-04, -3.29971965e-03, 1.28408456e-02, -6.32953411e-03,
       2.71369740e-02, -3.03021874e-02, -9.26101487e-03, -1.24600353e-02,
       -1.10546807e-02, -1.36042669e-04, -8.49710591e-03,
       -9.30573139e-03, -2.11804826e-02, 5.53855672e-02, -2.89244372e-02,
       -1.36071332e-02, -3.45208053e-03, 1.29764127e-02, 2.28657331e-02,
       -1.74098890e-02, -1.79189034e-02, 1.26310224e-02, 9.44588240e-03,
       1.29870977e-02, 4.01199516e-03, -2.09065080e-02, 2.62791011e-02,
       -1.15929134e-02, -6.50056917e-03, -2.34445632e-02,
       -4.50647101e-02, 2.62947031e-03, -4.19990271e-02, -1.80091783e-02,
       -1.07367523e-02, -2.45714802e-02, 2.35747453e-02, 9.33975447e-03,
       -2.39166245e-02, 1.07874377e-02, -1.54106738e-02, 9.79022356e-04,
       5.63624501e-03, -4.53701476e-03, 6.37680851e-03, -1.59806153e-03,
       -2.90015955e-02, -9.33116209e-03, -1.82525963e-02, 2.23131534e-02,
       -7.28506595e-03, 1.15287723e-02, -2.27811113e-02, 3.99557594e-03,
       1.33914715e-02, -1.12699624e-02, 1.04143312e-02, -1.05790570e-02,
       -7.49817537e-03, -5.35904942e-03, 4.95342631e-03, -6.65829238e-03,
       -7.94550963e-03, 2.89578247e-03, -1.27966208e-02, -1.34082511e-03,
       -2.24096421e-02, 1.17608262e-02, -2.52358057e-02, 3.76938167e-03,
       -7.72825163e-03, 1.24369198e-02, -9.05262027e-03, -1.45900995e-02,
       7.19257351e-03, -1.64556876e-02, -2.15436779e-02, -9.10316873e-03,
       -1.45670138e-02, 8.00206835e-05, -3.41869844e-03, -3.32060712e-03,
       -3.86260479e-04, -2.36789719e-03, -2.49668909e-03, 3.48576941e-02,
       1.04755992e-02, 6.92060916e-03, 1.44999637e-03, -1.15790814e-02,
       -1.23912990e-02, -5.22294408e-03, -1.65986884e-02,
       -3.79052572e-02, 1.43913729e-02, -1.90142577e-03, -3.05375997e-02,
       2.14632787e-03, -1.58785551e-03, -1.80049837e-02, -2.34618038e-03,
       1.04669610e-03, -3.64467059e-03, 1.22272968e-02, 2.27623470e-02,
       -8.90964083e-03, 3.59977502e-03, -1.04449447e-02, 1.75069440e-02,
       5.25557715e-03, -2.58962177e-02, -8.31690338e-03, 1.41392613e-03,
       5.89063717e-03, -2.18626987e-02, -6.13775197e-03, 6.35647564e-04,
       1.76279759e-03, 4.68653301e-03, 1.04082031e-02, -5.54428576e-03,
       2.27733273e-02, 5.06928703e-03, -1.12451864e-02, 1.14004025e-02,
       1.90919321e-02, 1.79865714e-02, 8.05542432e-03, -6.23909698e-04,
       -1.52633730e-02, 4.82811406e-03, -1.14276838e-04, 1.29819335e-02,
       -2.09070495e-04, 4.36454304e-02, 1.08554838e-02, 7.26498989e-03,
       -3.58940248e-04, 2.67403591e-02, -8.97101220e-03, 3.59580442e-02,
       -1.09444857e-02, -2.78030825e-03, 7.90023617e-03, -1.45244561e-02,
       -8.88565835e-03, -1.41510945e-02, 2.55894009e-02, -2.20628530e-02,
       3.52039859e-02, -2.15241476e-03, 1.08235516e-02, 1.17698405e-02,
       3.04355714e-02, 9.38772969e-03, -2.24763504e-03, -2.08281931e-02,
       3.39904195e-03, -9.13851801e-03, 1.21642323e-02, 1.20966171e-03,
       1.59678627e-02, -1.51069695e-02, 8.25775962e-04, 7.75957899e-03,
       -3.07987793e-03, 6.99948380e-03, 3.02309729e-02, -5.24133584e-03,
       5.71435643e-03, -1.44627392e-02, 9.97438375e-03, 4.35970305e-03,
       -2.03345111e-03, -1.28419517e-04, -4.86832717e-03, 2.17060298e-02,
       1.44269085e-03, 1.52322613e-02, 6.66804495e-04, -1.46601396e-02,
       -5.98185696e-04, 3.80212115e-03, -2.22195070e-02, -5.97360078e-03,
       9.18997452e-03, -7.89090618e-03, 8.87717213e-03, -1.27339258e-03,
       -2.96334084e-02, -2.36301050e-02, -3.58636789e-02,
       -2.36241408e-02, 5.33093046e-03, -1.25025120e-02, 1.60710455e-03,
       1.74968372e-04, -1.66733619e-02, 3.14330012e-02, -6.81225676e-03,
       -1.20321866e-02, -4.30671964e-03, -1.27832368e-02,
       -1.47753935e-02, -9.95656941e-03, 9.84288752e-03, 2.59659253e-02,
       1.02260727e-02, 4.76189307e-04, -2.12438591e-02, -9.24498774e-03,
       2.88090799e-02, -1.07473442e-02, -1.58667862e-02, -9.91193578e-03,
       1.07537853e-02, 3.97496521e-02, 8.85676127e-03, -1.05589433e-02,
       1.03506621e-03, 1.75940376e-02, 5.55918412e-03, -9.84661281e-03,
       4.41253884e-03, 4.60929722e-02, 2.84897834e-02, 2.77484041e-02,
       2.19457150e-02, -3.51018645e-03, -2.23338827e-02, -2.00966522e-02,
       -2.34540198e-02, -9.68593173e-03, -2.77032377e-03, 4.43936326e-03,
       9.80044156e-03, -8.26310087e-03, -3.30233276e-02, 5.16573992e-03,
       -1.95312500e-02, -3.34062101e-03, 1.01176696e-03, -6.80175424e-03,
       3.53157744e-02, 1.43059194e-02, 7.65622035e-03, 1.67496037e-02,
       1.17603280e-02, 3.04046776e-02, 1.92605276e-02, 1.62158851e-02,
       3.27961780e-02, -6.03161934e-05, 1.22597720e-03, -2.70672655e-03,
       -3.93057754e-03, 3.21267843e-02, 1.87489595e-02, 1.50909647e-02,
       6.28442410e-03, 7.57010980e-03, -5.16241184e-03, -4.61924216e-03,
       4.49336506e-03, 1.87048484e-02, 3.00088339e-02, 1.09973745e-02,
       2.30397121e-03, 1.03352945e-02, 2.92654894e-03, -1.31636141e-02,
       4.71878517e-03, -3.50665255e-03, -1.58832092e-02, 6.02343585e-03,
       -1.15996115e-02, 1.54155132e-03, 4.06682538e-03, 1.80904455e-02,
       1.11895893e-02, 1.38855893e-02, 1.05366725e-02, 3.67098302e-02,
       4.99365106e-03, 2.98292842e-02, 8.59552994e-03, 1.05086239e-02,
       1.12646157e-02, -7.23377615e-03, 1.69999488e-02, 2.28416361e-03,
       3.50536569e-03, 2.22476125e-02, -1.80150010e-02, 3.06053087e-03,
       -1.58210110e-03, -2.26744432e-02, -2.01076060e-03, 9.79223941e-03,
       1.69649925e-02, -5.05380007e-03, 7.13584386e-03, 1.64639130e-02,
       7.25755095e-03, 1.81159202e-03, 1.68754105e-02, 1.51869077e-02,
       -1.07558117e-04, 1.95265636e-02, 2.83885505e-02, 3.79523896e-02,
       1.02067478e-02, 2.92478548e-03, 2.32286076e-03, 1.85972471e-02,
       7.16423290e-03, 1.22167058e-02, -1.38865819e-03, -1.84115190e-02,
       -2.11773384e-02, -2.56093498e-03, 1.33494548e-02, 2.65523512e-03,
       5.91557892e-03, -1.84899068e-03, 1.15870349e-02, 3.22581525e-03,
       2.65417038e-03, 5.78309363e-03, -6.84897648e-04, 1.36937238e-02,
       -1.43161730e-03, -2.21514096e-03, -1.02707511e-02,
       -9.09418426e-03, -1.39608551e-02, -2.76287254e-02, 2.10221112e-02,
       -3.96521278e-02, -1.88857336e-02, -1.48047013e-02,
       -3.44979726e-02, 4.86201085e-02, 1.81759484e-02, 1.64249707e-02,
       4.03024033e-02, 1.74393207e-02, 1.89491529e-02, 4.73944284e-03,
       -5.99415926e-03, 2.74608117e-02, -1.13193886e-02, -8.56339838e-03,
       -2.50232555e-02, -4.69816290e-02, -1.99306943e-02,
       -3.60918865e-02, 8.55813362e-03, -7.35647837e-03, -1.94729157e-02,
       3.06291915e-02, -1.35561302e-02, -3.01417988e-03, 1.93156637e-02,
       3.51472050e-02, 3.18666622e-02, 1.31613119e-02, -1.04703624e-02,
       2.57719904e-02, 1.34637095e-02, -2.03360966e-03, -3.88628396e-04,
       -1.55333588e-02, 2.37807091e-02, -3.13139334e-02, 1.06677283e-02,
       -8.59023165e-03, -2.91739916e-03, -1.40757235e-02,
       -2.97898613e-02, 1.30600454e-02, -5.06211445e-03, -5.63431624e-03,
       4.49926453e-03, 2.28518574e-03, 8.60659056e-04, 1.84284411e-02,
       -4.53236280e-03, -1.90964751e-02, -5.23373298e-03,
       -1.96466614e-02, 2.18055453e-02, -1.23206144e-02, 8.11084732e-03,
       -1.22404946e-02, -1.36662815e-02, -2.63321446e-03,
       -1.85162909e-02, -1.63015851e-03, -1.10101665e-03,
       -1.46118291e-02, -1.37386760e-02, 2.46507145e-04, -9.43486579e-03,
       8.15500319e-03, -1.32095851e-02, -9.97332204e-03, 2.16388120e-03,
       -1.14040179e-02, 4.21267822e-02, -7.59009199e-05, -4.61121090e-03,
       8.81058909e-03, 9.92191304e-03, 1.39373466e-02, -9.59014334e-03,
       -2.84611918e-02, -1.97028574e-02, 8.94425809e-03, 7.99162220e-03,
       -1.28508070e-02, -2.92183540e-04, 6.20086957e-03, -2.16759997e-03,
       5.40261855e-03, 5.68276318e-03, 8.66602920e-03, 2.12576892e-02,
       -1.04821101e-02, -2.04779697e-03, 9.12163756e-04, 1.73930079e-02,
       2.46031098e-02, -3.29875760e-03, -1.93899553e-02, -7.95185007e-03,
       -7.66898273e-03, 8.02776404e-03, -1.21551892e-02, 8.61880326e-05,
       2.11511664e-02, -8.97298392e-04, -1.80226173e-02, -1.41352322e-02,
       2.88290139e-02, 1.52316839e-02, 3.78005654e-02, -3.48288217e-03,
       3.00963363e-03, -6.77691028e-03, -1.29403472e-02, -6.91441353e-03,
       -3.94278066e-03, 3.14616747e-02, -2.32686964e-03, 1.53682940e-02,
       -1.42899342e-02, 6.03463035e-03, -2.35453472e-02, 1.23567292e-02,
       -1.47059485e-02, -1.74972210e-02, 2.51341127e-02, 2.98519759e-03,
       3.64974956e-03, -5.95139433e-03, 5.71438437e-03, -1.30289271e-02,
       1.48343388e-04, -1.44338021e-02, -2.46567987e-02, 2.60891970e-02,
       -2.19066944e-02, 5.01189439e-04, 2.05747113e-02, 1.01932604e-02,
       3.41696851e-03, -6.55422639e-03, -5.78329258e-04, 5.64362993e-03,
       8.24246649e-03, 7.12982053e-03, 2.19535735e-02, -1.24767944e-02,
       9.67959780e-03, -9.33489855e-03, -1.13794552e-02, 5.19474084e-03,
       7.16886437e-03, -2.14770231e-02, -2.20191618e-03, 8.16565705e-04,
       -8.20646761e-04, 2.31149606e-02, -4.98143956e-03, -5.78071550e-03,
       -1.33860344e-02, 2.35708500e-03, 8.68306309e-03, -1.99798439e-02,
       3.54593247e-02, -7.19805364e-04, -1.46306464e-02, 8.34629871e-03,
       -3.27043682e-02, -7.71488482e-03, 1.08132220e-03, 1.39290001e-02,
       -3.34741059e-03, 4.28774534e-03, -2.42898203e-02, -1.53416330e-02,
       -1.39814857e-02, -2.74637975e-02, -2.71097128e-03,
       -1.54985450e-02, -8.35985504e-03, 5.19237444e-02, -1.35480529e-02,
       -2.64485981e-02, -1.43139120e-02, -2.94236355e-02,
       -8.62506498e-03, -1.14315012e-02, -2.21389979e-02, 2.93496321e-03,
       3.26953121e-02, -4.79111477e-04, -1.73224192e-02, -1.90936364e-02,
       -1.47792418e-03, 6.71296846e-03, -4.03007679e-03, -1.41551476e-02,
       -7.74538005e-03, 2.12327633e-02, -1.05740838e-02, -2.96511259e-02,
       -2.13248953e-02, -1.07009821e-02, -1.32579275e-03,
       -6.60179788e-03, 2.41600923e-04, 2.53999624e-02, -1.14301220e-02,
       -1.60704053e-03, -1.89137440e-02, -9.45463590e-03, 1.19746458e-02,
       -8.41509271e-03, 1.68578909e-03, -1.06295245e-03, -1.66350452e-03,
       2.93685216e-02, 1.09325163e-02, 6.42934488e-03, 3.84257059e-03,
       -4.10227990e-03, -2.08516419e-02, 7.04357866e-03, -1.06520369e-03,
       -2.32477225e-02, 1.82653219e-02, -9.93789453e-03, -2.48304801e-03,
       -4.35377797e-03, -1.38532370e-02, -9.21851210e-03, 1.85180604e-02,
       1.44445002e-02, 2.39512622e-02, -2.27052383e-02, 1.48934489e-02,
       1.06677506e-02, 2.80230399e-02, 8.00752174e-03, -9.55057621e-04,
       3.06872614e-02, 4.61415295e-03, -1.55063607e-02, -1.21351136e-02,
       1.18855445e-03, 1.62009697e-03, 9.68622137e-03, -8.59954488e-03,
       -4.94276173e-04, 1.40687926e-02, 2.81363204e-02, 2.86715459e-02,
       3.50170732e-02, 4.68696356e-02, 2.84475144e-02, 2.66708201e-03,
       -4.97026311e-04, -1.94566716e-02, -4.67176875e-03, 6.67891093e-03,
       -7.61676906e-03, -4.35929326e-03, -1.91285238e-02, 4.36245417e-03,
       -2.94392207e-03, -1.81846563e-02, -1.68156798e-03, 2.37847194e-02,
       2.79245563e-02, 3.73667888e-02, 7.00404635e-03, 4.14263047e-02,
       1.89557932e-02, -4.51201480e-03, 6.17690152e-03, -3.60450484e-02,
       -7.20155658e-03, -7.11803965e-04, -1.72022842e-02, 5.40244114e-03,
       -3.11782006e-02, -2.04026271e-02, -1.87569787e-03,
       -8.70912708e-03, 8.49632721e-04, 2.30008978e-02, 1.90040208e-02,
       -6.10862626e-04, -9.40149464e-03, -2.43848376e-02, 4.86620981e-03,
       8.80969036e-03, -4.72490955e-03, -8.81433859e-03, 2.43750792e-02,
       1.56454500e-02, 8.81024171e-03, 2.32607150e-03, 4.85053426e-03,
       6.65425032e-04, -8.28475971e-03, -2.05429383e-02, 3.84884595e-04,
       1.39975008e-02, 5.47465077e-03, -6.70915237e-03, -2.38392744e-02,
       -3.21531622e-03, 4.18749638e-03, 2.86905747e-02, 1.51221501e-02,
       6.40107738e-03, 1.63288489e-02, 7.84520619e-03, 6.54570106e-03,
       1.75785925e-02, 1.85417980e-02, 2.85976194e-03, 9.51442495e-03,
       -1.12506365e-02, -9.79940966e-03, 5.00235334e-03, 3.84622690e-04,
       -2.28576399e-02, -1.87769532e-02, -1.90846883e-02,
       -2.86160735e-03, -4.49589454e-03, -1.10023394e-02, 2.78340802e-02,
       1.09147429e-02, 4.29896498e-03, 3.21709514e-02, 3.09661459e-02,
       5.02251461e-02, 3.11035309e-02, 5.73848654e-03, 8.47681332e-03,
       1.38104649e-03, -4.64711431e-03, -1.31202023e-02, -4.44279462e-02,
       5.96394157e-03, -3.69901694e-02, -1.03868144e-02, 1.57325901e-03,
       -1.61130000e-02, 3.54254469e-02, 1.13966754e-02, -7.94390868e-03,
       1.41715165e-02, 8.50841217e-03, 1.77134536e-02, 2.59679146e-02,
       2.21928563e-02, 1.74188036e-02, 5.23006078e-03, -8.41225497e-03,
       -3.37714888e-03, -1.08515350e-02, 3.05465236e-02, -1.54120164e-04,
       1.26799000e-02, -3.34495772e-03, -1.46045294e-02, 1.56565756e-02,
       4.51777922e-03, 1.66337099e-03, 1.30209308e-02, 7.50470674e-04,
       -6.21835934e-03, -6.50187442e-03, -1.23742465e-02, 9.55317263e-03,
       1.93019472e-02, -1.44019239e-02, -9.87526961e-03, -3.71635295e-02,
       2.73224106e-03, -2.46514659e-02, -5.02171181e-03, 6.12783525e-03,
       4.23325779e-04, -4.07125149e-03, 4.01438074e-03, -9.67610441e-03,
       -2.33669858e-03, -1.22656990e-02, -6.20212406e-03,
       -5.73121151e-03, -2.09801481e-03, 1.05173374e-03, -1.26711912e-02,
       1.27135525e-02, 2.49369978e-03, 1.35936998e-02, 3.46774720e-02,
       -5.82699152e-03, -4.28797863e-03, -8.14908277e-03,
       -1.65583957e-02, 1.13996014e-03, 6.31569233e-03, 1.94601645e-03,
       1.08607365e-02, 7.25385407e-03, 2.17514858e-02, 6.15606038e-03,
       3.43179470e-03, -2.75679003e-03, -2.33983006e-02, -5.72266639e-04,
       -2.40893313e-03, -1.44997751e-03, -5.14623476e-04,
       -3.05219926e-03, 6.26645191e-03, 2.04214919e-03, -1.85468830e-02,
       1.63058878e-03, -7.02409248e-04, 6.35800697e-03, 1.00830700e-02,
       -2.05325056e-02, 3.78707820e-03, 4.29944415e-03, 6.05148450e-03,
       -7.76340440e-03, 2.47658533e-03, -4.44726693e-03, 4.88681206e-03,
       2.88536586e-02, 3.35841700e-02, 4.43695765e-03, -5.95958764e-03,
       -6.31202338e-03, -1.98444165e-02, -1.03350794e-02, 1.32154208e-02,
       4.87676298e-04, 3.34200147e-03, -9.21738427e-03, 4.25192388e-03,
       2.57975142e-02, 5.24696754e-03, 8.76450352e-03, 7.10723363e-03,
       3.53886746e-03, 3.63857253e-03, 1.19514009e-02, 7.14479759e-03,
       -4.02187835e-03, -1.64536703e-02, -1.16762286e-02, 7.14027369e-03,
       1.43298856e-03, 8.16620048e-03, 6.43770257e-03, -3.25346626e-02,
       -2.06438471e-02, -1.37461349e-02, 1.22966934e-02, 6.13581855e-04,
       2.24688314e-02, -3.25315110e-02, -2.98176613e-03, -9.95117333e-03,
       -3.89380427e-03, 8.21703020e-03, 1.55662270e-02, 2.12778673e-02,
       -1.59360487e-02, 2.79656006e-03, -1.95693113e-02, 1.00202253e-02,
       1.43635711e-02, 1.76359192e-02, 8.46720021e-03, -3.94532131e-03,
       1.04641421e-02, -6.72083534e-03, -5.31382672e-03, -1.05984239e-02,
       2.89949559e-04, 2.88478797e-03, -2.66745072e-02, 1.13299675e-02,
       -1.47028863e-02, 3.84198152e-03, -9.37242340e-03, 6.52923994e-03,
       -1.11363912e-02, 1.69329699e-02, 9.29267984e-03, -2.53896834e-03,
       3.56718805e-03, 9.07642208e-03, 1.84224155e-02, 1.03850076e-02,
       -2.32481887e-03, 4.51565208e-03, -8.97414889e-03, -2.33616401e-02,
       -1.70691609e-02, 4.07923721e-02, -2.61472054e-02, -2.02797465e-02,
       -2.74894871e-02, -2.61698365e-02, 1.94486398e-02, -1.00620352e-02,
       -1.15888764e-03, -5.67091117e-03, 3.36580467e-03, -2.64619868e-02,
       -2.06553619e-02, -1.09220983e-03, 7.15709431e-03, -1.32502131e-02,
       -1.02871591e-02, -3.36654298e-02, -1.12731699e-02, 2.65089851e-02,
       -2.87051965e-03, 1.35972407e-02, -2.03947164e-02, -1.95573196e-02,
       2.21491419e-02, -3.90613393e-04, 9.20804031e-03, -4.68721008e-03,
       -1.14196204e-02, -1.42161464e-02, -1.06458012e-02,
       -1.62769184e-02, 1.20322574e-02, -1.24383736e-02, 1.28677925e-02,
       1.63067617e-02, 1.38773574e-02, 1.70465186e-02, 1.24346595e-02,
       2.87916977e-02, 2.78107319e-02, -7.26412376e-03, -2.05099415e-02,
       2.23894883e-02, -1.44531541e-02, -2.19331998e-02, 1.51109835e-02,
       -2.85311160e-03, 1.79076400e-02, 3.04444153e-02, -1.28046349e-02,
       -1.21042142e-02, 4.49792342e-03, 3.02143715e-04, -5.48542617e-03,
       7.42527482e-04, 1.22517627e-02, 2.15881616e-02, 1.70879010e-02,
       -1.19339954e-03, -1.72476340e-02, -1.47544770e-02,
       -2.57461313e-02, -2.25216169e-02, 1.84626493e-03, -1.76374149e-03,
       1.60799492e-02, 2.00783964e-02, 8.54474679e-03, -1.30881043e-02,
       1.17068794e-02, -3.20007530e-04, 6.58731302e-03, 2.24596243e-02,
       3.51581573e-02, 1.52522381e-02, 1.15290703e-02, -1.04373172e-02,
       -2.20313594e-02, -1.74829252e-02, -6.12081401e-03,
       -4.16191220e-02, 6.26628194e-03, -3.19080129e-02, -2.85817310e-02,
       -1.13077331e-02, -6.82954537e-03, 5.75489644e-03, 2.55299878e-04,
       5.50895324e-03, 2.37794835e-02, 1.04958294e-02, 4.26294878e-02,
       2.34087985e-02, 1.77727118e-02, 1.66328549e-02, -2.01347284e-02,
       -7.42072763e-04, -4.46316029e-04, -2.11047567e-02, 2.87922639e-02,
       -2.31677722e-02, -1.60625838e-02, -1.44911436e-02,
       -2.19765287e-02, -9.96775087e-03, 2.45595700e-03, 1.99901946e-02,
       2.92147323e-03, -1.90774612e-02, 1.58898700e-02, -8.53095762e-03,
       -1.72011918e-04, 3.52047221e-03, -2.05390947e-03, 1.05075799e-02,
       3.13825347e-02, -6.36111107e-03, 1.10989921e-02, 2.57943086e-02,
       1.58160608e-02, 7.42858741e-03, -5.80331264e-03, -2.96825613e-03,
       1.68077014e-02, 2.33208481e-02, 2.51780674e-02, -9.81776230e-03,
       1.50490254e-02, 9.50581767e-03, -2.31210096e-03, -5.99444937e-03,
       -2.81341914e-02, 6.86401268e-03, 1.39053678e-02, 5.81894536e-03,
       2.92643951e-03, 2.27625929e-02, 8.62972904e-03, -4.61095507e-04,
       -9.58848093e-03, 2.74488237e-03, 2.60399026e-03, 2.14579459e-02,
       -2.61392798e-02, 4.77421889e-03, -3.80756408e-02, -9.60000698e-03,
       -9.80626512e-03, -1.50438184e-02, 3.40663120e-02, -2.97908642e-04,
       1.77075882e-02, 2.89655048e-02, 1.33506292e-02, 1.68515015e-02,
       1.37568805e-02, 3.51424189e-03, 1.68378651e-02, -1.46160508e-02,
       5.48092648e-03, -9.11338534e-03, -3.90965492e-02, 1.50511917e-02,
       -2.93724835e-02, -4.75176098e-03, -1.39487833e-02,
       -8.06172099e-03, 1.58919953e-02, 8.48087110e-03, 2.40362640e-02,
       1.75209902e-02, 6.26028841e-03, 1.96901951e-02, 1.78303737e-02,
       1.71824563e-02, 1.31007526e-02, -1.57600653e-03, -1.41319064e-02,
       -7.83442706e-03, -2.90688220e-02, 1.12767126e-02, -2.35766210e-02,
       -6.47391099e-03, -2.19717203e-03, -1.02226362e-02, 8.49689066e-04,
       1.30003700e-02, 2.80904846e-04, 5.95638854e-03, 1.29468907e-02,
       2.77175847e-02, 6.79483823e-03, 8.02808255e-03, 1.54032931e-03,
       1.53661054e-03, -9.19997506e-03, -1.71456598e-02, -4.82847132e-02,
       -8.50152876e-03, -2.96493974e-02, -1.59205496e-02, 7.94653501e-03,
       -4.14782902e-03, -8.27611238e-03, -5.86800231e-03,
       -1.11094266e-02, 1.58856828e-02, -1.60231084e-05, 1.96744502e-02,
       -1.23989955e-02, 2.71158293e-03, -1.63252410e-02, -1.66130867e-02,
       5.76649886e-03, 6.31265249e-03, 4.04340820e-03, 7.33692991e-03,
       1.64554629e-04, -1.16155520e-02, 6.34599337e-03, -1.45294992e-02,
       -1.49502018e-02, -4.18271078e-03, 8.49264266e-04, 1.77542698e-02,
       -1.40744513e-02, 1.31739695e-02, -4.86854464e-03, 2.35742657e-03,
       -2.94698663e-02, -1.44666573e-02, -1.60889083e-03,
       -1.81335048e-03, 1.38420034e-02, -4.83165821e-03, -3.24938679e-03,
       -2.48817820e-02, 2.04443522e-02, -1.13248779e-02, -5.69688855e-03,
       5.94723551e-03, -5.50038228e-03, 1.78916287e-02, -1.39113227e-02,
       2.39719562e-02, -6.93046255e-03, 1.46336649e-02, -2.01060884e-02,
       4.97314788e-04, -1.24296732e-03, -1.73414138e-03, 1.15518896e-02,
       1.81549955e-02, -8.95507354e-03, 2.48474255e-03, 3.47544998e-03,
       -2.30742269e-03, 9.12119914e-03, -5.77690452e-03, -1.21457288e-02,
       -4.31490093e-02, 7.12239183e-03, -2.28557754e-02, -6.20026700e-03,
       1.42023964e-02, 2.99184285e-02, 5.44021279e-03, 9.66902450e-03,
       7.38836732e-03, 5.81782917e-03, -1.03101190e-02, 9.95479431e-03,
       9.34998225e-03, 7.83571973e-03, -3.25931772e-03, -1.23825772e-02,
       -5.57728438e-03, -6.89288415e-03, -5.37192076e-03,
       -2.53939233e-03, -9.19791311e-03, -8.76555033e-03, 1.67571120e-02,
       9.57997795e-03, 8.49490706e-03, -1.04919896e-02, -1.04059502e-02,
       -2.35803220e-02, 2.02943198e-02, -2.13010237e-02, 1.12639810e-03,
       3.89180542e-03, 2.23360471e-02, -1.57865603e-02, 1.25269964e-02,
       9.46400221e-03, 7.97982502e-04, 7.92431459e-03, 1.32406047e-02,
       1.54382759e-03, 2.32208884e-04, -1.17191311e-03, -1.99013744e-02,
       6.93277281e-04, -9.91147850e-03, 4.59313486e-03, 2.88415374e-03,
       -2.24524569e-02, -9.64977313e-03, 5.98467933e-03, 9.47061554e-03,
       -6.35029376e-03, 2.63850801e-02, 1.31410463e-02, 6.93915412e-03,
       7.32105086e-03, 9.70194396e-03, -1.57784130e-02, 3.13099963e-03,
       6.67628227e-03, 1.89622045e-02, 3.84605373e-03, -2.21727788e-02,
       -1.05182985e-02, 2.59925369e-02, -1.79579519e-02, 9.35978536e-03,
       -5.83192799e-03, 2.66573043e-03, 3.10505759e-02, 4.41391766e-03,
       -4.25325288e-03, -1.90911442e-02, 4.55700606e-03, -1.80082601e-02,
       -8.87391716e-03, -2.67524249e-03, 1.35145811e-02, 4.24172357e-03,
       -3.43411579e-03, -3.08630452e-03, -1.07004875e-02, 4.46818257e-03,
       -3.86893377e-02, -1.92516595e-02, 5.59199182e-03, 7.98846409e-03,
       3.00547313e-02, 9.36135929e-03, 2.48866971e-03, 4.14454937e-03,
       1.00782793e-03, -5.91335120e-03, -1.93489529e-02, -9.39595979e-03,
       2.69588921e-03, 2.34230720e-02, 1.69354696e-02, 6.44981582e-03,
       -1.14226667e-03, 1.81397609e-02, 7.69613544e-03, 8.27721134e-03,
       1.49225921e-03, 1.33999391e-02, 1.43097397e-02, -6.43606484e-03,
       -2.00445410e-02, -2.19639521e-02, 1.77800488e-02, -1.17028253e-02,
       -6.78927777e-03, 1.89301660e-04, 1.61829814e-02, 1.60059761e-02,
       -2.74062227e-03, 1.78835355e-02, 1.89708155e-02, -6.52553607e-03,
       2.97254939e-02, 1.30493995e-02, -1.03616863e-02, 4.73652175e-03,
       -3.62436753e-03, -1.11914556e-02, -1.82672578e-03,
       -8.06633476e-03, -1.98343885e-03, -1.63018948e-03, 2.04808339e-02,
       -7.73650734e-03, -1.85931649e-03, 2.60920059e-02, 6.60925359e-03,
       1.37893511e-02, 5.80675853e-03, 3.13030854e-02, 8.49304721e-03,
       1.85305588e-02, 2.78786500e-03, 1.90218650e-02, -2.55293492e-02,
       3.97575833e-03, -1.87837444e-02, -4.24695164e-02, -4.96673631e-03,
       -2.24511903e-02, -1.44525813e-02, -1.02773206e-02,
       -2.72734053e-02, 2.01021484e-03, -1.33559073e-03, 1.90773737e-02,
       4.19929363e-02, 1.46624437e-02, 3.98237407e-02, 2.90316902e-02,
       1.30456276e-02, -4.02289769e-03, -8.15860555e-03, -9.90684843e-04,
       -9.29155480e-03, -1.67588498e-02, 2.65060179e-02, -2.69401204e-02,
       -1.19548105e-02, -5.61851310e-03, -8.86447076e-03,
       -6.56090723e-03, 2.44284589e-02, 7.15335552e-03, 6.37164339e-04,
       -4.37290361e-03, 6.39243284e-04, 2.75923079e-03, -7.69223599e-03,
       -6.23535179e-03, -1.77206639e-02, 7.30334921e-03, 8.34387355e-03,
       3.62704089e-03, 6.47080922e-03, 6.26684772e-03, 1.11511704e-02,
       -6.18965318e-03, -1.43053336e-02, 1.25708198e-02, 2.78065559e-02,
       9.38255340e-03, 5.76724298e-03, 1.64719950e-02, 1.40691847e-02,
       8.26743059e-03, 2.13659890e-02, 2.34328471e-02, -1.05129173e-02,
       1.65450592e-02, 1.40278656e-02, 6.28649397e-03, 2.54703127e-02,
       4.79726493e-02, 3.86510938e-02, 2.66644116e-02, 1.92118878e-03,
       -1.14482157e-02, 7.38142896e-03, -4.05934267e-03, -1.74428932e-02,
       -7.43957656e-03, -1.38947610e-02, 1.19582042e-02, -1.01391748e-02,
       -1.26337807e-03, 2.68313065e-02, 1.77795701e-02, 2.09174259e-03,
       7.67891947e-03, 6.98096119e-03, 2.51533501e-02, 1.98584050e-02,
       1.63218996e-03, 9.83234681e-03, -2.07710695e-02, -6.26072101e-03,
       -8.56906269e-03, -1.85567010e-02, -8.12011119e-03,
       -1.56601612e-02, 1.63557120e-02, 1.24922046e-03, -4.38893214e-03,
       2.01778319e-02, 1.64350122e-02, 1.58670009e-03, 1.05409743e-02,
       2.77147181e-02, 1.90656036e-02, 4.95775370e-03, 1.48915651e-03,
       2.37755626e-02, 4.18898137e-03, 1.33266542e-02, 3.34569043e-03,
       -2.21150070e-02, 1.61206722e-02, -1.71543211e-02, -1.37219178e-02,
       2.12323689e-03, -1.12891488e-03, -8.13673716e-03, 5.59559977e-03,
       1.13902120e-02, 2.81739645e-02, 2.06433050e-02, 2.26731002e-02,
       5.29598026e-03, -3.50706652e-03, -2.41183187e-03, -1.72772948e-02,
       -4.48524440e-03, -1.17416466e-02, -3.72405872e-02, 1.27381517e-03,
       -1.38918962e-02, -1.54722445e-02, 7.35472981e-03, -9.88449156e-03,
       -1.44308945e-02, -3.42064276e-02, 1.20600294e-02, -8.91800970e-03,
       1.93286743e-02, 1.96755491e-02, 4.24662791e-03, -6.59181969e-03,
       -4.71878564e-03, -8.71241465e-03, -8.30949470e-03,
       -4.03006840e-03, -1.44536076e-02, 1.05716158e-02, -1.71335693e-02,
       -7.95821287e-03, 6.28246553e-03, -5.73857594e-03, -6.24003733e-05,
       1.10176662e-02, 6.39763288e-03, 1.12226056e-02, 8.03922303e-03,
       1.61953717e-02, -6.95988582e-03, 3.30727291e-03, -9.02109221e-03,
       -1.10095053e-03, -1.39525495e-02, -6.65020617e-03,
       -2.53612362e-02, 7.15125399e-03, -1.29115870e-02, -1.34998132e-02,
       -1.88191084e-03, -3.43994028e-03, 9.78420209e-03, -1.82576175e-03,
       2.81086843e-03, 1.92502532e-02, 2.51737796e-03, 1.69050898e-02,
       -1.63553320e-02, 7.83608668e-03, 8.71244166e-03, -8.10465589e-03,
       -2.43044505e-03, -2.35182233e-03, -7.06161838e-03, 2.57309228e-02,
       1.29871964e-02, 8.36476218e-03, 3.83660686e-03, -7.80621660e-04,
       -1.17178336e-02, -1.21731861e-02, -8.40021390e-03,
       -1.37933586e-02, 1.27559537e-02, -1.48398569e-02, -1.31490789e-02,
       -3.09186731e-03, -4.82203392e-03, -1.11614596e-02, 1.16892178e-02,
       6.67373231e-03, 1.63046177e-02, 6.41429611e-03, 1.76051296e-02,
       -7.86946341e-03, 1.08509827e-02, 2.28804754e-04, -7.52459606e-03,
       -5.71045000e-03, -4.79197782e-03, -5.80708310e-03, 2.48991000e-03,
       3.55304428e-03, -2.27626637e-02, -2.72378735e-02, -2.24305026e-04,
       2.90837954e-03, -9.10479110e-03, -1.18411914e-03, -7.67292688e-03,
       1.40453093e-02, -2.29089893e-02, -6.71575358e-03, -2.71134987e-03,
       8.15302506e-03, 4.95982880e-04, 5.58020035e-03, 1.54661499e-02,
       2.29988294e-03, 4.25790474e-02, 3.78437596e-03, -1.59280526e-03,
       4.65643173e-03, -4.15212009e-03, -2.80915201e-03, -2.41850857e-02,
       6.56133459e-04, -8.44211970e-03, -4.05266555e-03, -1.30683315e-04,
       -5.04950574e-03, -2.97529008e-02, -3.29781976e-03,
       -1.82051491e-02, -1.24563482e-02, 1.74372189e-03, -3.49920196e-03,
       1.10716345e-02, 5.10258367e-03, 8.20633024e-03, 7.60977506e-04,
       -1.80448666e-02, -1.41801331e-02, 2.60705333e-02, 1.82893462e-02,
       -3.38180084e-03, 2.50585750e-02, -2.79127993e-02, -5.12617547e-03,
       2.67161652e-02, -8.82780552e-03, -4.90124943e-03, 2.71230396e-02,
       5.16761839e-03, 1.43072838e-02, 2.07764376e-02, -5.24326810e-04,
       -9.05800611e-03, 3.88059230e-03, -1.80902947e-02, -3.34708090e-03,
       4.91007194e-02, -7.24165468e-03, -1.75171602e-03, 1.08433357e-02,
       -3.00125685e-02, -2.66286712e-02, 3.97757953e-03, -2.31146142e-02,
       9.21678916e-03, 5.92330052e-03, 6.33112947e-03, -1.61114207e-03,
       5.95346326e-03, 1.60878375e-02, -1.07332515e-02, -1.26866464e-04,
       -2.13312497e-03, 8.61961115e-03, -2.01633945e-03, 4.55136457e-03,
       1.07237296e-02, 1.94166042e-02, 1.31925298e-02, 2.00077929e-02,
       -7.31210271e-03, -6.62055390e-04, -7.55221862e-03,
       -2.10260414e-02, -8.25692527e-03, -1.75609775e-02,
       -5.76814287e-04, -1.13700991e-02, 9.52676125e-03, -3.16714565e-03,
       -4.62316349e-03, -1.17244083e-03, -1.84149272e-03, 2.39732042e-02,
       6.38183299e-03, 3.05333361e-03, 2.27817483e-02, 3.31105292e-02,
       -4.38264309e-04, 1.14214541e-02, -1.74772199e-02, -6.19693892e-03,
       3.21317068e-03, -1.79197304e-02, -7.13955471e-03, -2.93400213e-02,
       1.32207992e-02, -2.79501081e-03, 6.93976460e-03, -2.62817601e-03,
       -9.54407791e-04, -8.53397697e-03, 9.48575046e-03, -2.18807789e-03,
       -1.54617522e-02, 5.50399721e-03, 3.89852957e-03, -1.08497227e-02,
       3.22701060e-04, 6.33041002e-03, 2.68848496e-03, -1.29114585e-02,
       -9.43839364e-03, -3.97670269e-02, -2.04587374e-02,
       -2.04579905e-02, -1.67333204e-02, 1.31310560e-02, 1.87418666e-02,
       1.12412116e-02, 1.94388665e-02, -7.27671548e-04, 5.88144455e-03,
       1.18399570e-02, 3.23760090e-04, 2.11539771e-02, 4.52400232e-03,
       -2.57630507e-03, 2.96921795e-03, 1.09841693e-02, -1.52659591e-03,
       8.54017865e-03, 7.76103465e-03, -1.37170833e-02, -5.24105737e-03,
       6.67168386e-03, 7.91556668e-03, -1.86463131e-03, -3.52482637e-03,
       -2.19776039e-03, -1.61045752e-02, -1.56021081e-02,
       -6.13385765e-03, 3.00642947e-04, -9.81622189e-03, 3.25653004e-03,
       -1.68904159e-02, -1.74368322e-02, -3.05941422e-02, 3.58268153e-03,
       -1.68016925e-03, -1.21950386e-02, -2.39296500e-02,
       -2.05590995e-03, 1.58696231e-02, 3.98424864e-02, 4.59332988e-02,
       1.34105394e-02, 4.00487259e-02, 1.60070751e-02, 3.05375899e-03,
       3.31369019e-03, -5.51103847e-04, 2.60031801e-02, 2.84869950e-02,
       5.06428182e-02, 3.66118811e-02, 4.56761457e-02, 2.00240109e-02,
       8.93121213e-03, -4.35616402e-03, -7.77306268e-03, -3.86216515e-03,
       -4.06338554e-03, -1.50251575e-02, -7.97677413e-03,
       -1.09531833e-02, 4.41272371e-03, 1.75212242e-03, -5.35201468e-03,
       2.03746259e-02, 1.40320812e-03, 7.74614420e-03, 1.14780162e-02,
       1.44969290e-02, 3.73608968e-03, -1.74968839e-02, -7.26991938e-03,
       6.53981511e-03, -3.16938711e-03, 1.59929898e-02, 2.07641721e-03,
       9.02142376e-03, 1.18120164e-02, 6.21488038e-03, 2.80737095e-02,
       1.59462932e-02, 8.51567741e-03, 5.48803480e-03, 1.02258688e-02,
       1.13496417e-02, 5.47485659e-03, 9.32919513e-03, -1.39010581e-03,
       -3.05780023e-03, 6.02363516e-03, -6.59660483e-03, 3.52349249e-03,
       3.25000193e-03, -1.09926146e-03, -1.24541810e-02, -3.54518788e-03,
       -6.64586760e-03, -4.84847557e-03, -4.45550028e-03,
       -7.64144585e-03, 1.30969035e-02, -1.44896517e-02, 1.16188927e-02,
       -8.04374646e-03, 2.54369173e-02, 8.98287632e-03, -5.90288220e-03,
       -7.99432769e-03, -6.28215494e-03, -4.60109953e-03,
       -1.36953183e-02, -5.21629630e-03, -3.13892476e-02, 2.24549458e-05,
       -1.27885118e-02, -2.65661860e-03, -3.81656922e-03,
       -1.60707328e-02, 1.90030001e-02, -5.47760446e-03, -2.28970501e-04,
       -6.48832135e-03, 1.52351288e-02, 1.72346607e-02, 4.38671513e-03,
       7.73827720e-04, 8.65458976e-04, -2.45007430e-03, -1.62109789e-02,
       -8.73391796e-03, -2.41260696e-02, 1.24921426e-02, -2.13042609e-02,
       -8.27802438e-03, -5.59653714e-03, -2.08456498e-02, 8.77456646e-03,
       -3.83259426e-03, 1.19773662e-02, 1.76412817e-02, 3.52882477e-03,
       8.68607592e-03, 4.44163289e-03, 1.41574526e-02, 8.04695673e-03,
       8.38023517e-03, -1.59609113e-02, -1.45167112e-02, -2.33996306e-02,
       1.67734660e-02, -2.05382034e-02, -7.01276539e-03, -9.39438306e-03,
       -2.15300987e-03, 2.60126088e-02, -9.97115765e-03, 3.25200451e-03,
       -1.97782042e-03, 1.83829572e-02, -4.73306328e-03, -5.06036403e-03,
       -3.66366887e-03, 2.27695480e-02, -4.42702975e-03, 1.78466681e-02,
       2.72742920e-02, 1.15423445e-02, 7.06580793e-03, 9.19956341e-03,
       5.30379592e-03, 8.93073902e-03, -1.37829715e-02, -8.48379824e-03,
       -3.43341351e-04, 1.18154613e-02, -1.00355558e-02, -5.55351982e-03,
       6.61275629e-03, -6.78930245e-03, -1.19770998e-02, -9.32699814e-03,
       -1.15296571e-02, 6.64643198e-03, 5.85084781e-03, -1.97555125e-02,
       7.76307890e-03, 4.46095178e-03, 2.52552330e-03, -1.13229593e-03,
       -2.16847993e-02, 1.97287519e-02, -5.47785917e-03, 2.70588906e-03,
       -1.95467267e-02, -1.25727383e-03, 6.50673639e-03, 6.06154464e-03,
       4.30930173e-03, 1.29734101e-02, -3.80980060e-03, -5.13687218e-03,
       1.01838065e-02, 1.25895552e-02, 2.62980629e-02, 1.83050577e-02,
       7.61992252e-03, -6.81710569e-03, -4.60068788e-03, -1.04216374e-02,
       -7.74197467e-03, 7.60794058e-03, -8.26494489e-03, 8.34551081e-03,
       2.48316233e-03, -5.46227116e-03, -6.47575129e-03, -9.80945490e-03,
       3.37423198e-02, -1.42325666e-02, 5.68643492e-03, -4.31251479e-03,
       2.27721818e-02, -7.13050459e-03, -6.46531582e-03, 9.05267708e-03,
       4.17468548e-02, -2.25160308e-02, -1.12448009e-02, -2.47150892e-03,
       -5.04898233e-03, 1.19482027e-02, -1.65428799e-02, -1.91948302e-02,
       -1.52192377e-02, -6.86488021e-03, -1.50306979e-02, 2.02423986e-02,
       5.41238487e-03, 1.87473092e-03, 1.91570930e-02, -1.14340568e-02,
       -7.40617700e-03, -6.71968888e-03, -2.04228219e-02, 5.15541295e-04,
       -8.33090208e-03, 4.59888019e-04, -1.63780507e-02, 9.96910781e-03,
       1.93379037e-02, -2.46113352e-03, 3.36695812e-04, 2.48287036e-03,
       -1.67097021e-02, 1.42918387e-03, 2.92267697e-03, 5.13988966e-03,
       1.62708238e-02, 1.09029999e-02, 1.31176058e-02, -2.55615963e-03,
       -2.84612458e-02, 1.57678500e-02, -1.99530348e-02, -8.87904875e-03,
       -9.44887102e-03, 3.38854291e-03, 3.32823731e-02, 6.00540359e-03,
       -3.98802198e-03, 1.45195546e-02, 6.33402728e-03, -1.74820932e-04,
       1.29040005e-02, -6.33009896e-03, 1.85821322e-04, 8.92640185e-03,
       2.56009456e-02, 1.32606570e-02, 1.56863928e-02, -3.71279940e-03,
       -7.05606246e-04, 1.66127402e-02, 9.91786085e-03, 4.66000056e-03,
       -2.45479140e-02, 8.51888675e-03, 7.89673068e-03, -1.29032810e-03,
       1.43397190e-02, -1.06060915e-02, 7.99682806e-04, -1.69948135e-02,
       -1.64469872e-02, 2.86071934e-03, 2.00829003e-02, 1.21731739e-02,
       2.98787374e-02, -5.33066283e-04, -5.18284389e-04, -6.87709032e-03,
       3.68215260e-03, -1.81670524e-02, -1.65874269e-02, 1.62662833e-03,
       1.38019891e-02, 5.93431527e-03, -6.03627507e-03, 4.35244618e-03,
       -8.27148743e-03, -7.40762055e-03, -3.18862288e-03,
       -3.18318419e-02, 1.49752134e-02, 1.73717923e-02, -4.59120516e-03,
       -5.65566542e-03, -1.04143955e-02, -4.42913063e-02,
       -4.78726774e-02, -2.10019108e-02, -4.27398793e-02,
       -1.25902379e-02, -1.30159082e-03, -1.42996116e-02,
       -4.32314631e-03, 7.42948055e-03, -9.66549211e-04, 2.21350268e-02,
       4.73164907e-03, 2.85979500e-03, 2.86263283e-02, 2.48750225e-02,
       1.02244329e-03, 1.20971166e-02, 7.69576849e-03, -8.36162269e-03,
       1.25719318e-02, -3.58165638e-03, -5.21309720e-03, 1.79616157e-02,
       9.53388773e-03, 2.31422521e-02, 1.61181670e-03, 7.41554936e-03,
       -3.63346934e-03, -4.07682359e-03, 3.35172378e-03, -1.24718277e-02,
       -1.82925891e-02, -5.86126605e-03, 3.93566862e-03, -4.38564084e-02,
       -1.22626349e-02, -2.00656075e-02, -2.87663471e-02,
       -2.57713683e-02, -2.30274126e-02, -3.71310525e-02,
       -7.28606619e-03, -3.05970889e-02, 3.27146351e-02, 2.73063388e-02,
       1.85101293e-02, 4.97009195e-02, 5.65880127e-02, 3.90346684e-02,
       2.40401160e-02, 1.37178344e-03, 3.38113867e-02, -3.03979833e-02,
       -6.61965832e-03, -1.42166736e-02, 1.83594022e-02, 2.52986792e-02,
       1.32237852e-04, -7.50659313e-03, -1.45239569e-02, -2.77931578e-02,
       -3.07096634e-02, 3.52656026e-03, -9.64160729e-03, 1.93564817e-02,
       1.36990389e-02, 6.96785108e-04, 7.69171212e-03, 9.40682087e-03,
       -8.21688119e-03, -2.34524012e-02, 1.47236453e-03, -1.39418542e-02,
       -7.83133786e-03, -2.03852765e-02, -5.60967159e-03,
       -9.03120148e-04, -1.11574857e-02, -6.01008628e-03, 1.79012807e-03,
       2.62490492e-02, 2.03875396e-02, 3.24042961e-02, 1.14315785e-02,
       8.14137980e-03, 1.60975847e-02, 1.53904725e-02, 1.80371981e-02,
       -1.30161475e-02, -1.88066764e-03, 5.21186413e-03, -1.23721547e-03,
       2.74702767e-03, 1.26732700e-02, 8.94813146e-03, -5.10996906e-03,
       2.22378857e-02, -2.68862657e-02, -1.88219408e-03, 2.45809904e-03,
       -5.66540891e-03, -8.95093102e-03, -3.95178702e-03, 6.16772100e-03,
       -1.48983002e-02, -1.79726295e-02, -7.34754605e-03,
       -2.52072210e-03, 8.57329555e-03, -9.70248785e-03, 1.72849577e-02,
       1.96598768e-02, -5.33686299e-03, 1.53059361e-03, -3.72473313e-03,
       -1.95770226e-02, -2.26314757e-02, -5.07237995e-03, 8.99798144e-03,
       2.38908753e-02, -1.01948879e-03, 1.13093276e-02, -1.70257613e-02,
       -1.70850307e-02, 5.06296812e-04, 8.63199215e-03, 5.89826051e-03,
       1.18828695e-02, 3.20539474e-02, 2.75856666e-02, 1.38097769e-02,
       4.25932417e-03, -1.40365232e-02, 8.78630392e-03, -8.46186932e-03,
       -3.62285413e-04, 1.51746795e-02, 3.57213020e-02, 1.01512689e-02,
       -1.07508106e-02, 1.87838916e-02, 2.17061359e-02, 1.29389958e-02,
       -9.75475740e-03, 5.36028901e-03, 1.12192975e-02, 3.88263091e-02,
       1.92732643e-02, -4.36864654e-03, 4.01119329e-03, 1.38110593e-02,
       -6.87359227e-03, -1.45267406e-02, 6.87822886e-03, -1.55435614e-02,
       4.15072627e-02, 2.46145850e-04, -1.77836847e-02, 3.69386660e-04,
       5.70487976e-03, 1.67955067e-02, -9.95034445e-03, -8.53479840e-04,
       -7.29097612e-03, 4.43824846e-03, -5.38267009e-03, -1.69547703e-02,
       3.90047580e-03, 2.83393171e-02, -1.14269266e-02, 8.55053961e-03,
       8.47187918e-03, -3.70669342e-03, 3.35347317e-02, 2.81744134e-02,
       2.56458782e-02, 1.87066160e-02, -2.68316995e-02, 2.30962001e-02,
       7.81230861e-04, 5.36221080e-03, -8.79385322e-03, 8.59718397e-03,
       1.72037818e-02, 1.77526679e-02, 1.70796216e-02, 1.03937136e-02,
       3.21471617e-02, -3.27370409e-03, -1.13048535e-02, -1.30897751e-02,
       2.21691430e-02, 2.86009219e-02, 1.73610598e-02, 1.36166194e-03,
       1.78018827e-02, 8.46006628e-03, -1.02042397e-02, -4.23692181e-05,
       1.48679386e-03, 3.62916454e-03, -7.24608963e-03, -5.50234504e-03,
       -9.49734170e-03, 1.04090208e-02, -1.10036372e-05, -7.94764142e-03,
       2.61539291e-03, -3.80088971e-03, 9.89108346e-03, -1.36187561e-02,
       2.58525740e-03, 1.14337271e-02, 1.07047218e-03, -1.60070397e-02,
       2.85574817e-04, 1.61986127e-02, 6.09861163e-04, 2.87376307e-02,
       -5.97219123e-03, 1.16614345e-02, 1.31518953e-02, -2.41049398e-02,
       8.70842393e-03, -1.35142244e-02, -1.92016340e-03, 4.35478752e-03,
       2.16564536e-03, -4.51403297e-03, 8.27939715e-03, -2.61008460e-03,
       5.45755262e-03, 1.55081628e-02, 2.40104389e-03, -2.21118541e-03,
       4.90190694e-03, 8.24508443e-03, 2.06452273e-02, 2.10872069e-02,
       5.20821847e-03, -7.29261851e-03, -2.73355842e-02, -6.10923255e-03,
       -3.33913416e-03, -3.69494269e-03, 1.16019314e-02, 1.59787436e-04,
       3.25359660e-03, 5.88557171e-03, -6.07046392e-03, -4.58176807e-03,
       -1.09038148e-02, 9.71872732e-03, -8.12458899e-03, 4.20213165e-03,
       1.47387506e-02, 6.74963556e-03, -1.28301261e-02, -8.15519784e-03,
       2.00967677e-02, 1.11905327e-02, 5.31872502e-03, -1.14701986e-02,
       -2.43603461e-03, -1.48970773e-03, 2.21889336e-02, 5.10881003e-03,
       2.58514453e-02, 1.99436359e-02, 1.03898766e-02, 1.53020695e-02,
       -1.26579860e-02, -1.45737026e-02, 1.05334939e-02, 1.31765893e-02,
       -3.00896633e-03, 7.71363080e-03, 7.63278734e-03, 8.08202755e-03,
       1.97466351e-02, 8.11206270e-03, 1.75517704e-02, 2.10231282e-02,
       1.00529827e-02, -6.14014408e-03, 1.91491144e-03, -3.84369446e-03,
       8.50490015e-03, 6.11589616e-03, 7.16005452e-03, 1.14715034e-02,
       1.42358495e-02, 5.00845397e-03, -5.58682159e-03, -7.00396579e-03,
       -7.64605217e-03, 3.07046436e-03, 7.36125931e-03, -9.93524096e-04,
       7.86579307e-03, 6.42661843e-03, -3.95937683e-03, -8.15510564e-03,
       -2.18023788e-02, -1.62715521e-02, -2.31553218e-03, 2.17205985e-03,
       1.59291849e-02, -2.53717252e-03, 2.49869510e-04, -1.98963508e-02,
       -2.30808668e-02, -3.42457145e-02, -7.36637926e-03, 8.54524598e-03,
       -3.95783968e-03, -1.03511838e-02, 2.45864075e-02, 1.66225377e-02,
       -8.05323434e-05, 2.84594810e-03, -6.67484303e-04, 2.81997602e-02,
       1.57894148e-03, -5.53363282e-03, -2.44386178e-02, 2.42400616e-02,
       -7.97067303e-03, -1.59100518e-02, -1.57027971e-02, 1.80794615e-02,
       -9.15085780e-04, -4.53636376e-03, 1.00193294e-02, 7.91493617e-03,
       2.95500308e-02, 1.26476111e-02, 1.49368811e-02, 1.16165495e-02,
       2.14775950e-02, 1.92242973e-02, -1.91002397e-03, 1.01648206e-02,
       -1.07610719e-02, -9.43243876e-03, 2.03085644e-03, -1.35760130e-02,
       1.15370518e-02, 1.60770968e-03, 5.13440929e-02, 9.85043496e-03,
       -1.65124275e-02, -5.34474244e-03, 2.15197746e-02, 1.51780462e-02,
       1.94476712e-02, -2.41154502e-03, 4.56951894e-02, 9.13383812e-03,
       -9.51184984e-03, -4.53135259e-02, -3.82447094e-02,
       -1.40216937e-02, -2.76661944e-02, -9.79342381e-04,
       -4.64756833e-03, -1.97668606e-03, 8.21694732e-02, 2.34167203e-02,
       1.12021156e-02, -2.52506491e-02, 1.20191118e-02, 8.99928901e-03,
       -6.98980526e-04, 1.93543006e-02, 6.36996329e-02, 2.42646951e-02,
       1.51080247e-02, -1.98669583e-02, -5.53618446e-02, -2.32933667e-02,
       -2.21864991e-02, -2.10921206e-02, -2.08261851e-02, 2.24642036e-03,
       6.07614219e-03, -3.98364943e-03, -1.15696238e-02, 5.68914751e-04,
       1.65991616e-02, 1.40600547e-04, -9.38488077e-03, -6.84906635e-03,
       -7.55724031e-03, -1.49021503e-02, -3.66088338e-02,
       -2.18729880e-02, -2.30011884e-02, -1.02207987e-02,
       -4.14875662e-03, -1.67617220e-02, -9.30829905e-03,
       -7.05564907e-03, 2.50886232e-02, 2.14880221e-02, 5.96570596e-03,
       1.03426855e-02, 4.48719077e-02, 2.29023285e-02, 2.97029596e-03,
       6.31872844e-03, 4.20993660e-03, 2.31347680e-02, 1.18089952e-02,
       -5.07449312e-03, -1.33079011e-02, 4.01694886e-02, 2.01479234e-02,
       2.36966647e-02, 3.70448418e-02, 1.45370569e-02, -1.85153093e-02,
       -2.08304618e-02, -1.06736720e-02, -7.82225188e-03, 3.66844361e-05,
       -2.19188035e-02, -1.78159564e-03, -2.44821273e-02,
       -2.54447963e-02, 1.14519233e-02, -4.70667053e-03, -4.17420920e-03,
       4.35198518e-03, 8.16686079e-03, 2.57026782e-04, 3.69858951e-03,
       -8.68884102e-03, 1.64317302e-02, 1.41442614e-02, 2.33794469e-02,
       1.23343673e-02, -7.69983418e-03, 8.70751031e-03, -2.81939609e-03,
       2.66377218e-02, 2.55885683e-02, 3.59678781e-03, 8.10702424e-03,
       1.36004332e-02, 1.94820873e-02, 1.04315467e-02, 2.76261382e-02,
       4.04047780e-02, 3.05260252e-02, 1.75369121e-02, 1.46820471e-02,
       2.81346850e-02, -2.02783081e-03, 9.24150739e-03, 6.23614236e-04,
       1.08922897e-02, 4.78594704e-03, -9.30776820e-03, 9.92267951e-03,
       3.99344414e-02, 9.51200072e-03, 1.17743807e-03, -9.33259912e-03,
       6.91710925e-03, -1.66400634e-02, -9.94290877e-03, -2.05697492e-02,
       -9.26365331e-03, 4.07383218e-02, 1.73862576e-02, 7.42416224e-03,
       -3.62249347e-03, 2.08765990e-03, 5.04954718e-03, 2.22113337e-02,
       8.02255934e-04, -8.11444886e-04, 4.45728824e-02, -9.41887381e-04,
       3.71250696e-03, -4.88951756e-03, 5.85972052e-03, 5.90928365e-03,
       -1.76508934e-03, -1.57983811e-03, 1.79357100e-02, 1.85863692e-02,
       -5.15053514e-03, -4.14715102e-03, -2.29179151e-02,
       -8.05814925e-05, -2.62791365e-02, 1.45521117e-02, -5.15201688e-03,
       -1.60639919e-02, 7.59888813e-03, -1.24756666e-02, -4.04597307e-03,
       6.66662771e-03, -3.21056484e-03, -3.66139822e-02, -8.74720421e-03,
       -1.15148444e-02, -1.87812131e-02, 1.04817813e-02, 2.89674819e-04,
       1.20475674e-02, 4.99277236e-03, 2.62358170e-02, 3.85528943e-03,
       3.39810401e-02, 2.88698822e-02, 2.36781798e-02, 1.17591424e-02,
       1.00017069e-02, 2.46068351e-02, 2.11732537e-02, 3.97953205e-02,
       1.55375469e-02, 2.05489360e-02, 6.09526318e-03, 1.81027986e-02,
       2.10417863e-02, 6.69577625e-03, -1.58513077e-02, 1.42903225e-02,
       1.07278628e-02, -1.42165842e-02, -1.97854713e-02, -8.76535475e-03,
       -2.59184912e-02, 1.67900361e-02, 1.23972697e-02, -1.87126230e-02,
       -2.34668273e-02, -1.78237562e-03, 1.05397692e-02, -3.01947747e-03,
       -1.15676573e-03, -1.90102570e-02, -2.47293990e-03, 4.38808650e-02,
       -4.26771957e-03, 1.59573331e-02, -2.01309187e-04, -4.84015467e-03,
       -1.26845092e-02, 4.13439423e-03, 3.75219109e-03, 4.68373336e-02,
       1.72929224e-02, 3.71029857e-03, 2.43898202e-02, 1.09400973e-02,
       1.62825566e-02, 4.00005803e-02, 2.30006538e-02, -1.09885726e-02,
       1.10516204e-02, 2.08380744e-02, 1.34702139e-02, 6.05737383e-04,
       -6.01397036e-03, 1.70908086e-02, 5.82957733e-03, -1.03774173e-02,
       -1.03596726e-03, 2.68429257e-02, 9.67797451e-03, 9.41377226e-03,
       3.93739715e-03, -1.77854858e-02, -7.23925838e-03, -3.61214904e-03,
       -1.68507062e-02, -1.29149063e-02, 2.25529391e-02, 3.16575468e-02,
       1.38044212e-04, -4.91976831e-03, -7.30822608e-03, 8.76285415e-03,
       3.22883539e-02, -1.94768608e-02, 5.58041036e-03, 4.46323901e-02,
       1.49375703e-02, -3.31960456e-03, 2.93744984e-03, 1.82593036e-02,
       2.88025173e-03, -3.51620372e-03, -5.92930196e-03, -5.34050260e-03,
       1.07775768e-02, 3.49677098e-03, -4.49195271e-03, 2.05221400e-02,
       2.02441178e-02, 3.08206379e-02, 2.20288988e-02, 1.77745670e-02,
       1.75854459e-03, 2.35357843e-02, -2.22336780e-02, -2.10794881e-02,
       3.90069117e-03, 2.80037075e-02, 2.79390253e-02, 1.76298860e-02,
       -4.94448794e-03, 4.66179522e-03, -3.27584371e-02, 2.72663124e-03,
       8.00016045e-04, 1.72510394e-03, 9.36514419e-03, 1.03641236e-02,
       -1.95641462e-02, 2.05766298e-02, -1.50738023e-02, -4.70922561e-03,
       -4.69522038e-03, -1.50755774e-02, -1.98893379e-02,
       -1.31345838e-02, 2.96454728e-02, -3.04888450e-02, 6.45149080e-03,
       -6.83155470e-03, -4.56182193e-03, 9.10079386e-03, -1.35645103e-02,
       6.41442230e-03, 3.38348895e-02, 3.96819822e-02, 1.06192175e-02,
       -7.12290779e-03, -4.04520426e-04, 2.32665055e-02, -2.52165403e-02,
       -1.20503614e-02, -1.17378065e-03, 2.37517850e-03, 1.59314685e-02,
       -1.81366270e-03, -1.00853387e-02, 1.09924143e-02, -6.12457376e-03,
       -8.26223567e-03, -1.45093855e-02, -1.68646630e-02, 1.21752545e-03,
       3.51270288e-02, -2.71445643e-02, -1.93093102e-02, -1.62018165e-02,
       -8.15092679e-03, -6.05614949e-03, 7.34390691e-03, 1.30431065e-02,
       3.10305152e-02, 2.73754410e-02, 1.64820463e-03, -2.08559502e-02,
       1.16184466e-02, 7.19498668e-04, -5.19112824e-03, 1.18438816e-02,
       1.24532462e-03, -2.12823264e-02, -1.28979180e-02, 2.34135031e-03,
       3.60153103e-03, 2.58725118e-02, 5.88390930e-03, 1.85575001e-02,
       1.64325594e-03, -1.68398677e-04, -3.44711095e-02, -1.53389229e-02,
       -5.57690486e-03, -5.83644258e-03, 1.67382974e-03, 5.38499886e-03,
       -1.58962570e-02, 1.48764974e-03, -1.01619560e-04, 1.51999937e-02,
       -4.98913042e-02, 6.31901203e-05, 2.77549252e-02, 1.49856508e-02,
       -1.06236804e-02, -4.03226772e-03, 5.24089579e-03, -1.15222426e-03,
       2.00672331e-03, 8.23490962e-04, -1.05981696e-02, 9.45300888e-03,
       6.96086907e-04, -1.89632159e-02, 1.59675647e-02, -3.64164473e-03,
       -5.00913197e-03, -2.86631100e-02, -3.29177380e-02,
       -8.07961915e-03, -1.99875627e-02, -5.86548529e-04, 9.91107197e-04,
       3.03421505e-02, -4.55123233e-03, -2.43988913e-02, -2.87957788e-02,
       -1.54295238e-02, -2.16045603e-02, -2.52194311e-02,
       -1.42750554e-02, 4.03991714e-02, 1.90814249e-02, 6.53126277e-03,
       1.43787675e-02, -6.18501473e-03, -6.93705957e-03, -9.68603417e-03,
       1.16000194e-02, 1.42882839e-02, 2.64175292e-02, 1.18420282e-02,
       -2.73609324e-03, 1.70234740e-02, -2.10109074e-02, -6.72196550e-03,
       -8.61721393e-03, -1.20513104e-02, 3.85392806e-03, 2.50719674e-02,
       2.39819586e-02, 5.55285427e-04, -5.34695620e-03, -2.07179319e-02,
       -2.70049367e-02, -1.51924705e-02, -5.29374741e-03,
       -1.70036722e-02, 3.07448842e-02, -7.54047791e-03, -1.79329533e-02,
       -1.60648152e-02, -3.53737585e-02, -2.60820631e-02,
       -1.12558175e-02, -5.07503003e-03, -4.39087115e-03, 5.04796673e-03,
       4.93454337e-02, 1.78190228e-02, 1.34712143e-03, -8.99380445e-03,
       -2.54547503e-03, -1.91547326e-03, -1.96480949e-04, 2.92003038e-03,
       2.72422768e-02, 1.33306971e-02, 5.39375609e-03, 1.96901374e-02,
       -8.85323528e-03, 6.79673487e-03, -1.12210587e-02, -8.62088241e-03,
       1.50405932e-02, 7.12559791e-03, 3.33211385e-03, -9.43928584e-03,
       4.92669735e-03, 5.62537881e-03, -3.53702717e-02, 2.05338504e-02,
       8.24613404e-03, -6.66479254e-03, 3.21479850e-02, 5.22427866e-03,
       -2.06217207e-02, -6.67940546e-03, -1.35578634e-02,
       -2.54239477e-02, 7.21457787e-03, 1.19801257e-02, 1.51890321e-02,
       2.85486318e-02, 5.41054877e-03, -1.07480371e-02, 2.33563818e-02,
       1.13532981e-02, -1.47392452e-02, -5.39020635e-03, -1.49419811e-03,
       6.74994895e-04, 7.60006672e-03, 1.90351345e-02, 5.30000869e-03,
       2.49987375e-02, -4.15498856e-03, 1.64809134e-02, -7.30219670e-03,
       1.73272267e-02, 2.60457508e-02, 1.71462167e-02, -1.22176623e-03,
       -9.22394078e-03, 8.63392092e-03, 1.70722511e-02, -4.53866273e-02,
       2.64738244e-03, 2.91402009e-03, -5.89339063e-03, -1.38010345e-02,
       8.46256688e-03, -8.52694176e-03, 1.12069435e-02, 1.59751438e-02,
       -4.00215872e-02, -6.00179750e-03, 3.99372447e-03, -7.01026758e-03,
       1.18645094e-02, 7.33052241e-03, 4.53759357e-03, 1.64283793e-02,
       1.06803440e-02, -1.59529727e-02, -7.99070951e-03, 1.15077896e-02,
       6.35931036e-04, 1.38637284e-02, -3.02277203e-03, 1.59671810e-02,
       2.58248895e-02, -2.69012526e-03, -1.32668391e-03, -9.83431097e-03,
       2.32209638e-02, 4.38288058e-04, -8.51389021e-03, 1.14884889e-02,
       -7.58208148e-03, 9.43727512e-03, 8.85115296e-04, -4.90236841e-02,
       -3.41125429e-02, 1.51814288e-02, -4.27608564e-03, 2.01731957e-02,
       -2.48756725e-02, -1.22444313e-02, 1.70312508e-03, -2.25438308e-02,
       1.00739952e-02, -6.45166170e-03, 4.39175032e-03, -1.39218252e-02,
       -8.50063190e-03, 2.93253530e-02, 5.60397690e-04, 6.69020833e-03,
       3.02603678e-03, -8.79792403e-03, -1.61222462e-02, 2.10452974e-02,
       6.79900963e-03, 1.27210673e-02, 8.49517900e-03, 8.05485714e-03,
       1.54977590e-02, 2.56473348e-02, 3.55631113e-02, 2.47851610e-02,
       2.87625510e-02, -1.12839439e-03, 1.22962845e-02, -1.26966683e-04,
       -9.85663850e-03, -1.49457958e-02, 3.86828979e-05, 2.54514236e-02,
       1.31162396e-02, -1.48582105e-02, -1.11604773e-03, 1.49471806e-02,
       -2.58386321e-03, -1.12698600e-02, -8.77917185e-03, 1.39304937e-03,
       3.08392160e-02, 3.66570940e-03, -1.12357112e-02, -2.94404017e-04,
       -1.22274263e-02, 3.74913565e-03, 1.12146577e-02, 1.03192301e-02,
       -6.25489221e-04, 1.75563432e-02, 8.12905375e-03, 5.97146433e-03,
       -9.65340436e-03, 1.88564081e-02, 3.06905247e-02, -1.26576005e-02,
       7.68001843e-03, -1.02179879e-02, 3.11478470e-02, 9.43652194e-05,
       -1.46990418e-02, -9.43692215e-03, 9.81215108e-03, 6.98381756e-03,
       4.90155024e-03, -9.94319376e-03, 2.89069209e-02, 2.14233901e-02,
       2.97738123e-03, 1.55930715e-02, -6.69263024e-03, 6.51124306e-03,
       -3.03843003e-02, -2.28610690e-04, 1.18090853e-03, -8.37088749e-03,
       1.47310570e-02, -3.08848247e-02, -3.66000837e-04, -1.11889113e-02,
       -5.02756843e-03, 6.27156673e-03, 3.73190898e-03, 3.38683017e-02,
       2.45453604e-02, 3.14454250e-02, 4.62946296e-03, 9.19599645e-03,
       7.46686198e-03, 1.12392083e-02, -3.94134670e-02, 5.42453490e-03,
       1.30218198e-03, -5.88772167e-03, 7.70639861e-03, -5.81038464e-03,
       1.83263943e-02, 1.92876011e-02, -1.09249009e-02, -3.57958302e-02,
       -1.60178244e-02, -2.06358004e-02, -2.84458511e-02, 8.92274827e-03,
       -3.96096557e-02, -1.76229328e-02, -1.17355436e-02,
       -2.59273853e-02, -7.77690730e-04, -1.82958366e-03,
       -1.93946417e-02, 3.63059826e-02, 5.96872643e-02, 2.92609911e-02,
       -1.89759545e-02, 1.86065829e-03, -1.39451902e-02, -3.55793163e-02,
       -1.32366782e-02, -2.06813328e-02, -3.48350294e-02, 7.78765744e-03,
       -1.94861609e-02, -5.15871961e-03, -4.74312203e-03,
       -1.94641855e-02, -1.66843161e-02, 1.23352204e-02, -1.46388300e-02,
       3.59635092e-02, 3.72414403e-02, 3.25661711e-02, -1.77704412e-02,
       3.56158614e-03, -1.61009952e-02, -3.16282059e-03, -1.24444040e-02,
       -1.21430419e-02, 8.94045644e-03, -2.44866256e-02, -3.38386232e-03,
       1.88157515e-04, -2.01394456e-03, -1.72367971e-02, 8.50657839e-03,
       -8.83703493e-03, -9.03387833e-03, -2.37907912e-03,
       -1.34761306e-02, -2.65616849e-02, -1.55670801e-03, 3.31292220e-04,
       -1.02476301e-02, -1.95456464e-02, -4.33667284e-03,
       -2.30169781e-02, -9.72802937e-03, -3.21296640e-02,
       -3.54429428e-03, -2.25285608e-02, -6.51816884e-03,
       -3.32609005e-02, 1.10482527e-02, 2.27541737e-02, 2.49684211e-02,
       -1.18911425e-02, -2.34253751e-03, -1.00656757e-02,
       -5.22487145e-03, 1.15187652e-02, -1.04748877e-03, 3.20707704e-03,
       2.93292082e-03, 1.31926714e-02, 1.27552794e-02, -3.84608097e-02,
       -1.67928599e-02, -2.28805514e-03, 3.63758882e-03, 6.20537845e-04,
       2.16334183e-02, 2.63374066e-03, 6.95847254e-03, 3.08365538e-03,
       -1.59707107e-02, 4.67708427e-03, -8.57439265e-03, 1.51898544e-02,
       4.72373608e-03, -1.10924942e-02, 1.33667616e-02, 1.52308894e-02,
       -2.08811034e-02, -3.84644568e-02, -6.01288397e-04,
       -9.49223619e-03, 1.30671822e-02, -1.57366390e-03, -1.65835433e-02,
       7.27082137e-04, 7.54003366e-03, -9.43861064e-03, -2.73578893e-02,
       -1.43622188e-03, 1.24911088e-02, 1.05321649e-02, -9.32126213e-03,
       2.88999937e-02, 1.10658547e-02, -7.71148317e-03, 7.41563085e-03,
       -1.63020808e-02, 1.16867397e-03, -2.24359911e-02, 2.73118261e-03,
       3.75023903e-03, -1.01541467e-02, -2.36922745e-02, 5.11578796e-03,
       1.01857493e-03, -6.44323928e-03, -1.36473477e-02, -1.71313602e-02,
       1.05625009e-02, -1.63239166e-02, -4.25658235e-03, 1.32277114e-02,
       -8.37223604e-03, 1.15154376e-02, -1.77031830e-02, 9.22848750e-03,
       1.15605434e-02, 1.47873182e-02, 2.79923342e-03, -1.95681192e-02,
       1.33731645e-02, 5.78091305e-04, -1.89896708e-03, -1.30932834e-02,
       -1.39046065e-03, -7.01924600e-03, 3.75571474e-02, -7.59126060e-03,
       -3.85563332e-03, -1.00408904e-02, 2.11634692e-02, 2.57987883e-02,
       -2.22600438e-02, 2.16017547e-03, -5.80922747e-03, 9.29873437e-03,
       5.46518713e-03, 3.32609226e-04, 2.00508237e-02, 8.24329536e-03,
       -3.90181434e-03, -2.04520952e-02, -2.21504867e-02,
       -1.41742174e-02, -5.53640421e-04, 3.39132664e-03, -1.96723896e-03,
       2.77095567e-02, 2.11673398e-02, 2.82695740e-02, -1.15644839e-02,
       3.85830775e-02, 1.20139243e-02, 3.94250154e-02, 4.40444751e-03,
       3.46422615e-03, 1.11512486e-02, -9.09839384e-03, 9.32498090e-03,
       -1.17282961e-02, -1.46400211e-02, -2.84415158e-03, 2.60579437e-02,
       1.85440741e-02, -2.11334415e-02, 2.58760713e-03, 8.45334493e-03,
       7.11818179e-03, -4.24118452e-02, -4.63151885e-03, 8.49877670e-03,
       -1.57452915e-02, -8.21797643e-03, -1.33988224e-02,
       -4.65249131e-03, 7.45042972e-03, -2.36086827e-02, -3.48527580e-02,
       1.90969706e-02, 1.39569109e-02, 1.57018919e-02, -3.83929745e-03,
       -7.74049107e-03, 4.08055566e-05, 6.17841398e-03, 1.65684242e-02,
       -1.49657959e-02, -1.01846242e-02, 6.47742348e-03, 1.26523590e-02,
       -4.61631920e-03, -2.25430052e-03, 1.77062843e-02, 9.16727353e-03,
       1.43516399e-02, 8.15424719e-04, 5.84784150e-03, 1.49100218e-02,
       2.57508662e-02, 7.51200970e-03, -9.76097491e-03, -1.96871161e-03,
       6.76823372e-04, -2.71439310e-02, -3.30998115e-02, -1.26849366e-02,
       7.73015572e-03, -5.17611625e-03, -2.08234023e-02, -1.05069233e-02,
       1.19962832e-02, 3.94489942e-03, 5.08936937e-04, 1.87779330e-02,
       5.79576613e-03, 5.33033116e-03, -1.05178440e-02, -2.45758090e-02,
       -3.71482951e-04, 2.10854388e-03, -3.14098294e-03, -1.18365465e-02,
       -7.81357009e-03, -4.50548809e-03, 7.11137056e-03, 1.53365079e-02,
       -1.18144858e-03, -1.67268829e-03, 2.03298777e-02, 5.94657520e-03,
       9.50310938e-03, 3.02082375e-02, 6.92929188e-03, -7.56685995e-03,
       -6.69989455e-03, -7.09859189e-03, 7.18961330e-03, 3.29144746e-02,
       1.88966207e-02, 2.01379042e-03, 9.97582171e-03, 1.89519748e-02,
       1.86439138e-02, -2.68686377e-02, 1.35893077e-02, 1.57516617e-02,
       -1.50764342e-02, 8.94699804e-03, -2.60349084e-02, 2.97579840e-02,
       -1.54457716e-02, 8.88669211e-03, -2.54359189e-02, -9.59853642e-03,
       -2.58743521e-02, 1.56779364e-02, 3.34769189e-02, 8.07815418e-03,
       1.22319919e-03, 3.06586884e-02, 1.82511248e-02, -2.21405160e-02,
       -6.68963697e-03, -1.48142964e-04, -2.08319426e-02,
       -3.03004892e-03, -1.98259223e-02, -1.81953888e-03,
       -4.99553457e-02, -3.20945703e-03, -1.84098706e-02,
       -1.06421136e-03, -6.74656534e-04, 3.46820871e-03, 3.18867974e-02,
       -6.03835844e-03, -7.89962709e-03, 1.73319352e-03, 3.13520618e-02,
       9.03992634e-03, -1.15269776e-02, -1.26020564e-02, 1.31817702e-02,
       3.46006796e-04, 6.85589435e-03, 4.52766828e-02, 1.03967553e-02,
       1.29553331e-02, 9.64042172e-03, -7.52797816e-03, 1.07028373e-02,
       4.43843054e-03, 1.23238340e-02, -1.69062354e-02, -2.79449858e-02,
       -4.30147238e-02, -6.49364293e-03, 1.36715909e-02, 1.28466757e-02,
       4.60261106e-03, 2.07288172e-02, 1.02608344e-02, 8.38835817e-03,
       2.73985509e-02, -1.89257786e-02, -1.69378836e-02, -2.63099489e-03,
       6.39421958e-03, -2.60183471e-03, -6.87695062e-03, -2.37339698e-02,
       -1.93434525e-02, 6.05320201e-05, -1.93199720e-02, -1.13686733e-02,
       -2.59722583e-03, -8.83380324e-03, -1.10627636e-02, 9.24583059e-03,
       7.55331758e-03, 4.42838892e-02, 2.83122174e-02, 2.23739240e-02,
       -7.51780253e-03, 3.65101197e-03, -1.89579912e-02, -5.99107565e-03,
       -7.95849320e-03, -2.40482427e-02, -2.22473759e-02,
       -3.42459069e-03, -3.45573127e-02, -3.31574641e-02,
       -2.50358302e-02, -3.44097149e-03, -1.93307251e-02,
       -5.04528591e-03, -2.26497203e-02, 1.07483240e-02, 3.80706228e-02,
       2.79491413e-02, -6.61459519e-03, -4.92633414e-03, -1.18422722e-02,
       -1.67390946e-02, 4.93641058e-03, 6.50477083e-03, 8.50267243e-03,
       -2.95732804e-02, 1.90665119e-03, -2.48438073e-03, 5.67732891e-03,
       -1.90750267e-02, -1.04584619e-02, 1.01059834e-02, 1.39055809e-03,
       1.90974418e-02, -1.29502558e-04, 2.70277052e-03, 2.22110585e-03,
       1.76775884e-02, -1.96205974e-02, -1.70319155e-02, -1.80950854e-03,
       -8.01983289e-03, -2.91640516e-02, 2.14815722e-03, -1.08139711e-02,
       -8.62056669e-03, -2.77838320e-03, -1.46292103e-02,
       -2.04283018e-02, -1.20937377e-02, -7.29694555e-04,
       -7.81949237e-03, 9.65484069e-04, -1.61418207e-02, 1.26046187e-03,
       1.68388486e-02, -2.67362166e-02, -2.25100350e-02, 4.66666603e-03,
       -6.68589910e-03, 2.32665539e-02, -1.51633509e-02, 1.79571975e-02,
       -1.88204125e-04, 1.14838965e-02, -1.97482482e-02, -1.23909498e-02,
       3.77700222e-03, 2.48782393e-02, 2.42239833e-02, 1.49760377e-02,
       1.74547397e-02, 1.13135483e-02, 1.46942101e-02, -1.06878011e-02,
       -3.46428379e-02, -1.55644044e-02, -1.83305126e-02, 5.41130174e-03,
       -1.69644821e-02, -1.31183891e-02, -2.49708258e-02,
       -1.02675362e-02, -4.11007591e-02, -2.71156132e-02,
       -3.51972505e-02, -1.81309285e-03, 1.42666698e-02, 1.23604143e-03,
       1.34924557e-02, -2.66089221e-03, 1.68801448e-03, -1.03273047e-02,
       -1.05333719e-02, 1.13326730e-02, 3.97784309e-03, 2.62372158e-02,
       -8.03124812e-03, 7.63530564e-03, -1.43735874e-02, -2.31511006e-03,
       6.94327056e-03, -1.64099820e-02, 1.98268071e-02, 1.87483914e-02,
       1.09222457e-02, 7.49091036e-04, 8.49566422e-03, -2.09107324e-02,
       1.42521886e-02, 2.46145530e-03, -2.60513145e-02, -3.60314883e-02,
       -1.88172217e-02, -7.33751978e-04, -2.42343929e-04, 2.61425767e-02,
       -7.27991760e-03, 8.16193875e-03, -1.37460176e-02, -2.05288734e-02,
       5.27809933e-03, 2.46595833e-02, 3.86412791e-03, 1.09593747e-02,
       1.35700246e-02, -4.17276053e-03, 1.01191280e-02, -2.36944831e-03,
       -1.55199822e-02, 4.81899083e-03, 2.24331347e-03, 1.48721728e-02,
       -2.05541532e-02, 1.22178644e-02, -1.55456867e-02, 2.44545136e-02,
       8.70489329e-03, -1.14368908e-02, -9.65596642e-03, 4.62832395e-03,
       -1.84013369e-03, -2.31255013e-02, 7.82485027e-03, 2.13397597e-03,
       1.87651142e-02, 2.09011715e-02, -1.25866998e-02, 4.73030843e-03,
       -7.27443537e-03, -1.70394033e-03, -2.14715605e-03, 2.16681305e-02,
       1.17740454e-02, 1.10613380e-03, 6.74369512e-03, -1.98902339e-02,
       8.37057550e-03, 1.31865768e-02, 1.50604742e-02, 3.25465272e-03,
       1.91465728e-02, 2.28541698e-02, 2.80360901e-03, -1.35695925e-02,
       -1.99014675e-02, -8.49346537e-03, 1.10234907e-02, 1.10200383e-02,
       -1.82057116e-02, -3.55785270e-03, -6.93718810e-03,
       -3.01154517e-03, 4.04071435e-03, -8.41373391e-03, 1.14434829e-03,
       -1.28512329e-03, 4.52618208e-03, -4.32801396e-02, -1.38350055e-02,
       5.34630194e-03, 3.62208288e-04, -2.55218125e-03, -2.39244401e-02,
       1.96881499e-02, 9.80769005e-03, 9.52866580e-03, -7.36568298e-04,
       4.37310822e-02, 1.08266817e-02, 1.91505754e-03, -3.12062204e-02,
       -1.24624828e-02, 4.06684028e-03, 4.44582384e-03, 1.21470047e-02,
       -1.42969964e-02, 2.81525403e-02, 1.47718303e-02, 1.15346247e-02,
       -5.69323718e-04, -3.57659464e-03, 4.68485476e-03, -7.44904205e-03,
       8.92892480e-03, -2.22847927e-02, -3.17247994e-02, 2.56933505e-03,
       -3.41527024e-03, -1.08090295e-02, -1.36960102e-02, 2.76733865e-03,
       -1.99999735e-02, 6.92229951e-03, 2.87471469e-02, 1.72052626e-02,
       -6.77734334e-03, -1.40289580e-02, -1.85457170e-02, 6.65542844e-04,
       2.00354028e-03, -2.28539351e-02, 4.50112112e-03, 7.07095303e-03,
       8.02170392e-03, -1.93002354e-03, -1.86770060e-03, 9.51969938e-04,
       -7.57198723e-04, 5.45575342e-04, -1.15270093e-02, 1.14452317e-02,
       2.76811887e-02, 2.21886281e-02, -8.65488686e-03, -8.04101210e-03,
       4.60807979e-03, 3.00979707e-02, 1.81463733e-02, 4.95636053e-02,
       3.17561477e-02, 2.25484986e-02, 8.51570517e-02, 6.13272823e-02,
       2.20369454e-02, 5.09642437e-02, 5.08223521e-03, -1.41004175e-02,
       -2.07479723e-04, -1.85963558e-03, 1.87093001e-02, -1.41542433e-02,
       -3.65155470e-03, -9.18406993e-03, -2.01039203e-03, 5.36677521e-03,
       -2.38466021e-02, -2.97616255e-02, -3.23011726e-02, 1.37778278e-02,
       2.30610804e-05, -2.23799106e-02, -3.68677080e-02, 2.07421985e-02,
       -1.09025761e-02, -1.41518870e-02, -1.24516264e-02,
       -3.64930108e-02, -1.60950925e-02, -6.92628371e-03, 1.86021184e-03,
       -2.25691572e-02, -1.20222187e-02, 2.84254607e-02, 1.66462589e-04,
       1.70780588e-02, 2.67761238e-02, -4.34023514e-02, -1.28680263e-02,
       1.95445511e-02, 2.13588029e-02, 1.79369189e-02, -2.00554170e-03,
       2.10146215e-02, 8.88193026e-03, 3.22628915e-02, 6.52228249e-03,
       -9.04822256e-03, -2.72780145e-03, 5.09825023e-03, -8.81664921e-03,
       -1.51432725e-03, -4.01413068e-03, 1.03610260e-02, 1.40034431e-03,
       -3.24497297e-02, 1.44519964e-02, 2.93729715e-02, 2.83059152e-03,
       -3.04004760e-03, -1.47082750e-02, 7.09597347e-03, 5.61935175e-03,
       9.46870539e-03, 7.41181942e-03, 2.04214025e-02, 2.57201586e-02,
       5.10380184e-03, -2.07034945e-02, -1.50590986e-02, -5.80745703e-03,
       -9.43960901e-03, -1.80370379e-02, -1.86829437e-02,
       -4.11772393e-02, -3.30737606e-02, -1.30528249e-02,
       -2.08324194e-02, -2.76786042e-03, 2.08874443e-03, -1.70901753e-02,
       3.91099229e-02, 5.84913604e-02, 9.00158938e-03, -2.86629498e-02,
       4.08973312e-03, -8.54801293e-03, -3.55004184e-02, -5.62041439e-03,
       -1.68938916e-02, -2.70416047e-02, -7.06933253e-03,
       -8.65352340e-03, -6.03975961e-03, -1.61881316e-02,
       -3.72392200e-02, -1.35655403e-02, -6.98943902e-03, 2.13016453e-03,
       3.27339172e-02, 5.26684560e-02, 4.82654124e-02, 8.39373749e-03,
       2.45004590e-03, -7.30257947e-03, 5.87746548e-03, 1.25862965e-02,
       -2.20902860e-02, -1.85994953e-02, -1.89820472e-02,
       -1.96151659e-02, -1.37558905e-02, -3.91431805e-03,
       -4.65141190e-03, -1.47739034e-02, -2.42909743e-03,
       -1.63759161e-02, -1.17647462e-02, -1.06724864e-02, 4.53493372e-03,
       -6.35368610e-03, 3.04072257e-02, -4.09258483e-03, 1.54125167e-03,
       9.25414823e-03, -4.40120650e-03, -1.15544572e-02, -2.91686375e-02,
       -9.39093716e-03, 4.77145286e-03, -1.51252095e-03, -5.51572442e-03,
       2.38283048e-03, 6.02000672e-03, -2.48333812e-03, -3.39008868e-03,
       1.51114224e-03, -4.64484934e-03, 6.83832541e-03, 1.24209709e-02,
       7.40972254e-03, -2.04986800e-02, -4.26020566e-03, 2.51797889e-03,
       3.92358750e-02, 1.26573956e-04, 6.27621124e-03, -1.49846030e-02,
       2.02181120e-03, -1.67812966e-02, -2.16708556e-02, -1.94074605e-02,
       -9.78684984e-03, 2.05679145e-02, 2.31210259e-03, -8.14078748e-03,
       -8.59856512e-03, 4.12934646e-03, -1.20585458e-02, 3.42028472e-03,
       -6.44487003e-03, -1.00196972e-02, 1.48128383e-02, -1.69486422e-02,
       -5.74738299e-03, -1.45619898e-03, -6.10654429e-03,
       -1.94843281e-02, -8.83023534e-03, 1.08898785e-02, 5.67202456e-03,
       8.28758068e-03, -1.18264249e-02, -1.62696373e-03, 1.85574926e-02,
       1.48092592e-02, -6.96713687e-04, 1.29504967e-02, -5.73835755e-03,
       -5.22156619e-03, 1.25828842e-02, -1.19609600e-02, 1.00649288e-02,
       -4.56938753e-03, 1.68827605e-02, 4.14011115e-03, 2.16749534e-02,
       6.11367170e-03, -1.70019863e-03, 4.23337007e-03, -1.08339905e-03,
       1.10996759e-03, -6.09731251e-05, 1.99615788e-02, 1.34944627e-02,
       2.20253761e-03, 7.70239858e-03, 8.18947330e-03, 1.69450510e-02,
       -1.29200369e-02, -2.77758669e-03, -7.79231777e-03, 1.83679652e-03,
       -9.50848218e-03, -1.86290219e-02, -2.05951463e-02,
       -9.23944637e-03, 1.86743699e-02, 7.14638969e-04, 1.85316093e-02,
       -2.49214750e-03, -6.37918850e-03, -1.17056891e-02,
       -3.86856955e-05, 1.30132940e-02, -8.33525974e-03, 1.30095398e-02,
       -6.99114706e-03, 1.10862022e-02, 1.41516635e-02, -6.09941501e-03,
       1.38929039e-02, -7.55386520e-03, 2.05507763e-02, 1.26995910e-02,
       2.63021328e-02, 8.41860939e-03, 3.01538408e-03, 3.08428728e-03,
       -2.28885631e-03, -1.89850498e-02, -1.82366129e-02,
       -1.19978120e-03, -3.71983694e-03, -1.94568057e-02,
       -2.11617276e-02, -3.71912285e-03, 2.08050106e-03, 6.53326325e-03,
       -1.14107830e-03, 6.92831026e-03, 1.06250998e-02, 1.27464700e-02,
       -2.03627464e-03, 3.63404187e-03, -3.90419690e-03, -1.12318143e-03,
       1.33972131e-02, -1.52761796e-02, -2.28622532e-03, 1.32710971e-02,
       -1.21346419e-03, 1.48059577e-02, 4.45048185e-03, 8.94636009e-03,
       3.50620062e-03, -2.15268438e-03, -1.68072674e-02, 3.70573020e-03,
       8.57495645e-04, 1.88006461e-02, -1.83568394e-03, -2.05680579e-02,
       7.18540139e-03, 5.71876299e-03, 1.69345643e-02, -7.29756150e-03,
       -6.84829289e-03, 1.55787934e-02, -5.00903325e-03, -7.50556472e-04,
       -2.13090107e-02, -9.47801769e-03, -1.68923680e-02, 1.17549393e-02,
       -1.46907922e-02, 1.32802138e-02, 2.54205316e-02, 1.86720900e-02,
       1.24179758e-02, -2.27739699e-02, -1.42756496e-02, 2.82563968e-03,
       9.70649067e-03, -6.78917626e-03, -1.47631178e-02, -9.22559761e-03,
       -1.64397229e-02, 5.27332025e-03, 7.82739092e-03, -6.70280401e-03,
       1.89719547e-03, 9.24605131e-03, -7.94279482e-03, -6.41087210e-03,
       -5.05345222e-03, 7.08694803e-03, 1.85624920e-02, 3.68070267e-02,
       -3.92989116e-03, -5.59926312e-03, -1.71793695e-03,
       -5.48379170e-03, -4.73317923e-03, -6.45085587e-04, 1.15095954e-02,
       1.85844414e-02, 5.53433644e-03, -2.61813775e-02, -7.56911794e-03,
       1.10690191e-03, -4.80961893e-03, -1.32231237e-02, -6.80078147e-03,
       1.32147325e-02, 1.02358274e-02, 3.04429624e-02, 6.80194062e-04,
       1.44681334e-03, -1.17141893e-02, -1.86095200e-02, 7.92275555e-03,
       -1.75678506e-02, -1.79324578e-02, -4.11261292e-03,
       -1.65906549e-02, -1.27186393e-03, -2.65899040e-02,
       -9.08317789e-03, 1.01755159e-02, 1.26244687e-02, -1.27003193e-02,
       -1.02897575e-02, -3.46422195e-02, 3.15993582e-03, 2.60125403e-03,
       -1.90010783e-03, -1.54618826e-02, 2.54411381e-02, -1.32254772e-02,
       -3.92687693e-02, -7.42103672e-03, 2.97224242e-03, 1.17763896e-02,
       1.98221691e-02, -5.33784227e-03, 1.84405560e-03, -9.67093650e-03,
       2.98905484e-02, -1.87562127e-02, 4.64140059e-04, -2.82805506e-02,
       -6.52893353e-03, -2.37690024e-02, -9.47500113e-03,
       -2.15361211e-02, 6.32020691e-03, 1.52912764e-02, 5.22734923e-03,
       6.23829197e-03, -1.74973849e-02, -1.94301188e-04, 2.75048204e-02,
       1.89886764e-02, -5.13590174e-03, 2.83956230e-02, -2.57758386e-02,
       1.63122471e-02, 2.36610863e-02, -6.85830647e-03, 9.82575351e-04,
       9.02497116e-03, 1.10815400e-02, -7.64126191e-03, -1.74858849e-02,
       2.08283383e-02, -2.31785627e-04, 2.23762989e-02, -2.40517072e-02,
       2.58084759e-03, 1.62969027e-02, 7.47712329e-03, -2.69687548e-02,
       1.72745828e-02, 2.81247366e-02, 1.30177727e-02, 4.39522602e-02,
       -1.08772248e-04, 6.20371057e-03, 4.15605493e-02, 3.64289917e-02,
       5.26568945e-03, 4.28477302e-02, -2.58951075e-02, 1.29677625e-02,
       9.09460057e-03, -1.63351018e-02, -4.64133499e-03, -1.01671892e-03,
       -1.10893492e-02, -4.40854318e-02, -1.63524393e-02, 1.49088483e-02,
       1.34264361e-02, 1.27736200e-02, 2.43402012e-02, 3.36608402e-02,
       3.92076224e-02, 3.67163643e-02, 8.80118366e-03, 2.51380820e-03,
       -1.78191289e-02, -1.59436520e-02, 1.09435180e-02, -1.56533532e-02,
       3.33488546e-03, 1.01201609e-02, -1.16295125e-02, -3.47670764e-02,
       -2.12804116e-02, 4.01609391e-02, -1.21906947e-03, 2.07404420e-03,
       2.01119040e-03, 3.55876423e-02, 3.83443125e-02, 1.48800798e-02,
       9.74103808e-03, 2.59295274e-02, 1.75253376e-02, 1.01343561e-02,
       8.11397750e-03, -9.68812313e-03, -3.42320912e-02, 1.67299174e-02,
       1.12255123e-02, 2.04230030e-03, 5.78429596e-03, 6.43782504e-03,
       5.69442334e-03, 9.84960888e-03, 1.20669522e-03, 1.73166394e-03,
       1.27103459e-02, 4.45979834e-03, 8.19818769e-03, 5.47709875e-04,
       2.92228963e-02, -1.35223549e-02, 8.96328688e-03, -1.83304381e-02,
       -4.26724134e-03, -2.68567121e-03, 1.53955200e-03, 1.80925019e-02,
       1.18169766e-02, 3.89465131e-02, -1.96763664e-03, 1.14073651e-02,
       -1.92536181e-03, 1.51255587e-02, -2.55875550e-02, -3.09839007e-03,
       1.71887428e-02, 3.59517448e-02, 1.83255728e-02, -1.22146560e-02,
       -6.42254157e-03, -2.03308370e-03, -2.61135343e-02, 1.45660564e-02,
       4.92608361e-02, -3.01793742e-04, -1.51506858e-03, 1.06467297e-02,
       1.73216611e-02, 3.68960737e-03, -8.37594084e-03, -2.17198692e-02,
       -1.24544417e-02, 3.38048302e-02, 3.41804586e-02, 3.39065269e-02,
       2.65220869e-02, -2.16635820e-02, -3.03496141e-03, -5.48107736e-03,
       -2.41976790e-02, -1.28605664e-02, -4.48806025e-03, 1.05593279e-02,
       2.81612370e-02, 3.94133478e-02, 1.14350766e-02, 1.44615425e-02,
       -6.61769090e-03, -2.73812450e-02, -2.56158859e-02,
       -1.34801371e-02, 1.66082568e-02, 3.78024019e-02, 2.69834679e-02,
       4.76498762e-03, -5.09346044e-03, 8.57057143e-03, -1.03316344e-02,
       1.75990851e-03, 7.54696783e-03, 2.85861883e-02, 3.28666978e-02,
       1.31312478e-02, -4.31687525e-03, -1.39720216e-02, 1.30912745e-02,
       3.34526831e-03, 1.12747140e-02, 3.31094663e-04, 9.45161795e-04,
       1.14768427e-02, 4.16015536e-02, 1.35054011e-02, -1.71364192e-02,
       1.26455193e-02, 2.80042668e-03, -1.21841813e-02, -2.08306275e-02,
       1.29279383e-02, 3.19070444e-02, 1.38574652e-02, 5.38412714e-03,
       -3.18631344e-02, 9.28177778e-03, -1.61125429e-03, -2.31283321e-03,
       -8.10234062e-03, 1.16171874e-02, 1.16896825e-02, 1.81199685e-02,
       1.35495123e-02, -1.86903495e-02, -3.48343514e-02, -3.21786962e-02,
       -1.51372598e-02, -1.71576142e-02, -5.61462808e-03,
       -6.87570032e-03, 1.11387921e-02, 1.83196105e-02, -2.80570425e-03,
       -1.79602783e-02, -3.08788773e-02, -9.06466413e-03,
       -1.59761980e-02, 1.00274710e-02, -1.81063893e-03, 2.44188439e-02,
       -2.92195962e-03, -2.52739582e-02, -2.47523445e-03,
       -6.33600075e-03, -1.95914530e-03, -8.40418320e-03, 3.78740137e-04,
       2.40404140e-02, 6.12596399e-04, -1.61017813e-02, -2.34515825e-03,
       2.04946357e-03, 3.79768722e-02, 1.86139885e-02, 1.04926135e-02,
       1.04078306e-02, 2.69178418e-03, -1.23223476e-03, -9.67025105e-03,
       -1.14883948e-02, -6.13488117e-03, -2.61225123e-02,
       -2.02862057e-03, -5.62074874e-03, 5.88506367e-03, -2.54503428e-03,
       1.03113633e-02, 1.92387011e-02, 1.10660717e-02, -6.60419872e-04,
       -2.52205916e-02, -6.83830993e-04, 7.55124399e-03, 1.20461341e-02,
       1.08219804e-02, 1.23238387e-02, -1.22484574e-02, -7.90516660e-03,
       -9.70402546e-03, -1.16208447e-02, -6.52484549e-03,
       -1.56865064e-02, -2.35749446e-02, 7.28202565e-03, 2.63978299e-02,
       1.63498875e-02, -7.39327818e-03, -2.22159047e-02, -3.22133712e-02,
       -2.48911921e-02, -2.03901692e-03, -1.47530101e-02, 1.32713737e-02,
       -6.19647373e-03, 8.58790055e-03, 8.18189047e-03, -8.51242151e-03,
       1.05669294e-02, -1.66493226e-02, 1.30977118e-02, 9.48125497e-04,
       4.33035009e-03, -1.03061739e-02, -2.97089163e-02, -1.52376024e-02,
       -2.04622410e-02, 3.28674540e-02, -1.20449660e-03, -2.67772493e-03,
       -1.20916907e-02, 1.22778965e-02, 2.54062824e-02, -9.40954685e-03,
       -8.44521541e-03, -1.84793528e-02, 2.30485890e-02, -2.97703445e-02,
       -2.17930670e-03, -6.15321659e-03, 3.65831889e-02, -2.89241853e-03,
       -2.06724815e-02, -1.48035102e-02, -7.12649082e-04, 1.97327957e-02,
       -1.39070936e-02, -4.33329865e-03, -1.29876416e-02, 3.74288089e-03,
       -1.80192113e+00 ]
