%YAML:1.0
mex_id_type_c_back: !!opencv-object-detector-hog
   winSize: [ 128, 80 ]
   blockSize: [ 16, 16 ]
   blockStride: [ 8, 8 ]
   cellSize: [ 8, 8 ]
   nbins: 9
   derivAperture: 1
   winSigma: 4.
   histogramNormType: 0
   L2HysThreshold: 2.0000000000000001e-01
   gammaCorrection: 1
   nlevels: 64
   signedGradient: 0
   SVMDetector: [ -2.24528089e-02, -1.25943904e-03, 6.56539854e-03,
       2.46525998e-03, -2.20807455e-02, -1.20843842e-03, 1.31964986e-03,
       -1.18334005e-02, -4.77925502e-02, 1.47256805e-02, 5.04631223e-03,
       6.92752050e-03, -1.08995227e-05, -1.86985005e-02, -1.05489343e-02,
       8.75943433e-03, 8.05130810e-04, -6.79140957e-03, 4.49717604e-03,
       6.86347438e-03, 7.24898651e-03, 1.30047818e-04, 1.10514499e-02,
       1.47690205e-02, -1.26644364e-02, 1.86521895e-02, 1.52800803e-03,
       9.21705086e-03, 2.96749119e-02, -1.87008977e-02, -1.19696055e-02,
       -3.08781629e-03, -7.44646182e-03, 1.50616607e-03, 3.62190418e-02,
       8.62404145e-03, 2.09184531e-02, -3.21082538e-03, 1.42645426e-02,
       -3.09154205e-03, -3.25520597e-02, -9.23980027e-03, 2.25015305e-04,
       -1.13716554e-02, -5.24168881e-03, -7.55352760e-03,
       -2.19693519e-02, -7.71932025e-03, -1.78783026e-03, 5.48138516e-03,
       9.95267369e-03, -1.88979283e-02, -8.32183380e-03, -2.60006879e-02,
       1.24098053e-02, 2.44788714e-02, -8.93050991e-03, -3.00484104e-03,
       -5.02432026e-02, -2.01313980e-02, -2.47158743e-02, 2.11053640e-02,
       1.07608540e-02, -9.02110990e-03, -1.41379936e-02, -4.83040549e-02,
       1.96670461e-03, 9.51986015e-03, 2.38797651e-03, -2.86100227e-02,
       1.19162146e-02, -8.82431341e-04, 1.37579450e-02, -1.25150802e-02,
       1.22453440e-02, -5.82813658e-03, -1.55490953e-02, 1.65127614e-03,
       7.66244531e-03, 3.01435310e-03, -1.53466791e-03, 1.21075436e-02,
       -2.14866409e-03, 2.29992811e-02, -4.02295357e-03, -1.65154506e-02,
       -1.10994885e-02, 1.98412668e-02, 5.65168029e-03, 8.92797764e-03,
       1.91828478e-02, 3.13669327e-03, 2.93285656e-03, 1.22452648e-02,
       3.52889076e-02, 1.17310358e-03, -2.51346012e-03, 2.25606025e-03,
       2.87327450e-02, -1.17687229e-02, -1.57635286e-02, -1.45308394e-02,
       -1.95771959e-02, 1.05876615e-02, -2.97498852e-02, -1.38041573e-02,
       -7.87462573e-03, 1.04992958e-02, -3.89890186e-03, 9.58929828e-04,
       2.36180723e-02, 7.72417476e-03, -3.14042866e-02, -1.68752633e-02,
       2.41760463e-02, -2.24280339e-02, -7.13812839e-03, 2.06629513e-03,
       -5.17718215e-03, 1.84131674e-02, 8.18610657e-03, -2.72398386e-02,
       2.70969211e-03, 3.49906273e-02, -5.04889665e-03, 5.45525877e-03,
       1.08431950e-02, -1.60972066e-02, -5.79416519e-03, -9.80400201e-03,
       1.34444498e-02, -1.83542422e-03, 6.81004906e-03, -2.29171496e-02,
       1.77684762e-02, 1.79019687e-03, -3.89193464e-03, 6.20372407e-03,
       -3.15619484e-02, -4.89996374e-03, -2.61703525e-02,
       -4.18021064e-03, -2.33306978e-02, 9.21088085e-03, 2.47403588e-02,
       7.26205995e-03, 2.88949255e-02, 2.55608582e-03, -3.77670489e-02,
       9.48039629e-03, 3.47655974e-02, 1.61721138e-03, 5.97941270e-03,
       2.53848583e-02, -1.72738237e-05, 4.51318081e-03, -8.79916176e-03,
       -2.42756158e-02, -1.15935516e-03, 1.54023087e-02, -2.68001296e-02,
       -2.93842028e-03, 1.85353570e-02, 6.18663209e-04, 1.35987541e-02,
       -2.42950991e-02, 1.56162353e-02, -2.26744264e-02, 9.99963749e-03,
       -8.17665085e-03, 3.15431021e-02, -2.06125737e-03, -5.19887824e-03,
       -6.05186156e-04, -2.20312551e-02, 1.30417095e-02, -1.22849997e-02,
       1.65311564e-02, -2.11632308e-02, -3.20655992e-03, 9.59954225e-03,
       -1.07216844e-02, 2.53999396e-03, -1.37456926e-02, -7.28763407e-03,
       1.29920272e-02, 9.33603384e-03, -8.85957293e-03, 5.81081584e-03,
       -1.80191547e-02, -1.16088372e-02, 1.91078950e-02, 1.95929478e-03,
       -9.18076374e-03, 9.44903027e-03, 3.24923955e-02, -2.57326965e-03,
       2.11234530e-03, 8.75136070e-03, -3.62124071e-02, -6.57151453e-03,
       -1.89938564e-02, 6.66933786e-03, 4.69392585e-03, -1.55800683e-02,
       -1.54187139e-02, 1.28741330e-02, -6.80154515e-03, -2.65652668e-02,
       1.03692031e-02, -7.92632438e-03, 2.66862530e-02, -6.09726040e-03,
       1.68386642e-02, -1.31199425e-02, 6.78344583e-03, -1.73370559e-02,
       -7.33768567e-04, 2.98647452e-02, 1.90505516e-02, -1.59411877e-02,
       -2.63655884e-03, 2.92657968e-02, -1.91061944e-02, -4.49633459e-03,
       -9.86137800e-03, -1.33678019e-02, -6.12120284e-03, 7.43877003e-03,
       -2.40189768e-02, -6.54829713e-03, 1.71268061e-02, -8.96775536e-03,
       8.60412326e-03, 2.77826861e-02, -1.78618729e-02, 7.29582319e-03,
       -1.83946043e-02, 3.37555516e-03, 2.24596733e-04, 3.63073833e-02,
       1.04099456e-02, 4.23350297e-02, 3.20360325e-02, 2.89301132e-03,
       1.68743934e-02, -2.64742430e-02, -3.67596257e-03, -2.56693698e-02,
       -8.73970799e-03, -4.73794388e-03, 3.28032896e-02, 2.10294724e-02,
       1.61876604e-02, 1.78072846e-03, 2.29368955e-02, -9.76635516e-03,
       -1.39758526e-03, 2.26958171e-02, 1.74566600e-02, 4.45062257e-02,
       2.15255916e-02, 3.95279145e-03, -2.89987400e-03, 9.46231466e-03,
       -2.20761690e-02, 3.56151420e-03, 2.64247358e-02, 1.77532565e-02,
       2.41283514e-02, 2.54315455e-02, 2.40137633e-02, 1.37050990e-02,
       7.25858845e-03, 1.37669733e-02, 2.77197082e-02, -1.27208773e-02,
       1.90038688e-03, 2.48642452e-02, 1.91247817e-02, -9.21735447e-03,
       -1.78213138e-02, -1.25643956e-02, -4.26876219e-03,
       -1.42637780e-03, -8.97198543e-03, 7.53231859e-03, -7.04327878e-03,
       1.87703278e-02, -1.04815317e-02, 1.71569288e-02, 1.62613615e-02,
       2.83523300e-03, 1.12771783e-02, 2.39761397e-02, 6.39045984e-03,
       3.89742223e-03, -9.21504572e-03, -1.65050197e-02, 1.08778216e-02,
       -3.10607982e-04, 2.07091495e-03, 4.12830375e-02, 2.80017145e-02,
       1.66434813e-02, -1.47025445e-02, 2.60785688e-02, -1.09984744e-02,
       -4.23270557e-03, 1.68730672e-02, -5.89613104e-03, -8.50319862e-03,
       -1.80953369e-02, -1.70473754e-03, -3.87739157e-03, 8.71827826e-03,
       1.15747740e-02, -7.48813758e-03, -1.18554858e-02, -3.34243663e-03,
       -3.59819923e-03, 3.66175926e-04, 3.39884572e-02, 4.58845310e-03,
       -1.28155295e-02, -1.73313990e-02, -8.26667435e-03,
       -6.30737469e-03, 2.40395945e-02, 5.30405855e-03, -5.01378346e-03,
       6.06611720e-04, -2.82005351e-02, 3.84249985e-02, 7.85372127e-03,
       -2.09305901e-02, 1.87892327e-03, -1.64240692e-02, 1.49690849e-03,
       -1.01332562e-02, 3.29117812e-02, 1.76117271e-02, -1.94784049e-02,
       -3.09954211e-03, -1.28314719e-02, -9.63920075e-03,
       -1.17575228e-02, 1.36018740e-02, -6.22341735e-03, 3.81646934e-03,
       -2.33167727e-02, -1.36676235e-02, 1.33413654e-02, -1.27327750e-02,
       5.64142596e-03, -1.87731069e-02, -2.17094757e-02, -1.39459604e-02,
       7.91648962e-03, -1.97894052e-02, 8.30982346e-03, 2.28931080e-03,
       -1.59148350e-02, 9.78058204e-03, -4.69410755e-02, -1.28102573e-02,
       -4.78640432e-03, 2.30744202e-02, 5.00818156e-03, -2.83088535e-03,
       -3.33810016e-03, -2.62697544e-02, -1.08397566e-02, 3.46847903e-03,
       -1.72919445e-02, -2.56264564e-02, 1.79852303e-02, 1.06104640e-02,
       -8.07244144e-03, 1.84440911e-02, 1.53291994e-03, 2.45328154e-03,
       -3.96140143e-02, -8.27701949e-03, 1.69544446e-03, 5.25141787e-03,
       -1.12391799e-03, -2.70134825e-02, 3.12139746e-03, -1.25348624e-02,
       -3.02422680e-02, 1.31850140e-02, -2.32477710e-02, -3.45612466e-02,
       -1.23843960e-02, -3.44644412e-02, 4.64231102e-03, 1.22849895e-02,
       2.41030846e-02, 2.58995825e-03, 2.73546968e-02, -1.12031437e-02,
       -1.94783811e-03, 2.59047188e-02, 1.26653817e-02, -1.36309098e-02,
       -4.67546796e-03, 2.56511662e-02, 4.84868931e-03, 5.71424216e-02,
       2.86091934e-03, 1.84273645e-02, 2.82175038e-02, 1.69480667e-02,
       1.83760133e-02, 2.76341084e-02, 1.75973922e-02, 1.30335509e-03,
       1.61496289e-02, -1.99023681e-03, -8.58478807e-03, 3.49439532e-02,
       3.64850136e-03, 2.30319202e-02, 6.19578455e-03, -2.29512528e-03,
       2.93193408e-03, 2.93254331e-02, 7.52758095e-03, 2.65769958e-02,
       3.77884209e-02, 1.95359662e-02, 6.97003352e-03, -5.94065618e-03,
       3.35442610e-02, 2.19723657e-02, 2.86656488e-02, -1.42258443e-02,
       -2.96222605e-03, -7.62236118e-03, 1.47054074e-02, 5.77086583e-03,
       -7.19853863e-03, 6.48446241e-03, -8.92958231e-03, 1.52702415e-02,
       -1.86522324e-02, 1.30015118e-02, 6.25556684e-04, 7.03090848e-03,
       -1.06515568e-02, -3.54585587e-03, 1.68542136e-02, 2.18672622e-02,
       6.16429094e-03, 3.28445516e-04, 2.49182563e-02, -1.08806962e-04,
       5.01847733e-03, 7.44703691e-03, 5.12070837e-04, 2.61856010e-03,
       6.58578845e-03, -9.64695573e-05, -1.96536835e-02, 8.88576359e-03,
       1.01536512e-03, 3.04855611e-02, 2.58096363e-02, 7.91871804e-04,
       6.41252240e-03, -1.28607592e-03, 2.29725949e-02, -3.18689737e-03,
       1.99046358e-02, 2.23193812e-04, 3.19949612e-02, -6.41153986e-03,
       -1.24434792e-02, 4.16742312e-03, -2.21970119e-02, 1.74496341e-02,
       -2.78452691e-03, 1.39660435e-02, -7.98626617e-03, 2.15909723e-02,
       7.28032645e-03, 4.25415346e-03, -1.37091486e-03, -1.49347149e-02,
       1.32944556e-02, -1.54613535e-05, -9.25442576e-03, -5.45447273e-03,
       1.86918955e-02, -4.78546415e-03, -3.02252248e-02, 5.70884952e-03,
       -2.01421045e-02, 5.18808025e-04, 4.74372832e-03, 4.41772077e-04,
       2.32586055e-04, -1.85769871e-02, 3.24910111e-03, -1.09035661e-02,
       6.01892220e-03, 2.86581664e-04, 1.02304555e-02, -2.76380312e-03,
       -6.13312609e-03, 2.50671688e-03, 7.25200819e-03, 1.08893933e-02,
       3.07062804e-03, 1.35058733e-02, -7.35098356e-03, 1.71143096e-02,
       -9.98905301e-03, -3.45926709e-03, -1.61180515e-02, 5.74777788e-03,
       1.31305195e-02, -1.22937933e-02, 1.22943264e-03, -8.05311371e-03,
       1.59738436e-02, -1.16795283e-02, 2.95141875e-03, -2.41279639e-02,
       -1.05692130e-02, -2.63501587e-03, 2.48963814e-02, 1.34730581e-02,
       -2.80019138e-02, 3.13972775e-03, -2.19085999e-02, 7.05461763e-03,
       -1.97748989e-02, -1.21564921e-02, 2.27817483e-02, 7.40421424e-03,
       6.31765183e-03, -3.91679257e-02, -1.26413116e-02, -1.75444651e-02,
       2.82321312e-03, -1.57679282e-02, -3.07637313e-03, 2.32015923e-02,
       -5.90773183e-04, 1.64743606e-02, -2.51545087e-02, 8.62376066e-04,
       -2.09135655e-02, 1.18370177e-02, -7.47966208e-03, 1.31287267e-02,
       4.28698137e-02, 4.31174524e-02, 1.57799106e-02, -1.18338866e-02,
       -2.55006854e-03, -2.95306984e-02, 3.37075838e-03, -5.25829056e-03,
       -1.48591551e-03, 3.37159671e-02, -1.37353956e-03, 1.47855515e-02,
       -3.30682425e-03, -1.82224903e-02, -1.52342059e-02, 5.48806833e-03,
       -1.98645778e-02, 6.07551738e-05, 2.84257490e-04, -1.36745558e-03,
       1.35456561e-03, 7.94077292e-03, 4.93927896e-02, 3.20350341e-02,
       4.87334281e-03, -6.85904408e-03, -1.04968594e-02, -1.19633414e-02,
       -1.47591149e-02, -1.18799005e-02, -1.13841444e-02, 2.04046778e-02,
       3.05612921e-03, -6.55915216e-03, 1.63339656e-02, -2.67213956e-02,
       9.63251758e-03, -4.40333504e-03, 1.27852755e-02, 1.83116067e-02,
       1.62103307e-02, 1.65875331e-02, 1.72068719e-02, -1.23334005e-02,
       -1.87062733e-02, -1.38256839e-02, -1.30712951e-03, 9.54022910e-03,
       -2.22857893e-02, 7.09354295e-04, -8.51796940e-03, 3.91292386e-03,
       8.63111950e-03, -3.38992663e-02, 5.82994474e-03, -1.32364724e-02,
       -6.92787487e-03, 2.12676451e-02, 3.63878906e-02, -9.63911694e-03,
       -1.46522997e-02, 8.36958876e-04, -2.33246028e-04, -7.38437288e-03,
       7.99094420e-03, -1.26319611e-02, -1.44748362e-02, 2.47761663e-02,
       8.83851387e-03, -4.63167904e-03, -2.61275168e-03, 1.19459601e-02,
       -2.66234130e-02, -1.46141881e-02, -5.03576221e-03, 1.09882690e-02,
       9.13139898e-03, 8.23759008e-03, 3.00772465e-03, 2.38249730e-02,
       -1.23158572e-02, -1.81805044e-02, 9.28976660e-05, -1.23615814e-02,
       -2.43559293e-02, 1.39605077e-02, -7.30719138e-03, -2.47480851e-02,
       -6.66011911e-05, -2.11566500e-03, 2.21214388e-02, -4.15627006e-03,
       -2.57568173e-02, -2.35173628e-02, -1.11332992e-02,
       -9.34220850e-03, -7.78602390e-03, -1.17627429e-02, 6.04050327e-03,
       4.42874171e-02, -1.79195683e-02, -4.49797288e-02, -1.80962849e-02,
       -2.09395308e-02, -2.33735181e-02, -3.18924747e-02,
       -3.52965146e-02, 3.23078334e-02, -4.26018378e-03, -3.01928464e-02,
       -2.36181635e-02, -3.17110568e-02, 7.57330330e-03, -1.37448004e-02,
       -1.82104111e-02, -3.07231192e-02, 1.58834159e-02, -6.98694203e-04,
       -1.65293794e-02, -5.62699623e-02, -1.34428553e-02,
       -1.43326679e-02, -2.16642544e-02, -6.05845638e-02,
       -3.45451944e-02, 3.75730015e-05, 4.73137349e-02, -3.25368270e-02,
       -4.54875380e-02, -2.46364847e-02, -7.43927658e-02,
       -2.23281197e-02, -3.10324393e-02, -4.04691994e-02, 5.83928376e-02,
       -1.26226190e-02, -4.34930250e-02, -4.49783877e-02,
       -5.26945479e-02, 1.97141729e-02, -2.18798686e-02, -5.84894717e-02,
       -3.33136767e-02, -5.89343347e-03, 3.16246003e-02, -3.37322690e-02,
       -7.04160333e-02, -4.00103480e-02, -8.66020545e-02,
       -3.54229137e-02, -4.00638916e-02, -8.70414544e-03, 4.69008051e-02,
       1.87940653e-02, -5.19150794e-02, -5.09513095e-02, -4.71787788e-02,
       -7.29789538e-03, -2.39216629e-02, -6.38860390e-02,
       -1.79833174e-02, 2.36299876e-02, 2.70059984e-02, 3.88121372e-03,
       7.74317980e-03, -8.52895062e-03, 2.15674378e-02, 5.82488952e-03,
       -1.08471690e-02, 2.06819810e-02, 1.86202470e-02, 2.35622525e-02,
       -7.71227526e-03, -3.45181837e-03, -1.23368250e-03, 1.52092194e-02,
       -1.08808586e-02, 1.64136570e-03, 1.00020999e-02, 2.98706014e-02,
       -5.25458530e-03, 1.00409267e-02, 2.55375523e-02, 8.69547483e-03,
       1.58220567e-02, 3.89956385e-02, 4.39737504e-03, 3.35577913e-02,
       4.24554432e-03, 1.63633749e-02, -1.58257391e-02, 1.78065931e-03,
       7.35980785e-03, 2.49847136e-02, -1.17884960e-03, -1.82384136e-03,
       7.34277070e-03, 2.24862043e-02, -1.18064638e-02, 1.43532092e-02,
       1.54248057e-02, 2.69940104e-02, 3.10680717e-02, 5.09983348e-03,
       1.70330908e-02, 4.79244115e-03, -9.59004276e-03, 1.47295196e-03,
       2.09653154e-02, 4.76094382e-03, -3.54959373e-03, 2.87498776e-02,
       -1.80982624e-03, -1.63793983e-03, 1.99397691e-02, 1.43355317e-02,
       1.97823416e-03, 2.93671302e-02, 1.53200198e-02, 4.22551408e-02,
       2.07246467e-02, 3.50575633e-02, 9.46351513e-03, 1.02438107e-02,
       -1.10717146e-02, 1.90518573e-02, 1.30778160e-02, 3.01579591e-02,
       2.05238927e-02, 1.13568651e-02, 4.50171083e-02, 2.41205636e-02,
       2.10574046e-02, 5.75636374e-03, 1.16713913e-02, 2.18894258e-02,
       9.23208334e-03, 2.17406172e-02, 2.70518046e-02, 2.25460045e-02,
       -1.13931689e-02, 1.67115480e-02, 2.15101838e-02, -1.69944223e-02,
       -5.68013778e-03, 1.02408137e-02, -1.33140832e-02, 1.24508962e-02,
       -5.27232699e-03, -2.55023059e-03, 6.92790933e-03, -3.00101489e-02,
       1.44826164e-02, 4.28881816e-04, 9.63365752e-03, 1.99678950e-02,
       5.57005871e-03, 2.27462631e-02, 9.83007485e-04, 1.20128281e-02,
       1.30423708e-02, -1.91246457e-02, -3.73378280e-03, 2.38546799e-03,
       1.22931376e-02, 2.07934855e-03, 8.83241277e-03, 1.54078286e-02,
       1.78017374e-02, -2.64922213e-02, 2.17773616e-02, -9.73416085e-04,
       1.93000468e-03, 2.38109613e-03, 1.49588501e-02, 4.94775409e-03,
       2.56840959e-02, -1.56165371e-02, 2.87920004e-03, 2.08717808e-02,
       1.51814222e-02, -1.28676984e-02, -2.52483133e-02, 3.08471806e-02,
       -9.21622198e-03, 2.49759592e-02, 5.13960049e-03, 1.81137193e-02,
       -6.92273141e-04, -4.16459329e-03, -6.86386321e-03,
       -2.06493530e-02, 2.40633674e-02, -8.43246002e-03, 1.00204134e-02,
       1.30412299e-02, 4.45010560e-03, 2.05311272e-02, 1.70631874e-02,
       -2.02442333e-02, -2.46763416e-03, -6.71261642e-03,
       -1.06261671e-02, 1.45609975e-02, 7.18834018e-03, 2.91092228e-03,
       2.23142952e-02, 2.02150382e-02, 8.03103484e-03, 1.82784181e-02,
       -2.98944842e-02, -3.23739909e-02, 2.32276716e-03, -1.02103632e-02,
       -1.07313618e-02, 1.87062435e-02, 4.31639468e-03, -4.35605791e-04,
       1.48022175e-02, -1.34125398e-02, 1.47500483e-03, 4.03003860e-03,
       -1.04726348e-02, -6.22240780e-03, -3.65372235e-03, 4.01232718e-03,
       1.43281126e-03, 1.26949837e-02, 7.67877651e-03, -1.30645009e-02,
       6.83372002e-03, -1.82636026e-02, -2.09533200e-02, 3.52219242e-04,
       -1.21457013e-03, -5.52776176e-03, -1.37621071e-03,
       -4.72201547e-03, 5.91236539e-03, 2.30505187e-02, 1.52979344e-02,
       -1.33379130e-02, -5.71201509e-03, -5.79990773e-03, 1.47201056e-02,
       3.90966125e-02, 9.30690952e-03, 4.42156568e-02, 5.46674989e-03,
       -1.10132433e-02, -1.82313323e-02, -2.32496094e-02, 9.47377412e-04,
       -7.92824849e-03, 5.33983763e-03, 1.55164953e-02, 1.73167326e-02,
       -5.83283324e-03, -3.70117696e-03, -1.51173407e-02, 1.67734567e-02,
       6.77291828e-04, 4.41036624e-04, 2.76412535e-02, 9.81889758e-03,
       3.92743498e-02, 6.03264943e-03, 5.31476690e-03, -2.26579364e-02,
       -2.22302154e-02, -9.32314713e-03, -2.94360262e-03,
       -3.75803118e-03, 9.97992884e-03, -9.43872333e-03, -2.27050073e-02,
       -3.14201787e-02, -4.13981341e-02, -3.29876356e-02,
       -1.35195768e-02, -1.55916503e-02, 1.92344692e-02, 6.11134805e-03,
       3.38629149e-02, 5.25704445e-03, 1.20510701e-02, -7.31472485e-03,
       -1.73752736e-02, 5.65195922e-03, 1.77339260e-02, 1.29531398e-02,
       2.00012955e-03, -1.31263789e-02, -1.85572468e-02, 8.69299565e-03,
       -2.72550294e-03, -2.58744638e-02, -6.34762109e-04,
       -8.95278808e-03, 1.90755446e-02, 5.90325566e-03, 7.79201649e-03,
       -6.03223220e-03, -1.40330913e-02, -1.61383152e-02,
       -3.28711420e-02, -1.33775244e-03, 9.20355786e-03, -1.07879157e-03,
       -8.42044875e-03, -1.17238043e-02, -2.47777402e-02, 1.20945601e-03,
       -6.78233616e-03, 1.16163958e-03, -2.68067326e-02, -5.62029076e-04,
       -2.11281776e-02, -1.67225245e-02, -1.09529300e-02,
       -1.07863564e-02, -4.62622978e-02, -7.31757609e-03, 1.11200875e-02,
       2.22654268e-03, 2.36306642e-03, 3.50652821e-03, -2.08923630e-02,
       1.15796309e-02, -2.62135137e-02, -3.84682417e-02, 3.80936265e-03,
       9.87879816e-04, -1.98160727e-02, -8.67592730e-03, -1.38901034e-02,
       1.11449696e-02, -4.22189897e-03, -4.06471081e-03, -3.92244346e-02,
       5.54206921e-03, -2.73230206e-02, -1.96576528e-02, -1.96887292e-02,
       -2.04430409e-02, -3.91502678e-02, 4.60170733e-04, -2.47242451e-02,
       -3.04970611e-02, -2.17392705e-02, 4.34489250e-02, -3.31851217e-04,
       -4.48832382e-03, -2.68164743e-03, -7.12918639e-02,
       -1.43456440e-02, -1.90710295e-02, -2.22819820e-02, 4.04403247e-02,
       7.63259828e-03, -2.64810976e-02, -1.78740136e-02, -2.66501177e-02,
       -2.86082439e-02, -2.66027860e-02, -2.63812859e-02,
       -6.43579196e-03, 2.30885856e-02, 1.43098636e-02, -8.33265483e-03,
       -2.66605932e-02, -1.62621960e-02, -5.92919216e-02,
       -1.12838782e-02, -1.97628769e-03, 5.82906883e-03, 2.66115535e-02,
       -1.25325304e-02, -2.50515211e-02, -4.58471403e-02,
       -3.99775319e-02, 9.05578863e-03, -3.40069868e-02, -2.93377917e-02,
       -8.76024365e-03, -7.01948721e-03, -1.14063956e-02, 1.70423817e-02,
       1.63150821e-02, 9.82737821e-03, 3.99098173e-03, 1.48036871e-02,
       4.92379209e-03, 7.69743416e-03, 4.93051670e-03, -7.87918631e-04,
       -1.34593910e-02, -1.99526679e-02, -5.67952171e-03, 1.99816246e-02,
       2.29955162e-03, -1.05345658e-04, 8.07133690e-03, 2.40609292e-02,
       4.28229012e-03, 2.38180421e-02, 1.43375183e-02, 8.06677155e-03,
       -7.76719349e-03, -4.35234659e-04, 1.66556926e-03, 1.90561768e-02,
       1.20144654e-02, -1.14174280e-03, -3.83017992e-04, 1.41239120e-02,
       1.80728603e-02, -3.85518675e-03, -5.62939141e-03, 2.30674515e-03,
       7.11299153e-03, 1.02142002e-02, -8.14688951e-03, 8.96971766e-03,
       3.90741887e-04, 6.31980319e-03, 1.03802532e-02, 1.30541660e-02,
       -2.44324165e-03, -5.29723882e-04, -1.41936876e-02, 1.43031502e-04,
       2.88097933e-03, 4.27332288e-03, -8.33605416e-03, 3.32871117e-02,
       1.96032003e-02, 7.65170436e-03, -9.78477532e-04, -1.64340027e-02,
       -1.11277099e-03, 1.75684076e-02, 1.90145653e-02, 4.00045961e-02,
       -6.36578770e-03, 3.56992595e-02, 2.03358177e-02, 1.16018625e-02,
       9.23280080e-04, 1.43419402e-02, 1.03632445e-02, -1.16224750e-03,
       3.30327861e-02, -8.61846283e-03, 5.54559054e-03, 1.00742392e-02,
       -7.29357172e-03, 1.68403529e-03, 1.40424529e-02, 8.51292629e-03,
       3.36757139e-03, 1.96834356e-02, 1.97561160e-02, 4.39573731e-03,
       1.76702663e-02, 1.46666244e-02, 1.31829744e-02, -8.73529445e-03,
       -2.32538730e-02, -4.96598193e-03, -2.06825999e-03, 1.40992850e-02,
       -1.47547936e-02, 1.79409515e-02, 1.83919314e-02, -2.42794282e-03,
       -7.35819433e-03, 9.48541705e-03, 1.70334689e-02, 4.14157249e-02,
       1.68643962e-03, -7.67268427e-03, 1.75710823e-02, 6.13184879e-04,
       1.34588860e-03, -4.39927680e-03, 1.04190651e-04, 9.73731000e-03,
       6.50169887e-03, -1.06089134e-02, -1.33111067e-02, 1.76305491e-02,
       4.47194837e-03, 2.11269222e-03, -2.18253280e-03, -1.22786192e-02,
       -6.08413666e-03, -1.05759203e-02, 2.62781922e-02, -1.40731586e-02,
       -4.01632162e-03, 5.64726884e-04, -6.88983779e-03, 1.12952320e-02,
       2.63747089e-02, -2.12748870e-02, 5.03780646e-03, -3.28534562e-03,
       -1.07598426e-02, -8.47681426e-03, -1.08295986e-02, 5.73764415e-03,
       -2.50673611e-02, -2.25863215e-02, -2.25350335e-02,
       -2.66859047e-02, 9.70544200e-03, -1.32707991e-02, -2.77538085e-04,
       -1.08769583e-02, -2.45228745e-02, 2.16689470e-04, 1.44529110e-02,
       -1.80707723e-02, -2.30693887e-03, 1.37528470e-02, 3.19583900e-03,
       2.71948311e-03, -1.56406124e-04, 8.03154428e-03, -7.84150138e-03,
       1.50065850e-02, -7.82243907e-04, -6.21809531e-03, 1.65042393e-02,
       -9.88634396e-03, -6.54804287e-03, -2.92764511e-03,
       -4.29413095e-03, 2.69993121e-04, 4.69784904e-03, -2.74572731e-03,
       -2.42458824e-02, 4.56443615e-03, 2.11902382e-03, -2.12321989e-03,
       6.29479857e-03, -3.07054422e-03, 1.45275919e-02, 3.45934480e-02,
       -2.18749070e-03, -7.24169984e-03, 2.00367998e-02, -5.89778041e-03,
       4.10518376e-03, 1.42813399e-02, 1.10191228e-02, -2.18048990e-02,
       1.54463267e-02, 1.02041168e-02, -3.23591232e-02, 5.79983508e-03,
       -2.41448637e-03, -1.73471179e-02, -6.17586728e-03,
       -1.74116287e-02, 1.45631749e-02, -4.39855317e-03, -8.12103599e-03,
       2.14826502e-02, 3.99899087e-04, 3.21568660e-02, -9.42401239e-04,
       -1.04907749e-03, -3.56751075e-03, -8.78199469e-03,
       -2.87046749e-02, -1.76459793e-02, -4.70027654e-03, 8.28139111e-03,
       -9.74242808e-04, 1.27760682e-03, -4.22984594e-03, -4.90941945e-03,
       -7.33931921e-03, 1.79353673e-02, 1.87236369e-02, 1.05182575e-02,
       4.13634256e-02, 2.40914915e-02, -1.48949800e-02, -9.53884050e-03,
       -1.45063074e-02, 2.83663087e-02, -1.18386755e-02, -7.16060679e-03,
       -2.10076198e-02, 1.56586114e-02, 2.25279294e-03, -2.40559713e-03,
       -1.24115706e-03, 1.07796546e-02, -7.39245769e-03, -1.46157725e-03,
       3.59447696e-03, 2.43934505e-02, -1.49754556e-02, -5.05284034e-03,
       4.50909464e-03, 1.18882069e-02, 1.42278979e-02, -1.27007393e-02,
       2.29181759e-02, 1.97404083e-02, -2.64342874e-04, 1.81536227e-02,
       -3.69848288e-03, 1.98651804e-03, 3.36562879e-02, 1.10579282e-02,
       6.88732509e-03, -1.47686051e-02, 5.51917357e-03, -8.55701789e-03,
       -1.58188469e-03, -1.06297638e-02, -9.57003608e-03,
       -3.95729253e-03, 2.80815847e-02, -4.05685371e-03, 2.57071014e-03,
       1.05111077e-02, -3.55133764e-03, 4.76182951e-03, 2.36773603e-02,
       1.77807156e-02, 1.12821367e-02, 8.31673015e-03, -2.05653869e-02,
       1.27482070e-02, 2.26068050e-02, 6.92652818e-03, 1.54894507e-02,
       -3.95947369e-03, 8.23949371e-03, -6.16306160e-03, -1.22636911e-02,
       -1.18593434e-02, 3.14651802e-02, 5.10136113e-02, 1.51302610e-02,
       -8.83332919e-03, 1.54909855e-02, 6.78819697e-03, 2.23911423e-02,
       -6.59689959e-03, -3.45484428e-02, 1.05287861e-02, -3.10093747e-03,
       -7.67026143e-03, -3.91048333e-03, -1.57197099e-02,
       -2.57200957e-03, 5.76860225e-03, -2.22553406e-02, -2.30401270e-02,
       2.17470732e-02, 1.71318073e-02, 1.74449403e-02, -1.00957099e-02,
       1.02993399e-02, 5.32005040e-04, 1.60873961e-02, -2.62054452e-03,
       9.05033946e-03, 2.08728258e-02, 3.30762565e-02, 9.51235928e-03,
       -3.57440300e-02, 1.42756505e-02, 1.78236701e-02, 3.97334658e-02,
       9.71102156e-03, -3.32450196e-02, 1.05113331e-02, -6.29004929e-03,
       1.36565918e-03, 3.48514109e-03, 5.82425157e-03, -3.94075923e-03,
       1.45197567e-02, -2.14767945e-03, -1.59811843e-02, 1.74460690e-02,
       1.40581420e-02, 1.11545352e-02, -2.97980066e-02, 1.19663319e-02,
       5.39715821e-03, 4.20116000e-02, -2.82967510e-03, -4.38358858e-02,
       1.57148037e-02, -1.06279156e-03, -9.85081214e-03, 6.98873261e-03,
       -6.00608706e-04, -7.38349138e-03, -2.82900198e-03,
       -2.39326749e-02, 1.31118158e-02, 3.58231440e-02, 2.21200306e-02,
       2.44733822e-02, -8.03927251e-04, 1.12212123e-03, 3.93556990e-03,
       1.64506026e-02, 1.13977771e-02, -3.41964373e-03, -3.73720028e-03,
       5.90998773e-03, 6.01574872e-03, 9.77444462e-03, -1.98159292e-02,
       -8.89750849e-03, -8.84108990e-03, -1.29244616e-02, 1.31452782e-02,
       3.04576680e-02, 5.71831595e-03, 1.97775313e-03, 1.48882782e-02,
       1.94650125e-02, 1.37447165e-02, 1.50954323e-02, 2.74778791e-02,
       1.82778127e-02, -4.75099916e-03, 4.85173753e-03, 6.55981572e-03,
       1.24816578e-02, -8.41727853e-03, -1.58719241e-03, 4.40019928e-03,
       -1.21260819e-03, 1.25352470e-02, -3.12223681e-03, 1.24035198e-02,
       2.41624545e-02, 1.15630226e-02, 2.24723611e-02, 1.56410187e-02,
       -1.89534307e-03, 6.42302120e-03, -2.02666037e-04, -4.53082751e-03,
       -7.66324485e-03, 1.20452382e-02, -1.29900966e-02, 1.05744563e-02,
       5.94669301e-03, -1.40112778e-02, 4.14236529e-05, 3.00996210e-02,
       -6.11876091e-03, 3.42876301e-04, 1.45615833e-02, 6.93688681e-03,
       1.81971639e-02, 2.55861250e-03, 4.32630815e-03, 6.75506005e-03,
       -8.59371736e-04, -9.88186151e-03, -1.24811344e-02,
       -4.81122965e-03, -9.03843902e-04, 6.16545975e-03, 7.29995640e-03,
       -1.36463204e-02, 3.21148266e-03, -1.85978897e-02, 3.72055359e-03,
       1.79938655e-02, 2.94661950e-02, 1.98093224e-02, 1.11858575e-02,
       4.27808193e-03, -1.29764378e-02, -2.08345428e-02, -1.72075424e-02,
       7.10384035e-03, 1.17470706e-02, 1.43481754e-02, -1.16056507e-03,
       -3.58528749e-04, -3.51314992e-03, -1.68892276e-02,
       -2.85617635e-02, 3.30307870e-03, 1.66457910e-02, 1.72184296e-02,
       6.81409799e-03, 2.21394785e-02, 1.96865741e-02, -2.42955820e-03,
       -1.56530887e-02, 1.42499739e-02, 2.26349523e-03, 3.88488188e-05,
       -1.98372873e-03, -1.72476899e-02, 8.75818951e-04, -2.55185571e-02,
       1.32255210e-02, -2.38099456e-04, -6.49755262e-03, -2.65510809e-02,
       -8.55164137e-03, -3.15858633e-03, -1.51298363e-02, 1.36485929e-02,
       -1.37347281e-02, -3.63064930e-03, -2.39940211e-02,
       -2.31505856e-02, 1.54550504e-02, 2.06859205e-02, 3.71618546e-03,
       2.07363460e-02, 3.01541891e-02, -8.12607631e-03, -1.45698548e-03,
       1.35018164e-02, 8.54506996e-03, -1.97559539e-02, -1.88765582e-02,
       -1.41562391e-02, -9.01395921e-03, 2.19038278e-02, -3.41567732e-02,
       -1.19276959e-02, 8.56913999e-03, -1.39948279e-02, -4.92861401e-03,
       -2.18443596e-03, 5.90249989e-03, 2.98506320e-02, 1.49536775e-02,
       -1.01223495e-02, -8.50138720e-04, 1.52799934e-02, 1.95314847e-02,
       3.71376313e-02, 1.90151408e-02, 8.08440242e-03, 2.63126072e-04,
       -3.46275442e-03, -3.02893594e-02, 2.22342089e-03, 1.02951257e-02,
       1.60382222e-02, 2.07085423e-02, 1.90188177e-02, 1.21117402e-02,
       -1.33252935e-03, 4.14475426e-03, -1.98431406e-03, 3.21628014e-03,
       -1.14133826e-03, -6.24955446e-03, 2.67241523e-03, 5.59058099e-04,
       1.45100215e-02, -1.11563904e-02, 1.31782901e-03, -2.19404995e-02,
       5.66358678e-03, 9.45417210e-03, 2.03165095e-02, -1.36846304e-03,
       -5.76720154e-03, 2.12532375e-02, -1.41694415e-02, -2.34760766e-04,
       -4.22861846e-03, 9.62174870e-03, 5.45932585e-03, -5.45250392e-03,
       2.79719271e-02, 1.66668594e-02, 1.61129218e-02, -3.73184681e-03,
       3.38092409e-02, 8.41243018e-04, -9.31009557e-03, -4.18743771e-03,
       -4.05682391e-03, 1.57460328e-02, -1.98781341e-02, -3.12850322e-03,
       -4.84740064e-02, -3.43848229e-03, -1.71936285e-02, 7.98710529e-03,
       1.69968996e-02, 1.16331708e-02, 5.65418527e-02, 4.53534983e-02,
       3.98846567e-02, 2.81829070e-02, 8.36131442e-03, 8.09838250e-03,
       -2.10104603e-03, 5.71539998e-03, 2.93747522e-02, -3.36081744e-03,
       2.05948334e-02, 1.60593390e-02, -2.81866416e-02, -2.23392434e-02,
       -2.07916740e-03, 1.07934680e-02, 9.58012883e-03, 3.66683723e-03,
       1.08049596e-02, -1.41347935e-02, 4.64741932e-03, -2.80487407e-02,
       -1.70550589e-02, -1.42318187e-02, -1.17010297e-02,
       -9.65442043e-03, 7.30189215e-03, 2.23653167e-02, -2.03954447e-02,
       2.14682822e-03, 8.76491051e-03, -6.01084996e-03, 3.32565457e-02,
       -2.79671047e-03, -1.62007194e-03, 4.50943690e-03, -1.83049589e-02,
       1.67652555e-02, -1.07116466e-02, -1.86362222e-03, -1.39407837e-03,
       4.03115014e-03, -3.38858217e-02, 1.73758995e-02, -1.02763223e-02,
       2.56610475e-02, -1.05765387e-02, 4.90166433e-03, 5.96340187e-03,
       5.61154913e-03, 1.21916016e-03, -9.65762138e-03, 1.90532450e-02,
       2.00420897e-02, -1.34954778e-02, 1.30119510e-02, 4.18873923e-03,
       -5.80665655e-03, 1.46403844e-02, -2.63270792e-02, -1.49990218e-02,
       2.55194213e-03, -5.74577413e-03, 5.71648707e-04, 1.98626742e-02,
       1.40452897e-02, 2.17091683e-02, -1.88424680e-02, 1.10987630e-02,
       -4.46417276e-03, 8.17873236e-03, 7.50613073e-03, -7.63209490e-03,
       1.41666050e-03, -3.88128706e-03, -2.39773910e-03, 2.90166289e-02,
       -7.65627436e-03, 1.47602777e-03, 8.24327953e-03, -1.65996794e-02,
       -3.01688947e-02, -1.12686399e-02, -3.38081527e-03,
       -1.46647049e-02, -6.18586270e-03, 2.10596398e-02, 2.88459938e-03,
       -2.38302890e-02, -1.47551429e-02, 7.53761595e-03, 3.01463623e-02,
       3.64571717e-03, 2.29013022e-02, -4.23038825e-02, -3.97909526e-03,
       -1.62989926e-02, 3.00054085e-02, 1.45324068e-02, -3.02996058e-02,
       2.04456188e-02, -5.15028276e-03, 5.42928372e-03, 1.73475649e-02,
       -2.34441902e-03, -2.69182082e-02, -1.09100761e-02,
       -1.85966920e-02, 3.54723120e-03, 2.35903766e-02, 8.37099086e-03,
       4.56940057e-03, -2.93671004e-02, 1.32179894e-02, -7.33163347e-03,
       2.55316291e-02, -1.86936581e-04, -1.51776299e-02, 1.88831314e-02,
       2.05736160e-02, 2.92168325e-03, 6.75186235e-03, 1.15645453e-02,
       -1.06463684e-02, 7.92527758e-03, -1.87581275e-02, 1.50589989e-02,
       3.36590707e-02, 2.42914744e-02, 2.67468467e-02, 1.07511645e-02,
       2.14942675e-02, -1.19945854e-02, -7.80963851e-03, 1.72489695e-02,
       -5.21987630e-03, -2.49497779e-02, -1.39478920e-03,
       -1.95751060e-02, 3.27367447e-02, -1.36627937e-02, 4.03073092e-04,
       -1.79237574e-02, -7.63837667e-03, 1.76858082e-02, 1.27087487e-02,
       3.28141935e-02, 2.13599112e-02, 2.77830847e-02, 2.47815922e-02,
       1.34661142e-02, 2.21993215e-03, 6.85075764e-03, -1.12597551e-02,
       -1.31060844e-02, 6.85628969e-03, -1.15870470e-02, 2.22726874e-02,
       -1.52152833e-02, 1.09059764e-02, -8.10007006e-03, 7.70781562e-03,
       1.37274629e-02, -1.34167569e-02, 8.44217464e-03, 2.40804930e-03,
       1.73793384e-03, 2.26393361e-02, 1.80630963e-02, 5.34560205e-03,
       2.87837554e-02, -5.29314205e-03, -2.22633156e-04, 8.53974465e-03,
       -1.43558336e-02, -1.71518624e-02, 8.53207149e-03, 5.23128966e-03,
       1.31525879e-03, 1.17080705e-02, 9.98643506e-03, -2.36321408e-02,
       1.27518121e-02, -2.37469580e-02, 3.07028405e-02, -9.28233145e-04,
       1.02213081e-02, 2.22827727e-03, 2.13405993e-02, 2.51424983e-02,
       -1.64324173e-03, 2.45806426e-02, -6.44280342e-03, 5.48399286e-03,
       -5.60908858e-03, -9.40061081e-03, 4.67056455e-03, 1.44169563e-02,
       -1.07581764e-02, 5.39683970e-03, -1.19264517e-02, -2.06160303e-02,
       -5.48602897e-04, -5.48052415e-03, 1.48880631e-02, -6.47987658e-03,
       -5.30730654e-03, 1.25765463e-03, 4.90069762e-03, 4.06926207e-04,
       -3.02481074e-02, -4.96964576e-03, -2.47982480e-02, 1.25037367e-02,
       2.59943511e-02, -1.50380924e-03, 1.02949487e-02, 8.32413696e-03,
       8.87924712e-03, 1.63627788e-02, 9.71991941e-03, 2.20969673e-02,
       4.87190066e-03, 1.42300120e-02, 2.49383934e-02, 7.85631035e-03,
       -2.36243801e-03, 1.54326973e-03, 2.05850601e-02, -6.17503002e-03,
       7.87642691e-03, 3.61381657e-03, 4.15402977e-03, 1.54616628e-02,
       -1.49038285e-02, 4.13228478e-03, 1.31909586e-02, 1.11694308e-02,
       1.15134874e-02, -2.92511638e-02, 1.25152653e-03, 2.17333157e-02,
       -1.29117109e-02, -1.37485638e-02, -5.03993186e-04, 1.17478641e-02,
       1.05741145e-02, 3.95363662e-03, 6.26950897e-03, -5.36490418e-03,
       1.34486584e-02, -1.50772501e-02, 1.66646335e-02, 1.14498064e-02,
       1.03203170e-02, 2.73829810e-02, 6.43878290e-03, 1.63121079e-03,
       -5.11416141e-03, 2.21389183e-03, -8.49304895e-04, 2.59627178e-02,
       4.16254252e-03, 7.81988725e-03, -9.30917542e-03, 1.34138064e-02,
       4.18539941e-02, -8.97293445e-03, 1.34366779e-02, -1.15202158e-03,
       1.61412451e-02, -4.10448899e-03, 1.05359368e-02, -1.26177203e-02,
       -5.96867502e-03, -1.20345186e-02, 1.31657170e-02, 2.55152280e-03,
       1.38009889e-02, 3.86902094e-02, 1.13536520e-02, 2.57608779e-02,
       4.79123369e-03, 9.20176413e-03, -2.34257132e-02, 3.71926202e-04,
       1.06437383e-02, 4.56899293e-02, 8.96881986e-03, -2.32101046e-03,
       1.13732032e-02, -2.89230682e-02, -1.94932299e-03, -1.02384230e-02,
       9.15733166e-03, 2.73736697e-02, -1.26639232e-02, 2.36858055e-02,
       1.43605033e-02, 2.95743924e-02, -1.40165328e-03, -1.91938151e-02,
       -1.40351783e-02, -8.23158771e-04, 2.39048922e-03, -1.54207395e-02,
       2.30105296e-02, 5.32949949e-03, -1.07421342e-03, 1.16605973e-02,
       1.68628078e-02, 1.56333073e-04, 2.20199004e-02, 7.73135014e-03,
       -2.58785440e-03, 1.71353808e-03, 1.00660825e-03, 6.96600555e-03,
       -1.27250310e-02, -3.20442282e-02, 3.12460680e-03, 2.77411733e-02,
       2.00506314e-04, -2.47571748e-02, -3.53498315e-03, 1.57156400e-02,
       -1.36221969e-03, 2.17056274e-02, -6.05958654e-03, 1.59016829e-02,
       5.15197683e-03, 1.40987672e-02, -3.26614939e-02, -7.96702877e-03,
       -1.06522059e-02, 6.97572995e-03, 9.94957611e-03, -1.54897235e-02,
       7.98547582e-04, 3.40884924e-03, -2.36566179e-03, -2.24939082e-02,
       1.16182966e-02, -1.22124096e-02, -3.61341424e-02, -8.94149300e-03,
       7.45877437e-03, 2.51144338e-02, -1.10166427e-02, 1.35650048e-02,
       -2.61520315e-03, 2.49214936e-02, -2.44230740e-02, -1.11852745e-02,
       -1.37262791e-02, -1.58993248e-02, -4.22918517e-03,
       -1.36742359e-02, -9.14264310e-05, 1.55360140e-02, 9.54861101e-03,
       -1.39220217e-02, -7.08790077e-03, 2.14477777e-02, 1.21730799e-03,
       2.86896322e-02, -1.70976147e-02, -6.22098392e-04, -6.08000963e-04,
       -6.87251333e-03, -5.05617494e-03, 2.06241403e-02, -1.05753345e-02,
       -4.05474659e-03, -8.16662610e-03, -2.10538618e-02, 3.75807565e-03,
       -8.63617659e-03, -1.65904611e-02, 3.35528143e-03, 1.75252892e-02,
       2.35703960e-02, 2.12284103e-02, -3.49369575e-03, 7.13361613e-03,
       1.59948487e-02, -4.92727384e-03, -1.68475676e-02, 1.11623865e-03,
       1.53376618e-02, 1.12002613e-02, 5.92850614e-03, 2.60854308e-02,
       1.27032194e-02, 1.16823204e-02, -5.77782141e-03, -2.14355662e-02,
       -6.31563831e-03, 4.84744785e-03, 8.57438613e-03, 2.80163307e-02,
       1.92616950e-03, 1.55217880e-02, 7.38750771e-03, 2.01678672e-03,
       -1.66045800e-02, 3.07409838e-03, -7.41229998e-03, 6.78827288e-03,
       1.46320817e-04, 1.48963537e-02, 4.23788093e-03, 1.62592568e-02,
       8.44843686e-03, -1.38609894e-02, 1.01872412e-02, 1.18342293e-02,
       1.07714208e-02, -3.68116535e-02, -1.11045886e-03, 7.96886161e-03,
       2.99837235e-02, 7.29806256e-03, -1.68758910e-02, 1.26081975e-02,
       3.90743278e-03, 1.17950258e-04, -1.42108221e-02, -6.56508328e-03,
       2.13314202e-02, 1.79492235e-02, -1.06428759e-02, 3.75364162e-03,
       1.83207672e-02, -1.85549317e-03, 9.02117044e-03, -8.60862061e-03,
       1.17533449e-02, 9.11675580e-03, 3.39454971e-02, 2.22876854e-02,
       -5.17580518e-03, -2.18217098e-03, 4.56824852e-03, 1.59063842e-03,
       -3.40138073e-03, -1.22231133e-02, 1.49520990e-02, 2.37089097e-02,
       7.21551012e-03, 1.93741005e-02, 6.58428110e-03, 1.34305637e-02,
       -1.38739562e-02, 1.70740094e-02, 6.24683779e-03, 2.10941155e-02,
       9.76677425e-03, 2.51326966e-03, -1.51250064e-02, -2.00090893e-02,
       6.43814867e-03, -2.20139306e-02, 6.60011917e-03, -1.10299764e-02,
       1.74092725e-02, 5.86381415e-03, 2.36809365e-02, -1.56711936e-02,
       -5.61239524e-03, -4.28755907e-03, -2.74288189e-03, 8.56635999e-03,
       6.90714037e-03, 2.19296850e-02, 7.79131707e-03, -1.11687779e-02,
       1.05006453e-02, -7.15259090e-03, -1.47006055e-03, -6.50137756e-03,
       -1.84500143e-02, -4.79276665e-03, 1.34918578e-02, 1.67738553e-02,
       7.94918463e-03, -2.66654622e-02, -1.16644232e-02, 6.78803446e-03,
       -2.90057287e-02, 3.78574580e-02, -4.15714718e-02, -2.59476667e-03,
       -1.07429959e-02, -8.02676380e-03, 1.85580458e-02, 9.27345641e-03,
       9.52859223e-03, 1.34019239e-03, 2.07107998e-02, -9.43091884e-03,
       -1.25252632e-02, 9.60634183e-03, 2.14557163e-02, -2.03735344e-02,
       -1.92720741e-02, -5.92207396e-03, -1.09128719e-02, 1.55744106e-02,
       -1.86709687e-02, 1.13250250e-02, 1.34453373e-02, -1.11536868e-02,
       2.72682961e-02, -1.37070799e-02, 7.51846563e-03, 1.22094713e-02,
       -1.62339918e-02, -6.23018015e-03, -4.45892150e-03,
       -9.58854984e-03, 1.31751867e-02, -1.30916033e-02, -1.13089411e-02,
       1.13535312e-03, -2.44001014e-04, -1.25372969e-02, -8.86948127e-03,
       -1.62607003e-02, 2.97211297e-03, 6.99148187e-03, -2.92235669e-02,
       -2.06651576e-02, -9.99595877e-03, -7.21909851e-03, 2.19534673e-02,
       -2.05705371e-02, -3.08379205e-03, -1.25306845e-02,
       -2.19185520e-02, 2.45503522e-02, -7.26622343e-03, 2.68037133e-02,
       2.37180032e-02, 5.53788012e-03, 5.26143098e-03, 1.20775134e-03,
       1.78098436e-02, 2.85326876e-02, 1.70689039e-02, -6.27296418e-03,
       3.56385820e-02, 1.96247324e-02, -2.08212286e-02, -2.05230922e-03,
       -1.45469687e-03, 8.48466437e-03, -9.04717389e-03, 2.08038627e-03,
       -1.05747664e-02, -1.35289915e-02, 2.32098699e-02, -7.80586328e-04,
       7.41911680e-03, 8.55794363e-03, -2.25387402e-02, -1.31267868e-02,
       -8.00348644e-04, 3.39401158e-04, -1.18290642e-02, -1.96220689e-02,
       2.56576519e-02, 1.60286129e-02, 1.92519426e-02, 4.11239656e-04,
       -1.21416841e-02, 3.31961922e-02, -7.50436122e-03, 1.21109160e-02,
       2.97903307e-02, -2.62139402e-02, 9.95067134e-03, 1.86486058e-02,
       1.39348814e-03, 2.68235113e-02, 2.40888037e-02, 2.03754958e-02,
       8.25647265e-03, 3.74841876e-02, -7.50000356e-04, 9.76723246e-03,
       8.96234438e-03, -2.21171463e-03, 1.61080305e-02, 3.83233391e-02,
       1.94151662e-02, 2.65206918e-02, 1.15595162e-02, 1.44760031e-02,
       1.55209948e-03, 1.04683125e-02, 9.37973382e-04, 4.16334393e-03,
       3.71094421e-02, 2.28659734e-02, 4.56652455e-02, 2.79393736e-02,
       1.09959370e-03, 2.68428866e-02, -4.52965731e-03, 1.02764545e-02,
       8.94920714e-03, -9.37310141e-03, 3.80200194e-03, -8.57981481e-03,
       -2.86848135e-02, -4.16612923e-02, -3.63025591e-02,
       -6.05001906e-03, -9.76655260e-03, -1.98889822e-02, 1.67343561e-02,
       1.34458924e-02, -3.37237329e-03, -2.86419857e-02, -1.52562074e-02,
       -9.52997059e-03, -1.43072736e-02, 8.46638437e-03, 3.56087871e-02,
       -1.56076858e-02, 2.55570374e-02, 2.10844986e-02, 1.09581770e-02,
       -1.67984311e-02, 8.94727837e-03, -2.08166447e-02, 1.29423626e-02,
       -2.57688425e-02, -3.11037106e-03, -4.88047162e-03, 3.75530450e-03,
       1.59526933e-02, -1.65170617e-03, 1.61640067e-02, 5.53290034e-03,
       8.83385167e-03, -1.28233442e-02, -2.32590619e-03, 9.88924876e-03,
       -5.48717752e-03, 2.12093163e-03, -1.47836516e-02, 2.05221632e-03,
       -2.17782427e-02, 7.32169300e-03, 2.78137694e-03, 7.01183453e-03,
       -1.29307164e-02, -7.06603378e-03, -1.60003453e-02,
       -6.47549937e-03, -1.14941448e-02, 7.50748254e-03, 6.82201469e-03,
       7.33314967e-03, -3.50927301e-02, -1.41327726e-02, -2.83786096e-02,
       -8.13073479e-04, 1.73358750e-02, 1.62450932e-02, -2.25163926e-03,
       -3.12312949e-03, -2.39412822e-02, -2.71031074e-02,
       -2.76554987e-04, -4.81227692e-03, -8.22391175e-03,
       -8.29215907e-03, 1.03853391e-02, -8.34859535e-03, 1.65816792e-03,
       -2.54339296e-02, -1.38425408e-02, -4.87295352e-03,
       -1.99683048e-02, 2.20606499e-03, -1.92716660e-04, 9.77571867e-03,
       6.25325972e-03, 6.81120763e-03, -7.09287729e-03, -8.52475874e-03,
       2.14853883e-03, -1.08162668e-02, 1.23660462e-02, -1.20386342e-02,
       1.23578135e-03, -9.54429060e-03, 1.23440549e-02, -1.62631441e-02,
       -1.20738242e-02, -8.89176317e-03, 1.37880770e-02, -2.38368567e-03,
       2.09848192e-02, -2.25422485e-03, 1.70464609e-02, -8.98247398e-03,
       -2.37198882e-02, -1.60638355e-02, 1.25981485e-02, -1.02194725e-02,
       2.96734124e-02, 2.03901483e-03, 1.52173415e-02, 1.86744258e-02,
       2.00335272e-02, -8.53219442e-03, -2.73958867e-04, -1.71450023e-02,
       3.79120070e-03, -2.31160619e-03, 8.26515723e-03, 1.37422059e-03,
       5.42075187e-03, -6.35291543e-03, -2.31760088e-04, -6.25110464e-03,
       6.06415421e-03, 1.70728620e-02, 2.25440506e-02, -1.64017770e-02,
       2.05054972e-02, 1.02377590e-02, -2.41354806e-03, 5.60566084e-03,
       2.02996004e-02, 3.44231836e-02, 6.51764276e-04, 1.78441126e-02,
       -4.12283875e-02, 5.33147482e-03, -1.49281453e-02, 2.00865418e-02,
       1.31280895e-03, -2.63229385e-03, 4.41904087e-03, 9.75860190e-03,
       -5.13544353e-03, -2.27764677e-02, 4.96628042e-03, 6.71686744e-03,
       2.62430795e-02, 8.48045945e-03, -4.88381414e-03, 2.68775802e-02,
       9.04731173e-03, 1.30172148e-02, -2.27634758e-02, 1.77864786e-02,
       -1.33559369e-02, 2.75877248e-02, 1.06327450e-02, -6.98044943e-03,
       1.51797533e-02, 1.17686791e-02, 7.13813771e-03, -1.32863456e-02,
       -1.10365520e-03, -1.10655408e-02, 2.43637040e-02, 1.44612597e-04,
       -1.99263971e-02, -1.24207698e-03, -2.30698101e-03,
       -7.22400611e-04, 2.34479886e-02, -5.61546953e-03, 2.27772743e-02,
       1.09175220e-02, 2.51528836e-04, -4.85073868e-03, -1.24589456e-02,
       -9.70194768e-03, -3.06075513e-02, 2.80454401e-02, -1.91775989e-02,
       -1.10921636e-02, 1.43558171e-03, -6.41428772e-03, -2.49232817e-02,
       1.74834989e-02, -1.12268853e-03, -5.11825969e-03, 1.26677603e-02,
       -9.22991894e-03, 1.36545030e-02, 1.38304355e-02, -1.40683902e-02,
       1.23506235e-02, 6.13429165e-03, -1.43213058e-02, -2.96950545e-02,
       -1.04858465e-02, -3.92236281e-03, -3.08515467e-02,
       -1.48516707e-02, 1.20196929e-02, -2.55803820e-02, -2.07870882e-02,
       -7.54316244e-03, -4.24825698e-02, 4.54623103e-02, -2.77322624e-02,
       -1.99222360e-02, -2.27583945e-03, -2.74444707e-02,
       -1.19581050e-03, -2.54893508e-02, -9.41754598e-03,
       -1.41525632e-02, 3.83545272e-02, -8.16596579e-03, 2.39833863e-03,
       -7.99973868e-03, -1.16217730e-03, -3.03247478e-02,
       -5.36752492e-03, -2.68250089e-02, -4.67553288e-02, 3.37182358e-02,
       -1.31304851e-02, -2.01934502e-02, -8.69490951e-03,
       -2.49068886e-02, 3.43649574e-02, -2.78957468e-02, -2.04713736e-02,
       3.80666257e-04, 1.55283865e-02, -2.27065049e-02, -1.20082237e-02,
       -8.95338971e-03, 1.55791380e-02, -1.52732963e-02, -9.11420770e-03,
       1.52378753e-02, 1.15810111e-02, 3.07584200e-02, -8.06447584e-04,
       5.22676506e-04, 1.26501406e-02, -1.25664761e-02, -2.00040918e-02,
       -2.86934115e-02, 7.88880885e-03, -3.49356933e-03, 4.27771034e-03,
       3.61690088e-03, 5.71638672e-03, 2.16159318e-02, -2.54766475e-02,
       3.64430547e-02, 1.76662598e-02, 4.16670460e-03, 1.32205617e-02,
       -1.57323647e-02, 1.41860088e-02, 1.69118643e-02, 3.29848863e-02,
       3.09633184e-02, 1.60831157e-02, 2.16684192e-02, -9.75028891e-03,
       4.84603457e-03, -1.78356003e-02, 5.29222190e-03, -2.66608229e-04,
       1.31992940e-02, -1.36738904e-02, 8.14794097e-03, -1.73060261e-02,
       -1.06458729e-02, 2.71438379e-02, 1.48658399e-02, 4.12756093e-02,
       2.02686265e-02, 1.63108893e-02, 1.22672655e-02, -3.95588577e-03,
       6.54677488e-03, -3.51884472e-03, 2.55118012e-02, 1.05184261e-02,
       1.55888114e-03, 6.66701701e-03, 1.31136868e-02, 8.04612972e-03,
       -2.12201159e-02, 1.49417222e-02, -6.04018709e-03, 3.29119973e-02,
       1.44564337e-03, 3.99162993e-02, -2.03522090e-02, -2.35987338e-03,
       -1.30306492e-02, -1.63323525e-02, 1.30007323e-02, -2.18056478e-02,
       -8.69045407e-03, -2.08079927e-02, -1.88433211e-02,
       -2.01609228e-02, -2.22541206e-03, -8.25977512e-03,
       -4.01274562e-02, -5.36631094e-03, 1.27320904e-02, 2.48752274e-02,
       8.75542057e-04, 6.76043332e-03, 6.95920503e-03, 8.55649356e-04,
       -5.22866845e-02, -1.08873434e-02, 1.57912038e-02, 1.27136512e-02,
       3.29046622e-02, -2.56892270e-03, -2.81015760e-03, -1.64101496e-02,
       1.89287718e-02, -4.18274058e-03, -2.85160225e-02, -1.56499073e-02,
       -1.91601422e-02, 2.86922115e-03, -1.13189248e-02, -1.64551158e-02,
       -7.16166943e-03, 7.10579939e-03, -2.90744025e-02, -2.61461306e-02,
       -6.16304483e-03, 4.36790939e-03, 3.74560594e-04, -1.19659789e-02,
       -2.34438553e-02, -5.79099916e-03, 2.29899641e-02, -3.39243598e-02,
       -4.13889997e-03, -3.07304645e-03, -1.18484944e-02, 3.89203466e-02,
       1.60683692e-03, 8.60950351e-03, -1.09966258e-02, -3.82120430e-04,
       1.40551769e-03, -3.94164398e-03, -1.77688245e-02, -1.58182476e-02,
       2.61129029e-02, 1.07925115e-02, 2.56088730e-02, -7.67134363e-03,
       -1.52063230e-02, 1.60654378e-03, -3.95719409e-02, -3.14702489e-03,
       4.11058031e-03, 5.44826360e-03, 1.69815589e-02, -2.73414515e-02,
       1.10814569e-03, 7.77724199e-04, -1.96125712e-02, -2.28178874e-02,
       -4.49605426e-03, -2.36960091e-02, -4.42308839e-03, 1.60071049e-02,
       3.43068456e-03, 1.61172671e-03, -4.99111880e-03, -2.45104777e-03,
       5.62122697e-03, -2.24535214e-03, -1.17708286e-02, -5.31025510e-03,
       -2.18195431e-02, -7.72922824e-04, -1.72694232e-02, 3.31610325e-03,
       1.58913191e-02, 1.50544534e-03, -2.12274748e-03, -8.85414798e-03,
       1.17960102e-04, 2.30596960e-03, 9.14125051e-03, -1.58100165e-02,
       1.08152358e-02, 1.26593634e-02, -1.23484945e-02, -6.80124667e-03,
       -1.62626822e-02, -2.50280872e-02, 5.99588780e-03, -4.12982795e-03,
       -2.13808976e-02, 1.80499686e-03, 2.75639817e-03, -1.82825122e-02,
       9.79696400e-03, -4.25578468e-03, -5.43392682e-03, -1.64562706e-02,
       7.77678564e-04, -8.83436110e-03, 3.60710151e-03, -4.95381607e-03,
       -1.07212588e-02, -1.06086694e-02, -1.64942828e-03,
       -3.36300844e-04, 1.49035370e-02, -1.52357807e-02, -1.38045782e-02,
       -1.61267556e-02, 1.26272440e-03, -1.55943325e-02, -1.47988563e-02,
       2.52422877e-02, 2.36190055e-02, -1.28994789e-02, 1.54704079e-02,
       -5.62081253e-03, -4.91962861e-03, 8.79519805e-03, -2.91086063e-02,
       -1.10085122e-02, -6.07775617e-03, -2.91486504e-03, 2.14281697e-02,
       -1.39029813e-03, 8.11158027e-03, -3.31195327e-03, 8.76810215e-03,
       -1.94316152e-02, 4.19379538e-03, 2.32252534e-02, 1.28683820e-02,
       2.39956798e-03, 2.85453326e-03, 2.42470042e-03, 1.30894384e-03,
       1.35595258e-02, 1.18065896e-02, -2.38465681e-03, 2.11493485e-02,
       1.29738811e-03, -2.26626359e-02, 2.11417135e-02, 6.21955469e-03,
       3.35464515e-02, 4.12910543e-02, -4.88882558e-03, 1.06565310e-02,
       -8.09715781e-03, -6.00190088e-03, -1.73761602e-02,
       -1.05210468e-02, -1.37596577e-02, 2.58874334e-02, 1.46186743e-02,
       -8.87993351e-03, 1.84912176e-03, -6.07851660e-03, -4.58169205e-04,
       -2.38636453e-02, 1.59537361e-04, 1.83908716e-02, 2.43822001e-02,
       1.70285571e-02, -3.08247078e-02, 1.20622665e-02, -1.44063206e-02,
       -1.65664554e-02, -1.99815650e-02, -3.83634469e-03,
       -9.97065101e-03, -6.76416326e-03, -1.44104548e-02,
       -2.40645409e-02, 1.09747984e-02, -1.39055569e-02, -1.13443164e-02,
       1.75297428e-02, 2.53294391e-04, -1.92408345e-03, 7.52193946e-03,
       -2.28598155e-02, -3.54716368e-03, -1.20791793e-02,
       -9.73663665e-03, -1.85711347e-02, 2.00831778e-02, -1.98462502e-07,
       -2.68469211e-02, -3.25085633e-02, -1.39221568e-02,
       -2.69097220e-02, 2.64862925e-02, 5.91151044e-03, -9.34128091e-03,
       1.98983066e-02, -3.12888343e-03, 8.19478417e-04, -1.38682071e-02,
       -3.26814055e-02, 2.49788328e-03, -1.02107041e-02, -1.03283729e-02,
       -1.51782995e-02, 4.67465632e-02, -2.62217317e-02, -6.86140731e-03,
       -2.48911828e-02, -2.53771967e-03, 5.58159547e-04, -1.06475614e-02,
       -2.14598030e-02, -1.70055572e-02, 4.59597670e-02, -6.72772899e-03,
       -1.99260414e-02, -1.94372125e-02, -1.69485006e-02, 3.10622044e-02,
       -1.85693894e-02, -8.28703493e-03, 9.33178607e-03, 3.99756469e-02,
       -1.39709394e-02, -3.67356278e-02, -2.58679744e-02, 2.52947095e-03,
       4.93933493e-03, -3.51931602e-02, -2.68183015e-02, -4.25936133e-02,
       4.23025005e-02, -3.05297524e-02, 1.32792229e-02, -1.38511304e-02,
       -6.16716454e-03, 3.34509276e-02, -9.05168336e-03, -1.46726137e-02,
       -4.78406437e-02, 2.85748970e-02, -2.80709807e-02, -3.37889455e-02,
       -5.26073091e-02, -9.54391609e-04, 2.59159096e-02, -3.26450507e-04,
       -1.57392712e-03, 1.58568267e-02, -1.15536889e-02, 1.83704868e-02,
       1.34905363e-02, 1.26060126e-02, 2.42109168e-02, -1.25699397e-03,
       2.51090322e-02, -1.51887303e-03, 9.01340879e-03, -8.11723119e-04,
       2.90277917e-02, -5.79544518e-04, 1.38698854e-02, -7.39086361e-04,
       -1.45881427e-02, -5.67897549e-03, -1.42525211e-02,
       -1.69963688e-02, -9.89461970e-03, 1.87168252e-02, 5.80893131e-03,
       -1.02317315e-02, -1.89263951e-02, -2.11575627e-02,
       -1.24045787e-02, -3.17412503e-02, -2.31307577e-02,
       -1.71038043e-02, -1.86576676e-02, -1.71004999e-02,
       -1.50142051e-02, -3.23836282e-02, -2.54484024e-02, 1.17833726e-02,
       -1.51883718e-02, 3.84066701e-02, 7.54161999e-02, 6.95429146e-02,
       1.13137709e-02, 5.63078187e-03, -8.40715226e-03, -3.56682502e-02,
       -4.59469715e-03, -2.89558060e-02, -2.37125345e-02,
       -8.12245416e-04, -4.01134696e-03, 7.07756076e-03, 1.75916299e-03,
       -2.45728102e-02, 6.47398876e-03, 4.27018432e-03, -1.89039111e-02,
       3.93411964e-02, 4.69792373e-02, 2.37798598e-02, -2.55137123e-02,
       -2.22638971e-03, 1.68021191e-02, -3.69151942e-02, 3.35696992e-03,
       -3.52989137e-03, -2.58058147e-03, -7.11544999e-04,
       -1.81575567e-02, -1.61074996e-02, 1.01544173e-03, -2.47931704e-02,
       -2.47862786e-02, -2.09620278e-02, -6.84244139e-03, 3.12807946e-03,
       1.24477977e-02, 8.05609673e-03, -1.29833655e-03, -1.29803000e-02,
       -1.60761867e-02, -1.77211650e-02, -2.08561309e-02,
       -1.58271124e-03, -4.76092659e-03, -1.82644594e-02,
       -1.03709232e-02, -1.37421675e-02, -1.26657728e-02,
       -2.56829392e-02, -4.03261781e-02, -7.84885138e-03, 4.43461351e-03,
       1.55402776e-02, 5.82666229e-03, 2.31414624e-02, -1.84903778e-02,
       -3.20434868e-02, -4.97041829e-03, -8.34132265e-03, 1.12697426e-02,
       1.31458475e-03, 7.21120555e-03, -2.51938496e-02, -2.54996959e-03,
       -9.39464197e-04, -4.32264758e-03, 1.15901912e-02, -3.19389217e-02,
       -1.48173207e-02, 3.31410696e-03, 1.31915035e-02, 3.29576842e-02,
       -1.32423835e-02, 1.34050241e-03, -1.30282063e-02, -2.35022325e-02,
       -1.37441503e-02, 1.04438409e-03, -1.07747661e-02, 2.58294530e-02,
       5.38394134e-03, 1.49615537e-02, 2.29856442e-03, 1.04416776e-02,
       8.84304009e-03, 1.45220021e-02, -2.89612706e-03, -1.51142455e-03,
       4.62453905e-03, 7.55226100e-03, -1.79188587e-02, 5.60321985e-03,
       -4.32690792e-03, 8.36330839e-03, -1.64414756e-02, -3.07881297e-03,
       -2.27964167e-02, 2.07371917e-02, -2.53152801e-03, 1.00122755e-02,
       -1.06730836e-03, -4.89324750e-03, -1.22201070e-02,
       -7.79039972e-03, -9.64361243e-03, -3.44142765e-02,
       -2.57274564e-02, -1.89735772e-04, -1.18174748e-02,
       -1.46243228e-02, 4.72966582e-03, 3.33710108e-03, -1.25803996e-03,
       9.19311028e-03, -1.83958486e-02, 1.22839659e-02, 3.87461740e-03,
       1.00254156e-02, -1.50101297e-02, 1.23496521e-02, 1.37573574e-03,
       -2.47375984e-02, 6.61816588e-03, -1.17721613e-02, -1.97630506e-02,
       6.82061538e-03, -8.92931037e-03, -1.59078240e-02, -4.52824775e-03,
       -1.25824865e-02, 1.22782188e-02, -1.27809355e-02, -1.41336517e-02,
       8.01126007e-03, 3.25726182e-03, 7.94130377e-03, -3.11193299e-02,
       8.26924667e-03, 9.54379328e-03, -2.00296491e-02, 1.38121229e-02,
       6.16181456e-03, 2.58618034e-02, 7.30831549e-03, -4.68975352e-03,
       1.33938957e-02, -3.81359155e-03, -9.34927631e-03, 1.35241691e-02,
       3.19592729e-02, 1.02227572e-02, 2.46620290e-02, -1.83118749e-02,
       1.05633365e-03, 6.83144433e-04, 6.79819658e-03, 2.12979526e-03,
       -3.37314717e-02, 8.07659421e-03, 1.55353211e-02, 8.31803493e-03,
       1.52926631e-02, -2.74017127e-03, 1.80071387e-02, -5.15774172e-03,
       -1.30861700e-02, -1.31509593e-02, 1.27444661e-03, -1.45748176e-03,
       -5.39337005e-03, -1.57497488e-02, -4.71279491e-03, 2.04007737e-02,
       2.30656434e-02, 4.57103644e-03, 2.45173718e-03, 1.93181988e-02,
       -3.82573600e-03, 2.77808607e-02, -2.07809415e-02, 5.76108508e-03,
       6.78354176e-03, 3.08387391e-02, 5.00305695e-03, -1.70455519e-02,
       2.50263349e-03, -4.27133590e-03, 2.88581522e-03, -1.31129278e-02,
       -2.30590929e-03, 4.07762302e-04, 3.07833366e-02, 2.58311629e-03,
       -1.33201415e-02, 1.72510166e-02, 1.12212617e-02, 2.30223760e-02,
       -8.18326790e-03, -6.12728251e-03, -8.36036168e-03, 2.02684216e-02,
       -6.43024221e-03, 3.24903242e-03, -5.48346667e-03, -9.93551780e-03,
       1.04983486e-02, -3.28218471e-03, -1.81710981e-02, -1.60328001e-02,
       5.40997926e-03, -1.92046491e-03, -1.24250557e-02, 9.20391455e-03,
       9.63647664e-03, 1.11720180e-02, 1.74687859e-02, -4.76986310e-03,
       -4.46817512e-03, 1.95649639e-02, -2.34600552e-03, -7.00401329e-03,
       -9.24189389e-03, 4.86875372e-03, -1.66403688e-02, 2.59043239e-02,
       -1.92749538e-02, -1.42926793e-03, -2.13453663e-03,
       -1.24582453e-02, 2.86480375e-02, 7.02624489e-03, 6.20246213e-03,
       1.90037228e-02, 4.22927691e-03, -5.38618257e-03, -2.20411061e-03,
       1.39073581e-02, 1.58569701e-02, 2.89583066e-03, -2.57638306e-03,
       -7.79735856e-03, -2.39770096e-02, 8.64691846e-03, -1.22264167e-02,
       -7.32956594e-03, -1.09896425e-03, -1.30790537e-02, 2.82838382e-02,
       8.83157924e-03, -8.81192647e-03, -1.76951401e-02, 1.14305075e-02,
       -8.94376449e-03, 2.32831892e-02, 1.01428861e-02, 7.25750625e-03,
       4.65601049e-02, 9.16000176e-03, -1.65945414e-04, -1.92632470e-02,
       1.04771573e-02, 7.11756758e-03, 1.21614579e-02, -9.69798397e-03,
       5.16809970e-02, 4.11273260e-03, 2.19130684e-02, 1.08388392e-02,
       -4.76925494e-03, 1.06395958e-02, -1.41819112e-03, 1.10723060e-02,
       1.35589475e-02, -1.65082626e-02, -3.97529546e-03, 1.64437927e-02,
       1.44937541e-03, -2.42921226e-02, -1.42439185e-02, -3.12530398e-02,
       -1.74905395e-03, -7.80047616e-03, -6.50044391e-03, 3.51001434e-02,
       1.19072990e-02, 3.27878143e-03, 1.29403528e-02, 1.25524299e-02,
       4.52350378e-02, 3.29566225e-02, 1.25719449e-02, 3.97054888e-02,
       2.55410448e-02, 2.50943247e-02, 1.35735353e-03, 2.92353742e-02,
       -7.92526081e-03, 3.12839039e-02, 1.82411969e-02, 1.37179140e-02,
       1.04480255e-02, -1.00880424e-02, 1.32027250e-02, 1.83777371e-03,
       -2.36231070e-02, -2.28483882e-02, -1.21701099e-02, 7.88557716e-03,
       9.26197600e-03, 1.96465058e-04, -1.15300277e-02, 2.50584688e-02,
       1.56793837e-02, -1.25774713e-02, 7.57586735e-04, -5.35877235e-03,
       -1.20207407e-02, -3.47193214e-04, -4.71556932e-03, 2.28520297e-02,
       -1.03333071e-02, -2.46953312e-02, 1.80708710e-02, 2.79516019e-02,
       1.47903971e-02, 4.72403178e-03, 1.82591975e-02, 3.52511965e-02,
       2.07655486e-02, 2.27729212e-02, 1.36056729e-03, 7.23341480e-03,
       -2.08418234e-03, 6.71201618e-03, -5.91672398e-03, 1.20429173e-02,
       2.26292927e-02, -1.37711111e-02, -2.51528155e-02, -2.08048224e-02,
       -1.25905359e-02, -1.86879523e-02, 1.34196812e-02, -1.01723792e-02,
       3.70246661e-03, -1.62684023e-02, 4.00373450e-04, -7.63569679e-03,
       -3.66957448e-02, -1.83452629e-02, -1.21597629e-02,
       -1.65941343e-02, -2.17056405e-02, -2.58434424e-03,
       -1.57235488e-02, 4.15038364e-03, 1.08782144e-03, -7.99416658e-03,
       -1.09324548e-02, 1.60888024e-02, -8.28249147e-04, -9.88013856e-03,
       -1.17280409e-02, 9.80203878e-03, 1.11844612e-03, 1.06094759e-02,
       3.56935989e-03, -9.20145120e-03, -7.41170300e-03, -4.00356436e-03,
       -1.68548757e-03, -1.29619418e-02, 1.32072000e-02, 2.50572562e-02,
       1.73432007e-02, 1.22631877e-03, -1.08680816e-03, -1.22866593e-03,
       -1.36957904e-02, 9.33795178e-04, 5.22773899e-03, 1.14398198e-02,
       1.98718626e-02, 1.99766387e-03, -7.53587019e-03, 1.02625377e-02,
       -3.42383864e-03, 1.75554119e-02, 7.96893518e-03, 1.14021078e-02,
       1.77058838e-02, 9.66968667e-03, -7.69781601e-03, -3.96848703e-03,
       -2.03330768e-03, 6.83202082e-03, -1.27089759e-02, 1.33211641e-02,
       -2.97040213e-03, 1.77382526e-03, 5.46995457e-03, 1.89195238e-02,
       -5.64237218e-03, -1.98893948e-03, 3.35896499e-02, -8.71085748e-03,
       1.57044269e-02, 1.52782649e-02, 5.22302790e-03, -1.50297331e-02,
       -1.11999083e-02, -4.83814068e-03, 1.83275435e-02, 5.75206522e-03,
       1.44149829e-02, 8.91639572e-03, -8.99929274e-03, -2.57355161e-03,
       3.90749308e-04, 6.14764495e-03, -1.26402900e-02, -5.87008893e-03,
       2.68476531e-02, 7.34819844e-03, 3.07141859e-02, 1.00301923e-02,
       9.73579474e-03, -1.43872332e-02, 2.10363325e-02, 8.07897467e-03,
       -1.74490511e-02, 1.47950463e-02, -1.73314530e-02, -8.06960184e-03,
       4.19282960e-03, -1.46240806e-02, 2.10740585e-02, 4.18781815e-03,
       2.74811592e-03, 2.24531423e-02, 8.92416388e-03, 1.85461026e-02,
       7.66010443e-03, 2.13839244e-02, 5.28449519e-03, -1.31403208e-02,
       1.11935791e-02, -2.29722951e-02, -1.68551356e-02, 1.02888560e-02,
       -1.72529407e-02, -4.44307132e-03, 9.23077390e-03, -2.51862761e-02,
       -6.76304800e-03, 1.87045727e-02, 1.89694818e-02, 3.62733714e-02,
       1.09153185e-02, 1.62620619e-02, 2.12375671e-02, 3.16042826e-02,
       -5.44582214e-03, -3.97034474e-02, 1.04142698e-02, 1.31692979e-02,
       1.13219419e-03, 2.59787831e-02, 9.60122707e-05, -6.10451959e-03,
       -7.44323898e-03, -2.52484400e-02, -1.22833224e-02, 1.46152498e-02,
       6.65194867e-03, 2.24289033e-04, -6.73011318e-03, 1.55610377e-02,
       3.43373679e-02, 2.70190295e-02, -2.61120638e-03, -3.19322757e-02,
       5.23026101e-03, 4.64856188e-04, -1.05980122e-02, 2.16030404e-02,
       1.41776334e-02, -8.14710464e-03, 6.25943439e-03, -2.52685566e-02,
       -6.21972047e-03, 2.80435700e-02, 1.70168448e-02, 1.24162519e-02,
       -7.92802835e-04, 1.00350892e-02, 5.34493150e-03, 2.18302850e-02,
       1.50052761e-03, -2.03658640e-03, 1.31016923e-02, 9.64629930e-03,
       1.38288951e-02, -1.39074931e-02, -1.43082226e-02, 6.42554089e-03,
       3.73742543e-02, 2.40931939e-03, -5.68610243e-03, 4.05969477e-04,
       -2.45726923e-03, 6.47274265e-03, 5.17131668e-03, -1.11616962e-02,
       5.32858539e-03, 2.08564159e-02, -6.11867756e-03, 1.35300495e-02,
       1.20753897e-02, -3.78191122e-03, -1.18320864e-02, -3.17512862e-02,
       -1.14732729e-02, -1.81704536e-02, 1.35450931e-02, -8.37537274e-03,
       -9.02394578e-03, 1.01054022e-02, -1.84976384e-02, -2.15025563e-02,
       -2.15656850e-02, -8.71817861e-03, -3.60903353e-03,
       -3.53356125e-03, -2.75107529e-02, 1.77979115e-02, 1.99256372e-02,
       3.09131946e-02, 6.46208078e-02, 1.81622077e-02, 7.91993691e-04,
       2.02029925e-02, 1.85396168e-02, 2.12208312e-02, 3.04599595e-03,
       -3.31626274e-02, -4.32129167e-02, -4.56192791e-02,
       -2.14325655e-02, -1.15497084e-02, -1.14043499e-03,
       -6.93297572e-03, 2.85419216e-03, -1.55712748e-02, 1.09231099e-02,
       3.14235762e-02, 5.89247756e-02, 1.03968596e-02, 2.71754023e-02,
       -1.37363782e-03, 1.24479160e-02, -1.49582252e-02, -2.84909606e-02,
       -3.54109444e-02, -2.00330876e-02, -3.19846570e-02,
       -1.88377239e-02, -2.24625766e-02, -1.27231004e-02,
       -1.19407857e-02, -2.74459794e-02, 2.20205095e-02, -1.96291786e-02,
       -5.58409095e-03, 2.24716906e-02, 1.13067711e-02, 3.81919295e-02,
       2.80587394e-02, 2.36856169e-03, -1.82114122e-03, -2.95487116e-03,
       2.32469030e-02, 1.75192934e-02, 1.61564723e-03, -1.83152854e-02,
       1.07855173e-02, 3.22001264e-03, -1.15165953e-02, -2.82284059e-02,
       1.61098260e-02, -5.57127362e-03, 2.80454252e-02, 3.68075483e-02,
       -1.05740828e-02, 7.93748535e-03, 1.20601160e-02, -1.56630147e-02,
       7.72737712e-03, 2.05522105e-02, -1.80902740e-03, -1.21525675e-02,
       5.41320210e-03, -2.69695967e-02, -7.28956016e-04, 1.15426385e-03,
       -1.52775059e-02, 1.62892435e-02, 3.49879824e-03, 2.75571598e-03,
       2.97606050e-04, -2.02837540e-03, -2.02725343e-02, 2.03659316e-03,
       4.63464856e-03, -3.25678010e-03, -5.17802965e-03, 2.43469421e-02,
       2.13819407e-02, 9.35139041e-03, -1.33771915e-02, -2.02474743e-03,
       2.55567469e-02, 1.24793127e-02, 8.17974564e-03, 5.77246305e-03,
       1.43805593e-02, -9.21203755e-03, 6.20872620e-03, 1.19365305e-02,
       -1.01026902e-02, 8.19157716e-03, 3.88835161e-03, -2.05624662e-02,
       2.35865004e-02, 1.67678744e-02, -1.56266168e-02, 1.97511744e-02,
       5.99471200e-03, 6.25859713e-03, 2.88265105e-03, 1.62364952e-02,
       -2.17755768e-03, -6.69986196e-03, 1.04890792e-02, -9.20154806e-03,
       -1.88908540e-02, -3.20437253e-02, -1.19035486e-02, 1.81609392e-02,
       4.13597748e-03, 3.07322387e-03, 5.57645317e-03, 1.70707759e-02,
       -2.06800736e-03, -2.20956672e-02, -2.62618088e-03, 2.44307332e-02,
       4.35018167e-03, -9.31391772e-03, -6.88762916e-03, 2.32006293e-02,
       -9.65949614e-03, 4.15833248e-03, 3.31144296e-02, -1.28123248e-02,
       3.81133240e-03, -1.17276320e-02, 2.91168829e-03, -1.20451115e-03,
       -1.38465026e-02, 6.52370276e-03, -1.98159530e-03, 5.08239912e-03,
       2.79849418e-03, -2.12638755e-03, 4.90625203e-03, 2.29691640e-02,
       -1.26729696e-03, 1.63170472e-02, 4.72034328e-02, 8.34058505e-03,
       5.10796346e-03, -1.36578232e-02, -2.13479530e-02, -3.72733921e-02,
       6.50356291e-04, 6.35549799e-03, 5.13457879e-02, 2.24621478e-03,
       -7.21471524e-03, 2.25091875e-02, -6.17723214e-03, -2.01279065e-03,
       -3.10311589e-04, -6.18933141e-03, -1.54634705e-02, 1.68156642e-02,
       5.14982408e-03, 1.94882421e-04, -1.09823700e-03, -1.72137395e-02,
       -4.49639447e-02, -2.97218356e-02, -2.52620829e-03, 7.00370758e-04,
       1.31996023e-02, -2.31194720e-02, -3.27325705e-03, 9.23059508e-03,
       -2.96392068e-02, -3.53884324e-02, 3.33136646e-03, 1.80867314e-02,
       -1.74267460e-02, -7.74260284e-03, 7.58603821e-03, -3.47844209e-03,
       1.28286099e-02, 1.79948695e-02, 1.14729730e-02, -1.58475675e-02,
       -1.18189184e-02, -2.47571412e-02, 9.65466909e-03, -2.88051348e-02,
       1.54355885e-02, -1.41195883e-03, 2.01518256e-02, 5.83003126e-02,
       1.74367242e-02, 1.94981676e-02, 1.11819720e-02, -6.76376885e-03,
       -6.71491167e-03, -7.42071588e-03, 1.08846659e-02, -1.80979725e-02,
       1.85802276e-03, -9.76544060e-03, 4.76166460e-04, -2.44504623e-02,
       -8.81464407e-03, -1.59411635e-02, 5.58582321e-03, -9.16715711e-03,
       9.23811179e-03, 3.48201133e-02, 1.64453574e-02, -1.12695927e-02,
       -9.27582197e-03, -1.65888183e-02, -3.75335254e-02, 5.63702406e-03,
       -1.05905691e-02, -6.17200369e-03, 1.40453242e-02, -9.25984047e-03,
       -1.15865644e-03, 6.42555067e-03, -1.28430594e-02, -6.89098844e-03,
       1.61348712e-02, 2.12723259e-02, 3.48511487e-02, 1.76117644e-02,
       2.66100559e-02, -1.65677501e-03, 8.17965344e-03, -4.96443780e-03,
       -7.13259797e-04, -5.97312534e-03, -1.02293100e-02,
       -2.82574189e-03, 1.36523880e-02, -3.71078658e-03, 5.15865022e-03,
       1.08517753e-03, 3.79893021e-03, -9.11722425e-03, -1.52139235e-02,
       8.30536243e-03, 9.12867114e-03, 1.96280722e-02, 7.47044338e-03,
       -6.25466276e-03, 6.28222304e-04, -1.72741134e-02, -9.93334968e-03,
       1.24724321e-02, -1.52602680e-02, -1.19132278e-02, 2.96661872e-02,
       -3.49380402e-03, -1.27667934e-02, -1.24948798e-02,
       -2.98928954e-02, 4.98021208e-03, 2.30432451e-02, 1.77963898e-06,
       1.23140849e-02, 4.05693660e-03, -2.57292227e-03, 9.49230697e-03,
       2.52994318e-02, 5.75429387e-03, -1.01696537e-03, 9.88173671e-03,
       -1.39311897e-02, -3.65830958e-03, 7.70840794e-03, -1.72195863e-02,
       -1.36418380e-02, -8.31202511e-03, -1.30372476e-02, 1.86006185e-02,
       1.10294018e-02, -3.95367667e-03, 9.75481758e-04, 2.89520668e-03,
       6.83206087e-03, 2.36177649e-02, 3.58913392e-02, 2.84565240e-02,
       5.68853458e-03, -1.95031501e-02, -2.34156232e-02, -1.39792692e-02,
       -2.89914515e-02, -1.40131544e-02, -7.57241528e-03,
       -1.25240581e-02, 2.78498046e-03, 2.96426378e-03, -1.28918644e-02,
       -2.62183603e-02, -2.26047151e-02, -4.97011002e-03, 2.23261712e-04,
       6.15205802e-03, -1.42087918e-02, 1.07035218e-02, 8.87107849e-03,
       -1.47666195e-02, -1.64576247e-02, -6.32073870e-03, 1.77782010e-02,
       1.03769209e-02, 6.11037016e-03, 1.11110890e-02, 1.73355788e-02,
       9.15721618e-03, -1.12330029e-02, -5.83497249e-03, -1.67153869e-02,
       4.52620070e-03, -4.30715177e-03, -3.23616224e-03, -3.17823724e-03,
       7.69943232e-03, 1.78967472e-02, 1.79171301e-02, 1.33487089e-02,
       4.06355560e-02, 3.37353460e-02, 5.03501743e-02, 5.79267414e-03,
       -7.17220455e-03, 1.86451264e-02, -2.43670307e-02, -2.15704311e-02,
       -1.32085560e-02, -3.01651023e-02, -3.11001111e-02,
       -7.10705947e-03, 1.33959739e-03, -1.12757962e-02, -7.13191647e-03,
       1.43043147e-02, 1.83244348e-02, 1.75276455e-02, 3.77891585e-02,
       6.23973832e-03, 3.72784398e-02, -1.94650888e-03, -3.42393736e-03,
       8.45725834e-03, 5.83391218e-03, -7.36893853e-03, -3.77778150e-03,
       -1.48481103e-02, -1.56843290e-02, -2.51105689e-02,
       -1.54480292e-02, -2.16102581e-02, -9.70355235e-03, 1.41885383e-02,
       1.49835180e-02, 4.20512185e-02, 3.42582390e-02, 2.60098260e-02,
       1.64132919e-02, 1.18200518e-02, -1.45063205e-02, 1.57836005e-02,
       2.02376992e-02, 4.26186388e-03, -2.47917268e-02, -1.16838953e-02,
       -1.48450257e-02, 8.72152857e-03, 1.13860704e-02, -1.80675951e-03,
       3.30515280e-02, -1.15094576e-02, 1.55454855e-02, 2.22203229e-02,
       4.82867435e-02, 1.62676163e-02, 3.68496329e-02, 1.66444108e-02,
       -9.95377451e-03, -1.97114795e-02, -1.43643636e-02, 7.05496315e-03,
       -2.56241262e-02, 7.26526789e-03, -1.68999545e-02, 7.81104947e-03,
       -4.16060071e-03, -1.85726432e-03, 2.76249892e-04, -5.54653932e-04,
       -1.47050368e-02, 1.07945632e-02, -4.53620171e-03, -1.87295303e-02,
       2.66226148e-03, 2.47596297e-03, -2.19349675e-02, 3.47277746e-02,
       8.81726947e-03, -1.07699186e-02, 3.70292156e-03, -8.33810028e-03,
       -1.25204064e-02, 5.89823956e-03, 1.66994072e-02, -2.33580032e-03,
       2.07784493e-03, 1.18216407e-02, 9.54122283e-03, 2.28048302e-02,
       2.18374357e-02, 1.80058330e-02, 1.20669119e-02, -1.37969460e-02,
       -1.04559856e-02, 1.95895210e-02, 4.33758534e-02, 2.01589726e-02,
       4.73676762e-03, 2.07729321e-02, 1.66600119e-04, 6.21638820e-03,
       4.30059154e-03, 1.73741002e-02, 3.12442202e-02, 1.22700846e-02,
       9.30083357e-03, 2.87425052e-02, -1.33531550e-02, -2.43225414e-02,
       -6.32002298e-03, 6.64992630e-03, 2.29595648e-03, 7.43371667e-03,
       -1.64614699e-03, -7.43009616e-03, -9.33712441e-03,
       -1.32240979e-02, -2.43492946e-02, 1.09859221e-02, 1.83279105e-02,
       -3.74866603e-03, -7.78142689e-03, 3.92306335e-02, 1.96002666e-02,
       9.98133328e-03, -5.27575379e-04, -2.97672432e-02, -2.37598196e-02,
       -1.29831340e-02, 1.64108444e-02, 3.85738201e-02, 3.27034737e-03,
       -6.06885878e-03, -1.04145333e-02, -1.05194077e-02,
       -7.07704667e-03, 8.57945532e-03, 1.42224478e-02, 1.00469748e-02,
       2.44956873e-02, 1.78699940e-02, 4.40266123e-03, -8.37969565e-05,
       -9.75652225e-03, -3.06065287e-02, 2.44458020e-03, 9.79198143e-03,
       -6.52424875e-04, -1.89957209e-03, -1.39771961e-03, 2.38072383e-03,
       1.70098096e-02, -3.09696677e-03, 3.12448340e-03, 2.98691448e-02,
       1.85570344e-02, -4.22679167e-03, -4.26951610e-03, -1.24888895e-02,
       2.83647270e-04, -1.13943834e-02, -1.44428443e-02, -8.01143423e-03,
       -1.49406753e-02, -8.73949658e-03, -2.30889991e-02,
       -2.02929210e-02, -1.55861564e-02, -3.51002184e-03,
       -6.52259856e-04, 2.73656789e-02, 2.61074794e-03, 1.59329269e-02,
       -2.78858747e-02, -6.17732806e-03, -1.02828750e-02,
       -1.22113889e-02, -1.77689269e-02, -1.23384991e-03,
       -1.07511645e-02, 7.81263970e-03, 3.12863886e-02, 2.26848833e-02,
       -7.36865588e-03, -1.52465245e-02, 1.17565263e-02, -3.58932721e-03,
       -1.43590420e-02, 1.70774944e-02, 4.55041304e-02, 9.81984660e-03,
       -7.41601572e-04, -2.22563883e-03, 1.91175118e-02, -2.39841975e-02,
       -1.46918523e-03, -4.79693012e-03, -2.14868574e-03, 7.07728928e-03,
       2.46767942e-02, 1.53601235e-02, -3.14962468e-04, -1.33437570e-02,
       -3.89518100e-03, -1.46738514e-02, -1.71713885e-02,
       -7.31348433e-03, 2.60332245e-02, 2.11209105e-03, -1.43282600e-02,
       -1.46519560e-02, -8.33600108e-03, 1.43419411e-02, -5.85570093e-03,
       -2.14706678e-02, 3.49819078e-03, 1.94613785e-02, -2.01750845e-02,
       -8.41492880e-03, 9.48472321e-03, 2.14898102e-02, 1.11302268e-02,
       -5.07706357e-03, -1.61119364e-02, -2.89877760e-03, 1.37080876e-02,
       -7.24932598e-03, -1.40581187e-02, -3.64777842e-03,
       -3.51431267e-03, -1.62235089e-02, -7.78394565e-03,
       -7.66402669e-03, -7.69714732e-03, -1.42328884e-03,
       -2.41181981e-02, -8.29830673e-03, -3.55873466e-03,
       -6.11649361e-03, -6.67210389e-03, -6.49165642e-03,
       -3.92430089e-03, 3.93837178e-03, 2.48608179e-02, -1.39253782e-02,
       2.59795715e-03, 1.52605679e-02, 5.90564124e-03, -6.31826045e-03,
       3.11180251e-03, -7.90904555e-03, -1.09213637e-02, 7.43884686e-03,
       -3.90427560e-03, 5.68852155e-03, 1.88078557e-03, -1.19400136e-02,
       2.35640211e-03, -9.71724559e-03, 2.29657106e-02, -1.19458186e-03,
       -2.33825110e-02, 5.52297477e-03, 1.13907158e-02, 3.36510427e-02,
       7.88659882e-03, -1.45960683e-02, 1.62856691e-02, 6.58508157e-03,
       -1.93065926e-02, 8.65963753e-03, 2.63358261e-02, 9.60242935e-03,
       5.83432382e-03, -1.98091939e-02, -1.48392294e-03, 1.32392338e-02,
       2.95022484e-02, 3.71907689e-02, -2.18134094e-02, 3.51392403e-02,
       3.72164324e-02, 1.90775301e-02, -7.65866367e-03, 1.06693534e-02,
       -4.56245942e-03, 1.28435437e-02, -1.06908847e-02, -3.79061559e-03,
       -1.63682038e-03, -1.75045226e-02, -6.38943817e-03, 1.72216967e-02,
       -9.06114932e-03, -4.38906066e-03, -3.08366900e-04,
       -4.41008396e-02, 9.89181688e-04, -1.40885832e-02, -1.68470182e-02,
       -5.27531421e-03, -7.87960365e-03, 1.99849438e-03, 6.63136551e-03,
       1.45207737e-02, 2.84255259e-02, -7.94058666e-03, 1.60562303e-02,
       4.40298230e-04, 1.23959687e-02, 1.87884923e-02, -1.24994814e-02,
       -2.29950761e-04, 1.17859896e-03, -7.84981623e-03, 1.59228202e-02,
       -1.56237455e-02, -3.41835059e-02, -1.43771488e-02,
       -9.10873618e-03, 5.39184920e-03, 9.14118160e-03, 7.60841370e-03,
       -9.00445084e-05, 1.98182147e-02, 3.42824496e-02, -3.80406552e-03,
       1.70316926e-04, 1.45272329e-03, -8.63523502e-03, -1.16497790e-02,
       -1.55209312e-02, -1.92776155e-02, -1.84661318e-02,
       -2.05726139e-02, 2.45329086e-03, -2.09243852e-03, -2.11256351e-02,
       1.96635444e-02, 1.18597895e-02, 1.79352462e-02, 2.67735366e-02,
       2.23036818e-02, 6.32212088e-02, 4.68883803e-03, -1.60929989e-02,
       1.44819235e-02, -1.02235656e-03, 2.98237987e-03, -1.72297321e-02,
       -4.41835485e-02, -1.79240182e-02, -3.19538601e-02,
       -1.23099452e-02, -1.10811265e-02, -1.42180277e-02,
       -2.01258752e-02, -2.28396896e-03, -1.02627196e-03, 1.45303234e-02,
       1.87472291e-02, 1.23545732e-02, 2.23962590e-02, 2.03407016e-02,
       -2.00315863e-02, 9.34122782e-03, 2.62409598e-02, 8.14989395e-03,
       2.13724952e-02, -4.19429839e-02, 5.66372368e-03, 1.88676212e-02,
       3.68901007e-02, 7.48795690e-04, -1.63176842e-02, -8.70027393e-03,
       8.78984760e-03, 1.93865392e-02, 5.21123149e-02, 1.58430357e-02,
       -9.31963418e-03, 1.76128210e-03, -7.72357313e-03, -1.10737635e-02,
       1.67399719e-02, 9.81407333e-03, 1.88143589e-02, 5.44947339e-03,
       6.83871470e-03, 1.99941476e-03, 1.02960151e-02, -7.75952404e-03,
       9.67648439e-03, 1.65205579e-02, 1.75986513e-02, 1.60816945e-02,
       -6.89656846e-03, 1.15017034e-02, 2.82626767e-02, 3.28431837e-02,
       1.20221099e-04, 2.05637179e-02, 1.42635377e-02, 2.00452041e-02,
       7.46772997e-03, 1.43478415e-03, 1.52916014e-02, 1.06886541e-02,
       1.97652336e-02, -7.18398951e-03, -1.09818988e-02, 1.17459204e-02,
       1.94215756e-02, 8.75502639e-03, 3.58508714e-03, 2.78850039e-03,
       1.21155195e-02, 1.94593854e-02, -6.09666808e-03, 3.06527913e-02,
       7.06621818e-03, 8.92969221e-03, -9.69605427e-03, 7.34788645e-03,
       1.62723884e-02, 2.36974675e-02, 2.16805208e-02, 5.82039310e-03,
       1.99585501e-02, 3.04785166e-02, 2.53858939e-02, -3.37953190e-03,
       -2.20541153e-02, 1.36927478e-02, 3.68798967e-03, 4.38962830e-03,
       5.88481082e-03, -1.47534786e-02, 2.34029181e-02, 3.09016742e-02,
       8.39055330e-03, -9.59150773e-03, 5.33032371e-03, 1.12769287e-02,
       2.79947873e-02, 2.07476094e-02, 1.19693717e-02, -7.09532527e-03,
       4.76795807e-03, -1.14441169e-02, -2.63376720e-02, -3.64320842e-03,
       -1.51407095e-02, -1.92535352e-02, -7.56899128e-03, 5.03564486e-03,
       2.15879502e-03, -4.39721998e-03, 1.09566040e-02, -2.99411174e-03,
       1.23799918e-02, -1.66425726e-03, 4.35377145e-03, -1.00367307e-03,
       -8.35765433e-03, 8.09844770e-03, 3.03993523e-02, 7.75020663e-03,
       -1.74738914e-02, 4.90196655e-03, 3.36938985e-02, 1.87377743e-02,
       1.08681973e-02, -7.79922586e-03, 2.39662137e-02, 2.16990933e-02,
       2.41298713e-02, -8.87441915e-03, -7.12238369e-04, -1.13430396e-02,
       -4.89216472e-04, -2.63119601e-02, 1.21223768e-02, 4.03624959e-04,
       -5.74521860e-03, -3.23461578e-03, 5.52631309e-03, 1.36822164e-02,
       2.63229124e-02, 2.56555825e-02, -6.51049381e-03, 1.23653002e-03,
       -2.55674869e-03, -1.62309911e-02, 4.57334286e-03, 1.61111858e-02,
       8.09697900e-03, 6.80118287e-03, -2.15130392e-02, -2.13225409e-02,
       -1.38136912e-02, 4.99188900e-03, 1.04023423e-02, 1.38868820e-02,
       4.22630087e-03, 1.36139393e-02, 9.31607746e-03, 2.98288371e-03,
       -1.55295003e-02, -1.37573583e-02, -9.01700463e-03, 2.67645065e-03,
       -2.18983348e-02, 3.51718999e-02, 1.19476244e-02, -1.56708639e-02,
       -3.70522891e-03, -2.52013970e-02, -1.24853780e-03,
       -1.04090909e-03, -1.75855774e-02, 2.03146483e-03, 1.47477072e-02,
       2.15360150e-03, -4.13716160e-04, -1.43174632e-02, -1.82110183e-02,
       -6.27632486e-03, 5.36139851e-06, -2.16249544e-02, 1.19946459e-02,
       4.40302081e-02, 2.56808717e-02, 3.34611908e-03, 7.25090550e-03,
       -3.58073157e-03, -2.21632011e-02, 8.04428943e-03, 2.47220565e-02,
       -1.88322905e-02, 4.70820023e-03, -2.49885321e-02, -2.07008794e-02,
       -1.11641444e-03, -2.10006461e-02, -5.58676850e-03, 5.51523780e-03,
       9.07415990e-03, 1.12302052e-02, 2.89358981e-02, -1.92317343e-03,
       -1.81135014e-02, 9.13436431e-03, -1.57799199e-02, -1.81448776e-02,
       -1.51169882e-03, -1.48003893e-02, -4.24852828e-03, 2.45620450e-03,
       -2.58671411e-04, -8.65369476e-03, -2.26007705e-03,
       -5.76579059e-03, -1.86328962e-02, -1.22432061e-03,
       -2.45914981e-03, 1.72966942e-02, -2.46900157e-03, 7.74376886e-03,
       1.02853024e-04, 1.38299698e-02, -6.51189405e-03, -1.46277146e-02,
       9.44418646e-03, 2.07889806e-02, -1.13952635e-02, 7.66737200e-03,
       -2.92130676e-03, -3.64928576e-03, -2.62696147e-02,
       -4.12317961e-02, 1.74899437e-02, -3.21310130e-03, -1.73034042e-03,
       2.13672295e-02, -1.61829032e-02, 2.33680382e-03, 2.06987560e-02,
       -3.61236208e-03, 1.37375609e-04, 4.86066937e-03, -5.67983929e-03,
       1.66175980e-02, 6.11687778e-03, 1.71616562e-02, -7.38249626e-04,
       3.94779332e-02, -3.32253426e-03, 2.42147991e-03, -8.23782478e-03,
       2.98835291e-03, 1.99190713e-03, 1.34350797e-02, -1.43585331e-03,
       4.51719249e-03, 1.71837341e-02, 1.11355884e-02, -7.75154028e-03,
       8.18252657e-03, -2.69215889e-02, -2.31595971e-02, -6.78401627e-03,
       -7.98835978e-03, -3.26610031e-03, 1.47399846e-02, 2.03143600e-02,
       2.62960158e-02, -6.76765107e-03, -3.26868258e-02, 3.99244810e-03,
       -2.47534066e-02, 2.89363577e-03, -8.82118661e-03, -5.46004483e-03,
       1.97197922e-04, 1.62682366e-02, 1.15509065e-04, 3.16298450e-03,
       -1.51674030e-02, -7.20700948e-03, -1.45665556e-03, 4.47316654e-03,
       1.06196906e-02, 1.50748556e-02, -7.55640585e-03, 2.20985301e-02,
       9.43945415e-05, 1.02033960e-02, -7.53096677e-03, 5.63194975e-03,
       -1.77355893e-02, -3.46843852e-03, -1.34059926e-02,
       -5.73200348e-04, 9.63416137e-03, -7.33395945e-03, 1.69857163e-02,
       1.53881684e-02, 2.94250529e-02, 4.05504853e-02, 8.02907068e-03,
       -2.21561315e-03, 1.03053637e-02, -1.38899898e-02, -1.55666545e-02,
       -1.70695111e-02, -5.30857816e-02, -1.56311635e-02,
       -7.55118253e-03, 2.57884269e-03, 6.21805433e-04, -1.82330590e-02,
       8.91184527e-03, 5.54824015e-03, 1.79836415e-02, 1.53310718e-02,
       4.54182886e-02, 2.30891649e-02, 1.34227341e-02, -4.26213443e-03,
       3.89193604e-03, -8.93630739e-03, 3.30184084e-05, -8.10396485e-03,
       -2.65909657e-02, -3.51426415e-02, -3.91587876e-02,
       -1.36186779e-02, -3.77691835e-02, -6.81507727e-03,
       -6.09601708e-03, -2.08246578e-02, 2.59426958e-03, -1.88262539e-03,
       5.11186011e-02, 3.67351100e-02, 1.28684286e-02, 1.91251040e-02,
       1.99816413e-02, 8.91034200e-04, -6.34537637e-03, 2.14110827e-03,
       1.13441721e-02, -6.88033504e-03, 2.43408885e-03, -3.32530891e-03,
       -1.22815492e-02, 2.28545791e-03, 2.79717725e-02, 4.67961794e-03,
       4.32164379e-04, -1.25441654e-02, 3.37138027e-02, 2.24734787e-02,
       7.18155236e-04, -6.43878430e-03, 2.05122177e-02, 9.21541173e-03,
       6.92924950e-03, -2.13963985e-02, -1.49198538e-02, -1.32126808e-02,
       -5.11648599e-03, -1.35375373e-02, 1.72180384e-02, 2.14976873e-02,
       -1.52344126e-02, 1.01499800e-02, 1.67317688e-02, 2.98466031e-02,
       4.09120508e-03, 7.24954251e-03, 2.92607807e-02, 6.63632248e-03,
       -1.09496322e-02, 6.96508586e-03, 3.77201708e-03, 7.83673394e-03,
       1.58460159e-02, -1.74683183e-02, 2.39259470e-02, 3.34408646e-03,
       1.63140881e-03, -5.81629993e-03, 1.19264731e-02, 9.87287704e-03,
       8.01756233e-03, -4.78101010e-03, -1.02878176e-02, -8.25272873e-03,
       -1.37903765e-02, -1.41828433e-02, 2.18669251e-02, 2.36191563e-02,
       1.52575318e-02, -5.39501058e-03, -5.26011223e-03, -3.25945802e-02,
       1.55031672e-02, 5.89720113e-03, 5.45394281e-03, 2.63878107e-02,
       1.49013205e-02, -1.05009703e-02, 2.49422677e-02, 1.39707560e-02,
       -1.44288093e-02, 1.92671306e-02, 1.29584223e-02, 8.54154583e-03,
       -2.73010228e-03, 4.72906948e-04, -9.66664404e-03, 2.50972398e-02,
       2.09022127e-02, -2.05166289e-03, 1.13739474e-02, 1.20435851e-02,
       2.21000984e-04, -6.67812815e-03, 2.80860942e-02, 9.77008138e-03,
       1.64866466e-02, 8.47194530e-03, -1.07163505e-03, -2.67700851e-03,
       4.33827564e-03, 6.59015728e-03, 1.21694952e-02, 2.53619477e-02,
       8.29331856e-03, 7.37995282e-03, -1.63510405e-02, -2.98740547e-02,
       -1.18459146e-02, -8.90664931e-04, -1.41025623e-02, 5.06092096e-03,
       -6.16496569e-03, -4.53248061e-03, 9.34181362e-03, 2.08450179e-03,
       1.69142578e-02, 8.82316567e-03, 2.15908382e-02, 2.74788996e-04,
       -2.11016145e-02, -4.81044129e-03, -8.62182677e-03,
       -7.12644961e-03, 1.73923858e-02, -1.68844052e-02, 2.07036976e-02,
       9.49096866e-03, -2.80274078e-03, -7.35190278e-03, 5.57416212e-03,
       2.71597877e-02, 1.12003926e-02, -1.55265518e-02, -1.04207350e-02,
       -2.35056225e-02, 9.35668685e-03, -5.42784482e-03, -1.60515923e-02,
       -9.03828908e-03, -2.04129587e-03, -1.18129188e-03, 8.15738272e-03,
       -1.48544023e-02, -2.68644514e-03, 3.27018951e-03, 1.79185364e-02,
       -5.87173225e-03, -2.30323263e-02, -1.45488381e-02,
       -3.29551497e-03, 1.65745635e-02, 1.33472318e-02, 2.39110924e-03,
       -1.29529194e-03, 9.08755139e-03, -1.72096491e-02, -3.83237340e-02,
       3.39730689e-03, -7.41323596e-03, 2.21134610e-02, 3.06044538e-02,
       6.81045372e-03, 6.32822607e-03, 1.15519064e-02, -1.07361805e-02,
       1.55233534e-03, -2.07151342e-02, -2.24119308e-03, -9.51881288e-04,
       -1.17899722e-03, 1.32617017e-03, -2.23896503e-02, 2.31478573e-03,
       1.19852566e-03, -5.74038923e-03, -7.15049868e-03, 4.80721379e-03,
       1.33032706e-02, 1.34620639e-02, 7.60793267e-03, -1.43841165e-03,
       2.96634994e-03, -1.25756757e-02, -3.20926979e-02, -2.66752811e-03,
       -2.19776183e-02, -1.01338811e-02, -1.56721845e-02,
       -2.09987275e-02, -1.53471073e-02, -8.69330764e-03,
       -6.77129067e-03, -2.59026829e-02, -9.73146036e-03,
       -6.39055157e-03, -5.17757889e-03, -1.29050724e-02,
       -8.46414187e-04, 2.89595011e-03, -2.93315458e-03, -9.32456180e-03,
       -8.99063144e-03, -1.96022131e-02, -2.38295421e-02, 1.00937597e-02,
       2.09295191e-03, -3.19176912e-02, -2.36194357e-02, -2.45565102e-02,
       -3.38367862e-03, 3.66538391e-02, -1.20201074e-02, -3.32918833e-03,
       1.47764236e-02, 3.34860086e-02, -1.22999563e-03, -6.36041863e-03,
       1.00246081e-02, 1.00363754e-02, 3.78237329e-02, -1.99629012e-02,
       -6.64686877e-03, -6.95236772e-03, 5.66481939e-03, -3.06293201e-02,
       -1.35868490e-02, -1.88677609e-02, 1.82328466e-02, 3.69649380e-02,
       -1.30541367e-03, 3.09443986e-03, -6.81955740e-03, -1.88430957e-02,
       -1.28259836e-02, 4.58738022e-03, -1.23329749e-02, 1.42192943e-02,
       -1.77108683e-02, -2.25773286e-02, -9.14852135e-03,
       -1.93847362e-02, 1.73146222e-02, -1.66113731e-02, -1.21695763e-02,
       -4.13514636e-02, -2.39437670e-02, 7.29274331e-03, -1.45687182e-02,
       2.14875918e-02, -1.76302418e-02, 6.41930755e-03, -5.84407616e-03,
       7.35284248e-03, -1.88470967e-02, 1.81816537e-02, 4.00773771e-02,
       -1.42484321e-03, -9.79778543e-03, -1.59322470e-02,
       -5.04026301e-02, -2.25077365e-02, -6.86985347e-03,
       -1.82765699e-03, 1.53884692e-02, 5.91255762e-02, -4.54142410e-03,
       -2.86910329e-02, -1.52181536e-02, 1.26878554e-02, -3.56492028e-02,
       -2.13166513e-02, -2.10899841e-02, 1.86127033e-02, -8.47193040e-03,
       -3.33101526e-02, -7.22332718e-03, -2.83605568e-02,
       -2.17641927e-02, -6.17874321e-03, -9.14671546e-05,
       -2.28910963e-03, 1.27246790e-02, -3.66469435e-02, -1.15732616e-02,
       -2.18946729e-02, -2.72431262e-02, -1.77075900e-02,
       -1.41037479e-02, -2.87472997e-02, -3.33878696e-02,
       -1.03880875e-02, 4.68841717e-02, 1.80408135e-02, -4.22084145e-03,
       -1.60381701e-02, 9.94114578e-03, 9.88577958e-03, 1.76141653e-02,
       6.50727376e-03, 3.09085604e-02, 5.12236031e-03, -1.16254212e-02,
       -7.44411396e-03, -9.11961775e-03, 8.56630318e-03, -1.20115010e-02,
       1.28191616e-02, -2.30480358e-02, -1.38409976e-02, 1.05241137e-02,
       2.50766557e-02, 1.45792756e-02, -1.97285134e-02, 1.74367204e-02,
       1.83421355e-02, -3.18031549e-03, 1.03511363e-02, 4.58090827e-02,
       -1.60188545e-02, -2.77652685e-02, 2.50373408e-02, 1.08018965e-02,
       4.79824655e-03, -1.66137610e-02, -1.38219800e-02, -2.63749380e-02,
       -3.31759378e-02, 1.47958752e-02, -2.41447929e-02, -9.48399957e-03,
       -1.14008859e-02, 1.35780834e-02, -1.71261709e-04, 6.57902472e-03,
       -1.15633234e-02, 1.36461472e-02, -1.82512589e-02, -9.45220608e-03,
       -1.95376519e-02, -1.02392910e-02, -1.74839627e-02,
       -5.97439986e-03, -1.28162196e-02, -8.17122869e-03, 8.50751251e-03,
       3.72740552e-02, -3.75803746e-03, 2.12071612e-02, 1.51637234e-02,
       4.30935286e-02, -2.34777946e-02, 2.44932566e-02, 1.74682327e-02,
       4.03442308e-02, -1.01490179e-03, 7.74876680e-03, 2.21176422e-03,
       2.74578966e-02, 2.27154493e-02, -1.06864292e-02, 1.52485948e-02,
       -2.73866393e-03, 9.63485800e-03, -3.30162570e-02, -1.63035169e-02,
       3.09205917e-03, -1.87880378e-02, -2.03090925e-02, -3.16028018e-03,
       3.38639109e-03, -9.98942833e-03, 8.77750106e-03, 2.69650453e-04,
       4.82571544e-03, -5.68636879e-03, -1.47402911e-02, -3.07268873e-02,
       3.33532342e-03, 5.75301703e-03, -1.93331782e-02, -5.16993692e-03,
       -1.28283007e-02, 1.64064846e-03, 2.00054701e-02, 7.59860175e-03,
       1.97657831e-02, 9.42145661e-03, 8.40455666e-03, -7.16463197e-03,
       2.13851016e-02, 1.25596086e-02, -4.86496976e-03, 8.92874878e-03,
       -1.32357818e-03, 8.07977747e-03, 2.83913370e-02, 1.44299623e-02,
       -2.74332706e-03, 1.67906284e-02, -1.05926935e-02, 6.72521442e-03,
       1.52193261e-02, 7.09225377e-03, 2.59692315e-03, -1.28993876e-02,
       9.29114036e-03, -1.02104153e-02, -2.73444895e-02, -1.79982856e-02,
       -2.32938770e-02, -2.00455636e-02, -1.20623922e-02,
       -1.42198261e-02, -7.23583112e-03, -1.01997023e-02,
       -3.53621505e-02, -2.12257765e-02, 1.42437248e-02, -1.14585934e-02,
       -4.78044793e-04, 1.07617257e-03, 9.43217147e-03, -7.01345643e-03,
       6.68725790e-03, -1.41981207e-02, 8.48152302e-03, -7.00490177e-03,
       -1.87808815e-02, -2.17473675e-02, -1.07923225e-02, 2.87999082e-02,
       1.81847233e-02, 3.20797996e-03, -3.24478336e-02, -9.74251889e-03,
       -1.53596292e-03, 6.83430815e-03, -4.39345837e-03, -5.52750612e-03,
       -3.63452360e-02, -7.52613740e-03, -1.06305280e-03,
       -2.18654145e-02, -9.11080465e-03, -1.43540613e-02,
       -5.17632952e-03, 5.46862721e-04, -1.66023709e-03, -7.42319599e-03,
       -1.39699299e-02, -3.52827949e-03, -1.70261599e-03,
       -1.04328701e-02, 8.82732030e-03, -1.10903580e-03, -1.38828205e-02,
       -2.32348926e-02, -2.32065693e-02, 6.71391049e-03, 1.51003100e-04,
       -9.99809708e-03, 6.70337072e-03, 2.38295551e-02, -2.29098041e-05,
       1.18810665e-02, 3.67398909e-03, 1.05183283e-02, 2.04055812e-02,
       -4.69378103e-03, -1.22054135e-02, 1.80304404e-02, 1.34033868e-02,
       -4.12402535e-03, 2.05081678e-03, -3.94164212e-03, 1.27165159e-02,
       -2.10620258e-02, -3.90197296e-04, -1.94481248e-03,
       -5.74875194e-05, 4.54285275e-03, 4.42717364e-03, -4.25616698e-03,
       -1.70102976e-02, -1.86430886e-02, -6.84710080e-03, 2.70095207e-02,
       1.17880404e-02, -1.59118441e-03, 1.11283408e-02, 1.31803541e-03,
       2.68935766e-02, 1.33106131e-02, 9.08720121e-03, -1.39541458e-02,
       4.27811313e-03, -7.16386782e-03, 1.03415605e-02, 1.04902023e-02,
       2.09946334e-02, 1.18529052e-02, 1.06807016e-02, 4.81679384e-03,
       1.97440828e-03, 3.02368645e-02, 2.73319855e-02, 1.35964584e-02,
       8.08423199e-03, 1.10823126e-03, -4.36999789e-03, -7.39206187e-03,
       9.91850160e-03, -2.38288920e-02, -1.41097251e-02, -1.43453972e-02,
       1.58678815e-02, 1.08542126e-02, -6.44326350e-03, -9.21181217e-03,
       -2.97937095e-02, 9.09509137e-03, -1.14281680e-02, -1.09414356e-02,
       -2.43866336e-04, 2.16142386e-02, -8.41194950e-03, 6.31724298e-03,
       1.55662904e-02, -1.17096063e-02, 6.51889713e-03, -3.11519131e-02,
       -4.97981207e-03, 3.44822486e-03, -1.33844009e-02, -5.71562676e-04,
       -4.35409974e-03, 8.67859647e-03, -5.07133082e-03, 5.46551077e-03,
       -1.49356825e-02, 8.05319287e-03, 1.06662801e-02, 1.95570420e-02,
       -1.47499418e+00 ]
